FANN_FLO_2.1
num_layers=3
learning_rate=0.700000
connection_rate=1.000000
network_type=0
learning_momentum=0.000000
training_algorithm=2
train_error_function=1
train_stop_function=0
cascade_output_change_fraction=0.010000
quickprop_decay=-0.000100
quickprop_mu=1.750000
rprop_increase_factor=1.200000
rprop_decrease_factor=0.500000
rprop_delta_min=0.000000
rprop_delta_max=50.000000
rprop_delta_zero=0.100000
cascade_output_stagnation_epochs=12
cascade_candidate_change_fraction=0.010000
cascade_candidate_stagnation_epochs=12
cascade_max_out_epochs=150
cascade_min_out_epochs=50
cascade_max_cand_epochs=150
cascade_min_cand_epochs=50
cascade_num_candidate_groups=2
bit_fail_limit=3.49999994039535522461e-01
cascade_candidate_limit=1.00000000000000000000e+03
cascade_weight_multiplier=4.00000005960464477539e-01
cascade_activation_functions_count=10
cascade_activation_functions=3 5 7 8 10 11 14 15 16 17 
cascade_activation_steepnesses_count=4
cascade_activation_steepnesses=2.50000000000000000000e-01 5.00000000000000000000e-01 7.50000000000000000000e-01 1.00000000000000000000e+00 
layer_sizes=126 33 3 
scale_included=0
neurons (num_inputs, activation_function, activation_steepness)=(0, 0, 0.00000000000000000000e+00) (0, 0, 0.00000000000000000000e+00) (0, 0, 0.00000000000000000000e+00) (0, 0, 0.00000000000000000000e+00) (0, 0, 0.00000000000000000000e+00) (0, 0, 0.00000000000000000000e+00) (0, 0, 0.00000000000000000000e+00) (0, 0, 0.00000000000000000000e+00) (0, 0, 0.00000000000000000000e+00) (0, 0, 0.00000000000000000000e+00) (0, 0, 0.00000000000000000000e+00) (0, 0, 0.00000000000000000000e+00) (0, 0, 0.00000000000000000000e+00) (0, 0, 0.00000000000000000000e+00) (0, 0, 0.00000000000000000000e+00) (0, 0, 0.00000000000000000000e+00) (0, 0, 0.00000000000000000000e+00) (0, 0, 0.00000000000000000000e+00) (0, 0, 0.00000000000000000000e+00) (0, 0, 0.00000000000000000000e+00) (0, 0, 0.00000000000000000000e+00) (0, 0, 0.00000000000000000000e+00) (0, 0, 0.00000000000000000000e+00) (0, 0, 0.00000000000000000000e+00) (0, 0, 0.00000000000000000000e+00) (0, 0, 0.00000000000000000000e+00) (0, 0, 0.00000000000000000000e+00) (0, 0, 0.00000000000000000000e+00) (0, 0, 0.00000000000000000000e+00) (0, 0, 0.00000000000000000000e+00) (0, 0, 0.00000000000000000000e+00) (0, 0, 0.00000000000000000000e+00) (0, 0, 0.00000000000000000000e+00) (0, 0, 0.00000000000000000000e+00) (0, 0, 0.00000000000000000000e+00) (0, 0, 0.00000000000000000000e+00) (0, 0, 0.00000000000000000000e+00) (0, 0, 0.00000000000000000000e+00) (0, 0, 0.00000000000000000000e+00) (0, 0, 0.00000000000000000000e+00) (0, 0, 0.00000000000000000000e+00) (0, 0, 0.00000000000000000000e+00) (0, 0, 0.00000000000000000000e+00) (0, 0, 0.00000000000000000000e+00) (0, 0, 0.00000000000000000000e+00) (0, 0, 0.00000000000000000000e+00) (0, 0, 0.00000000000000000000e+00) (0, 0, 0.00000000000000000000e+00) (0, 0, 0.00000000000000000000e+00) (0, 0, 0.00000000000000000000e+00) (0, 0, 0.00000000000000000000e+00) (0, 0, 0.00000000000000000000e+00) (0, 0, 0.00000000000000000000e+00) (0, 0, 0.00000000000000000000e+00) (0, 0, 0.00000000000000000000e+00) (0, 0, 0.00000000000000000000e+00) (0, 0, 0.00000000000000000000e+00) (0, 0, 0.00000000000000000000e+00) (0, 0, 0.00000000000000000000e+00) (0, 0, 0.00000000000000000000e+00) (0, 0, 0.00000000000000000000e+00) (0, 0, 0.00000000000000000000e+00) (0, 0, 0.00000000000000000000e+00) (0, 0, 0.00000000000000000000e+00) (0, 0, 0.00000000000000000000e+00) (0, 0, 0.00000000000000000000e+00) (0, 0, 0.00000000000000000000e+00) (0, 0, 0.00000000000000000000e+00) (0, 0, 0.00000000000000000000e+00) (0, 0, 0.00000000000000000000e+00) (0, 0, 0.00000000000000000000e+00) (0, 0, 0.00000000000000000000e+00) (0, 0, 0.00000000000000000000e+00) (0, 0, 0.00000000000000000000e+00) (0, 0, 0.00000000000000000000e+00) (0, 0, 0.00000000000000000000e+00) (0, 0, 0.00000000000000000000e+00) (0, 0, 0.00000000000000000000e+00) (0, 0, 0.00000000000000000000e+00) (0, 0, 0.00000000000000000000e+00) (0, 0, 0.00000000000000000000e+00) (0, 0, 0.00000000000000000000e+00) (0, 0, 0.00000000000000000000e+00) (0, 0, 0.00000000000000000000e+00) (0, 0, 0.00000000000000000000e+00) (0, 0, 0.00000000000000000000e+00) (0, 0, 0.00000000000000000000e+00) (0, 0, 0.00000000000000000000e+00) (0, 0, 0.00000000000000000000e+00) (0, 0, 0.00000000000000000000e+00) (0, 0, 0.00000000000000000000e+00) (0, 0, 0.00000000000000000000e+00) (0, 0, 0.00000000000000000000e+00) (0, 0, 0.00000000000000000000e+00) (0, 0, 0.00000000000000000000e+00) (0, 0, 0.00000000000000000000e+00) (0, 0, 0.00000000000000000000e+00) (0, 0, 0.00000000000000000000e+00) (0, 0, 0.00000000000000000000e+00) (0, 0, 0.00000000000000000000e+00) (0, 0, 0.00000000000000000000e+00) (0, 0, 0.00000000000000000000e+00) (0, 0, 0.00000000000000000000e+00) (0, 0, 0.00000000000000000000e+00) (0, 0, 0.00000000000000000000e+00) (0, 0, 0.00000000000000000000e+00) (0, 0, 0.00000000000000000000e+00) (0, 0, 0.00000000000000000000e+00) (0, 0, 0.00000000000000000000e+00) (0, 0, 0.00000000000000000000e+00) (0, 0, 0.00000000000000000000e+00) (0, 0, 0.00000000000000000000e+00) (0, 0, 0.00000000000000000000e+00) (0, 0, 0.00000000000000000000e+00) (0, 0, 0.00000000000000000000e+00) (0, 0, 0.00000000000000000000e+00) (0, 0, 0.00000000000000000000e+00) (0, 0, 0.00000000000000000000e+00) (0, 0, 0.00000000000000000000e+00) (0, 0, 0.00000000000000000000e+00) (0, 0, 0.00000000000000000000e+00) (0, 0, 0.00000000000000000000e+00) (0, 0, 0.00000000000000000000e+00) (0, 0, 0.00000000000000000000e+00) (0, 0, 0.00000000000000000000e+00) (0, 0, 0.00000000000000000000e+00) (126, 5, 5.00000000000000000000e-01) (126, 5, 5.00000000000000000000e-01) (126, 5, 5.00000000000000000000e-01) (126, 5, 5.00000000000000000000e-01) (126, 5, 5.00000000000000000000e-01) (126, 5, 5.00000000000000000000e-01) (126, 5, 5.00000000000000000000e-01) (126, 5, 5.00000000000000000000e-01) (126, 5, 5.00000000000000000000e-01) (126, 5, 5.00000000000000000000e-01) (126, 5, 5.00000000000000000000e-01) (126, 5, 5.00000000000000000000e-01) (126, 5, 5.00000000000000000000e-01) (126, 5, 5.00000000000000000000e-01) (126, 5, 5.00000000000000000000e-01) (126, 5, 5.00000000000000000000e-01) (126, 5, 5.00000000000000000000e-01) (126, 5, 5.00000000000000000000e-01) (126, 5, 5.00000000000000000000e-01) (126, 5, 5.00000000000000000000e-01) (126, 5, 5.00000000000000000000e-01) (126, 5, 5.00000000000000000000e-01) (126, 5, 5.00000000000000000000e-01) (126, 5, 5.00000000000000000000e-01) (126, 5, 5.00000000000000000000e-01) (126, 5, 5.00000000000000000000e-01) (126, 5, 5.00000000000000000000e-01) (126, 5, 5.00000000000000000000e-01) (126, 5, 5.00000000000000000000e-01) (126, 5, 5.00000000000000000000e-01) (126, 5, 5.00000000000000000000e-01) (126, 5, 5.00000000000000000000e-01) (0, 5, 0.00000000000000000000e+00) (33, 3, 5.00000000000000000000e-01) (33, 3, 5.00000000000000000000e-01) (0, 3, 0.00000000000000000000e+00) 
connections (connected_to_neuron, weight)=(0, -2.36862972378730773926e-02) (1, 1.26186618804931640625e+01) (2, -3.26467394828796386719e-01) (3, 2.21999347209930419922e-01) (4, -6.57374933362007141113e-02) (5, -1.27618227005004882812e+01) (6, -3.29097211360931396484e-01) (7, 1.27748708724975585938e+01) (8, 3.86642217636108398438e-01) (9, 5.47216534614562988281e-01) (10, -4.28038060665130615234e-01) (11, 5.59310770034790039062e+00) (12, -1.27663183212280273438e+01) (13, -6.35040163993835449219e-01) (14, -1.26519336700439453125e+01) (15, 6.69276416301727294922e-01) (16, -1.26671304702758789062e+01) (17, 4.51553851366043090820e-01) (18, 7.63668641448020935059e-02) (19, 7.44588077068328857422e-01) (20, -1.22648455202579498291e-01) (21, 2.12629839777946472168e-01) (22, -1.26895942687988281250e+01) (23, -1.27942247390747070312e+01) (24, 1.27466001510620117188e+01) (25, 1.28046979904174804688e+01) (26, 1.27834529876708984375e+01) (27, 1.27143363952636718750e+01) (28, -1.19981443881988525391e+00) (29, 1.26124124526977539062e+01) (30, 1.27392301559448242188e+01) (31, -2.31573557853698730469e+00) (32, 1.26194019317626953125e+01) (33, 3.86653661727905273438e-01) (34, 1.27859783172607421875e+01) (35, 5.73671758174896240234e-01) (36, -2.92361855506896972656e-01) (37, 1.28067684173583984375e+01) (38, -4.21587347984313964844e-01) (39, 5.13669431209564208984e-01) (40, -1.15475006401538848877e-01) (41, -3.02763551473617553711e-01) (42, 1.26154069900512695312e+01) (43, 6.66967451572418212891e-01) (44, -2.43496388196945190430e-01) (45, 1.27751455307006835938e+01) (46, -1.27343683242797851562e+01) (47, -2.91298210620880126953e-01) (48, -6.82569518685340881348e-02) (49, -1.26750888824462890625e+01) (50, -2.64418333768844604492e-01) (51, 9.05714258551597595215e-02) (52, 4.83436048030853271484e-01) (53, -1.12937636673450469971e-01) (54, 1.75580039620399475098e-01) (55, -2.26360368728637695312e+00) (56, 1.27487926483154296875e+01) (57, -5.98570525646209716797e-01) (58, 1.26809873580932617188e+01) (59, -1.28026876449584960938e+01) (60, -3.30734521150588989258e-01) (61, -1.61051666736602783203e+00) (62, 8.19755375385284423828e-01) (63, -3.83916020393371582031e-01) (64, -1.16723287105560302734e+00) (65, 1.66758322715759277344e+00) (66, 3.19126024842262268066e-02) (67, -5.57265460491180419922e-01) (68, 6.71441376209259033203e-01) (69, 1.26847019195556640625e+01) (70, 1.26938972473144531250e+01) (71, -1.27351636886596679688e+01) (72, -1.26191749572753906250e+01) (73, 5.12210369110107421875e-01) (74, -1.27062053680419921875e+01) (75, -2.89243042469024658203e-01) (76, 1.26611051559448242188e+01) (77, -1.39527723193168640137e-01) (78, 1.26850051879882812500e+01) (79, 1.26498804092407226562e+01) (80, -1.26923179626464843750e+01) (81, -1.27163238525390625000e+01) (82, 1.73546344041824340820e-01) (83, -1.26605939865112304688e+01) (84, -2.57861942052841186523e-01) (85, 1.26591682434082031250e+01) (86, -2.32158392667770385742e-01) (87, 1.27882375717163085938e+01) (88, -1.27790288925170898438e+01) (89, -1.26246299743652343750e+01) (90, 3.85429859161376953125e-01) (91, 1.26302042007446289062e+01) (92, 1.27955875396728515625e+01) (93, 3.08933258056640625000e-01) (94, -8.86791527271270751953e-01) (95, 1.27792329788208007812e+01) (96, -4.18374948203563690186e-02) (97, -1.27477979660034179688e+01) (98, 1.27995014190673828125e+01) (99, 1.27114391326904296875e+01) (100, -1.60402387380599975586e-01) (101, 1.26817264556884765625e+01) (102, 1.27879486083984375000e+01) (103, -6.54317736625671386719e-01) (104, -6.27706468105316162109e-01) (105, -1.27299289703369140625e+01) (106, 1.56241571903228759766e+00) (107, 1.26171169281005859375e+01) (108, -1.27471570968627929688e+01) (109, -1.27482948303222656250e+01) (110, 2.01137557625770568848e-01) (111, -1.26278018951416015625e+01) (112, -1.26529455184936523438e+01) (113, 1.79443335533142089844e+00) (114, -1.26767234802246093750e+01) (115, -9.78409945964813232422e-02) (116, 5.41191518306732177734e-01) (117, -6.84159040451049804688e-01) (118, -1.21276460587978363037e-01) (119, -2.03286230564117431641e-01) (120, 5.75914561748504638672e-01) (121, -5.94681166112422943115e-02) (122, 1.94331288337707519531e-01) (123, -1.27880373001098632812e+01) (124, -3.60100343823432922363e-02) (125, -1.61287277936935424805e-01) (0, -2.69477903842926025391e-01) (1, -5.03032970428466796875e+00) (2, -1.36966645717620849609e-01) (3, 7.04013049602508544922e-01) (4, 2.88267105817794799805e-01) (5, 2.41588807106018066406e+00) (6, -8.23524817824363708496e-02) (7, -4.95428705215454101562e+00) (8, 1.56898438930511474609e-01) (9, 2.96563506126403808594e-02) (10, -1.14369682967662811279e-01) (11, -1.39656412601470947266e+00) (12, 9.09665226936340332031e-01) (13, 2.83535495400428771973e-02) (14, 1.07133328914642333984e+00) (15, 1.49670064449310302734e-01) (16, 9.81503725051879882812e-01) (17, 2.81745046377182006836e-01) (18, -3.28707844018936157227e-01) (19, 1.59685667604207992554e-02) (20, -7.27802813053131103516e-02) (21, 2.27091789245605468750e-01) (22, 5.09652900695800781250e+00) (23, 5.13036584854125976562e+00) (24, -5.09137153625488281250e+00) (25, -4.99680995941162109375e+00) (26, -5.04240846633911132812e+00) (27, -4.91492176055908203125e+00) (28, 1.88559532165527343750e-01) (29, -4.97307062149047851562e+00) (30, -4.92632150650024414062e+00) (31, 3.03855955600738525391e-01) (32, 1.26213321685791015625e+01) (33, -3.60913902521133422852e-01) (34, 1.27152481079101562500e+01) (35, 2.53294706344604492188e-01) (36, -1.19076311588287353516e-01) (37, 1.27643251419067382812e+01) (38, 6.77209123969078063965e-02) (39, 2.08507567644119262695e-01) (40, 1.32260359823703765869e-02) (41, 1.01707391440868377686e-01) (42, -5.05686616897583007812e+00) (43, 3.19092154502868652344e-01) (44, 4.89662379026412963867e-01) (45, -5.08466434478759765625e+00) (46, 5.04899215698242187500e+00) (47, 8.25818851590156555176e-02) (48, 8.26463326811790466309e-02) (49, 5.18095779418945312500e+00) (50, -3.18288505077362060547e-02) (51, -3.49208191037178039551e-02) (52, 7.93363451957702636719e-02) (53, -3.00974100828170776367e-02) (54, -1.96741774678230285645e-01) (55, 2.06130981445312500000e-01) (56, 1.27614440917968750000e+01) (57, -9.46637317538261413574e-02) (58, 1.26301069259643554688e+01) (59, 5.10965681076049804688e+00) (60, 1.93887189030647277832e-01) (61, 6.92823588848114013672e-01) (62, 7.86911398172378540039e-02) (63, 2.06396505236625671387e-02) (64, 4.19005416333675384521e-02) (65, -8.53285789489746093750e-01) (66, 3.48449498414993286133e-01) (67, -1.18946224451065063477e-01) (68, 1.30569458007812500000e-01) (69, -4.99006271362304687500e+00) (70, -4.91230487823486328125e+00) (71, 5.04817819595336914062e+00) (72, 5.11485290527343750000e+00) (73, 1.94704547524452209473e-01) (74, 5.21645402908325195312e+00) (75, -1.36511186137795448303e-02) (76, -5.04077577590942382812e+00) (77, 1.52689442038536071777e-01) (78, -4.99511909484863281250e+00) (79, -5.08798122406005859375e+00) (80, 5.19334459304809570312e+00) (81, 5.10799264907836914062e+00) (82, 2.51259922981262207031e-01) (83, 5.20501279830932617188e+00) (84, -5.08181750774383544922e-02) (85, -5.02035474777221679688e+00) (86, -3.88287276029586791992e-01) (87, 1.26829576492309570312e+01) (88, 5.16255760192871093750e+00) (89, 5.05027341842651367188e+00) (90, -2.39184841513633728027e-01) (91, -4.98719072341918945312e+00) (92, -5.08414363861083984375e+00) (93, 2.29757711291313171387e-01) (94, 4.21623364090919494629e-02) (95, 1.26653842926025390625e+01) (96, 2.13645696640014648438e-01) (97, 2.24484276771545410156e+00) (98, -4.99943256378173828125e+00) (99, -4.96928119659423828125e+00) (100, -1.64955988526344299316e-01) (101, 1.27129945755004882812e+01) (102, 1.27705698013305664062e+01) (103, 2.55503430962562561035e-02) (104, 7.50623717904090881348e-02) (105, 5.17535114288330078125e+00) (106, 8.25752690434455871582e-02) (107, -5.09556484222412109375e+00) (108, 5.18773746490478515625e+00) (109, 5.19232034683227539062e+00) (110, 6.76333308219909667969e-02) (111, 5.15455198287963867188e+00) (112, 5.07378292083740234375e+00) (113, -2.16109633445739746094e+00) (114, 5.13303470611572265625e+00) (115, -4.66667339205741882324e-02) (116, 1.85984522104263305664e-01) (117, 4.16656062006950378418e-02) (118, -1.75382047891616821289e-01) (119, 2.24463313817977905273e-01) (120, -4.19288337230682373047e-01) (121, 3.45278561115264892578e-01) (122, 3.35138678550720214844e-01) (123, 5.18447399139404296875e+00) (124, -4.53284680843353271484e-02) (125, -2.09785908460617065430e-01) (0, 3.13427358865737915039e-01) (1, 5.05642509460449218750e+00) (2, 7.07518756389617919922e-01) (3, 4.80062156915664672852e-01) (4, 4.42930962890386581421e-03) (5, -5.02443504333496093750e+00) (6, 2.19955474138259887695e-01) (7, 5.15257072448730468750e+00) (8, 1.46382942795753479004e-01) (9, 1.44291460514068603516e-01) (10, 5.11680424213409423828e-01) (11, 4.39112722873687744141e-01) (12, -4.93027925491333007812e+00) (13, 3.03477525711059570312e-01) (14, -4.90856695175170898438e+00) (15, 4.33450657874345779419e-03) (16, -4.94243860244750976562e+00) (17, 8.27197805047035217285e-02) (18, 6.80202364921569824219e-01) (19, 1.32367923855781555176e-01) (20, 3.32007586956024169922e-01) (21, -1.68041750788688659668e-01) (22, -4.92411947250366210938e+00) (23, -5.05249595642089843750e+00) (24, 5.13054561614990234375e+00) (25, 5.14449787139892578125e+00) (26, 5.07502651214599609375e+00) (27, 5.20204544067382812500e+00) (28, -4.39256489276885986328e-01) (29, 5.03157854080200195312e+00) (30, 5.18585586547851562500e+00) (31, -5.01896238327026367188e+00) (32, 1.26466159820556640625e+01) (33, 3.95354092121124267578e-01) (34, 1.26179933547973632812e+01) (35, -1.14272357895970344543e-02) (36, -2.37155064940452575684e-01) (37, 1.26380681991577148438e+01) (38, 2.89256066083908081055e-01) (39, 1.61452367901802062988e-02) (40, 3.60453963279724121094e-01) (41, 1.71761736273765563965e-01) (42, 5.15263605117797851562e+00) (43, 2.05436170101165771484e-01) (44, -8.67880702018737792969e-01) (45, 5.15059900283813476562e+00) (46, -4.93283271789550781250e+00) (47, 5.47717332839965820312e-01) (48, 4.07854974269866943359e-01) (49, -4.99710988998413085938e+00) (50, 3.00065010786056518555e-01) (51, 2.93257802724838256836e-01) (52, -1.65125355124473571777e-02) (53, 6.88956260681152343750e-01) (54, 4.66058343648910522461e-01) (55, -5.01648068428039550781e-01) (56, 1.27857971191406250000e+01) (57, 1.04915313422679901123e-01) (58, 1.27524795532226562500e+01) (59, -5.05649328231811523438e+00) (60, -1.26352339982986450195e-01) (61, -2.03012156486511230469e+00) (62, 1.99375778436660766602e-01) (63, 2.30817839503288269043e-01) (64, -8.30216854810714721680e-02) (65, 6.72669470310211181641e-01) (66, -1.08710691332817077637e-01) (67, 1.55344530940055847168e-01) (68, 3.31824988126754760742e-01) (69, 5.08253526687622070312e+00) (70, 5.17078018188476562500e+00) (71, -4.94452762603759765625e+00) (72, -5.04753541946411132812e+00) (73, 1.07859700918197631836e-01) (74, -4.97659540176391601562e+00) (75, 2.60265350341796875000e-01) (76, 5.22095489501953125000e+00) (77, -2.47113630175590515137e-01) (78, 5.12773323059082031250e+00) (79, 5.19024038314819335938e+00) (80, -5.09347820281982421875e+00) (81, -4.93158054351806640625e+00) (82, 1.84481874108314514160e-01) (83, -5.03220319747924804688e+00) (84, 2.36641600728034973145e-01) (85, 5.21080970764160156250e+00) (86, 4.00927394628524780273e-01) (87, 1.26169033050537109375e+01) (88, -5.03645181655883789062e+00) (89, -4.92610502243041992188e+00) (90, 4.16575878858566284180e-01) (91, 5.18745470046997070312e+00) (92, 5.10708713531494140625e+00) (93, 5.54179966449737548828e-01) (94, -2.76788026094436645508e-01) (95, 1.26264076232910156250e+01) (96, -2.13949903845787048340e-01) (97, -5.09193754196166992188e+00) (98, 5.09158182144165039062e+00) (99, 5.13364601135253906250e+00) (100, 2.76133775711059570312e-01) (101, 1.26209745407104492188e+01) (102, 1.26807909011840820312e+01) (103, 1.48709759116172790527e-01) (104, 9.87749621272087097168e-02) (105, -4.90747690200805664062e+00) (106, 7.92323276400566101074e-02) (107, 5.10061264038085937500e+00) (108, -5.00384521484375000000e+00) (109, -4.97768115997314453125e+00) (110, -1.24921187758445739746e-01) (111, -4.99079322814941406250e+00) (112, -5.00273180007934570312e+00) (113, 2.05454540252685546875e+00) (114, -4.91646623611450195312e+00) (115, 3.17307293415069580078e-01) (116, -1.50845959782600402832e-01) (117, 8.41538235545158386230e-02) (118, 3.01262348890304565430e-01) (119, -3.30965340137481689453e-01) (120, 5.77424407005310058594e-01) (121, 1.44672095775604248047e-01) (122, -3.71175825595855712891e-01) (123, -5.01586627960205078125e+00) (124, 4.90043073892593383789e-01) (125, 4.48078393936157226562e-01) (0, 6.00503832101821899414e-02) (1, 1.99484109878540039062e+00) (2, -1.62167593836784362793e-01) (3, -9.14101779460906982422e-01) (4, -3.11931490898132324219e-01) (5, -1.83829450607299804688e+00) (6, -4.43842172622680664062e-01) (7, 1.03111433982849121094e+00) (8, -4.13616299629211425781e-01) (9, 4.18609410524368286133e-01) (10, -6.54814064502716064453e-01) (11, 1.99897193908691406250e+00) (12, 3.30429226160049438477e-01) (13, -2.34266728162765502930e-01) (14, -1.95220708847045898438e+00) (15, 3.02485525608062744141e-01) (16, -1.89147806167602539062e+00) (17, 3.91873002052307128906e-01) (18, 8.62648636102676391602e-02) (19, 2.79047161340713500977e-01) (20, 9.04087573289871215820e-02) (21, -3.90060007572174072266e-01) (22, -2.00853276252746582031e+00) (23, -2.11017107963562011719e+00) (24, 1.09405064582824707031e+00) (25, 2.28768181800842285156e+00) (26, 2.04893779754638671875e+00) (27, 2.18094611167907714844e+00) (28, -1.94695308804512023926e-01) (29, 8.03488016128540039062e-01) (30, 2.19011521339416503906e+00) (31, -2.70066678524017333984e-01) (32, 1.27572946548461914062e+01) (33, -2.27868214249610900879e-01) (34, 1.27268133163452148438e+01) (35, 1.54276147484779357910e-01) (36, -3.63652914762496948242e-01) (37, 1.27065649032592773438e+01) (38, -2.96933669596910476685e-02) (39, -1.12052395939826965332e-01) (40, -8.30042138695716857910e-02) (41, -5.78447356820106506348e-02) (42, 2.29418659210205078125e+00) (43, 3.17822456359863281250e-01) (44, -3.46272319555282592773e-01) (45, 2.02983331680297851562e+00) (46, -2.08797383308410644531e+00) (47, 3.14843617379665374756e-02) (48, 7.14331492781639099121e-02) (49, -2.13191652297973632812e+00) (50, -3.75798165798187255859e-01) (51, 5.71160435676574707031e-01) (52, -3.74922454357147216797e-01) (53, 7.88450762629508972168e-02) (54, -5.16908288002014160156e-01) (55, -1.81849569082260131836e-01) (56, 1.27089376449584960938e+01) (57, -2.06011474132537841797e-01) (58, 1.26804485321044921875e+01) (59, -2.01049733161926269531e+00) (60, -7.99858272075653076172e-01) (61, 4.39672678709030151367e-01) (62, 2.39018440246582031250e-01) (63, -2.78842031955718994141e-01) (64, -8.89093995094299316406e-01) (65, 1.90046906471252441406e-01) (66, 2.18426540493965148926e-01) (67, -1.89317762851715087891e-01) (68, 4.76023912429809570312e-01) (69, 2.30308389663696289062e+00) (70, 2.03923034667968750000e+00) (71, -2.10147285461425781250e+00) (72, -2.00356292724609375000e+00) (73, 4.07736539840698242188e-01) (74, -2.01367831230163574219e+00) (75, -2.54298985004425048828e-01) (76, 2.06066203117370605469e+00) (77, 3.04420828819274902344e-01) (78, 2.16632270812988281250e+00) (79, 2.18256640434265136719e+00) (80, -2.13946056365966796875e+00) (81, -2.10966920852661132812e+00) (82, 2.67713516950607299805e-01) (83, -1.99921464920043945312e+00) (84, -5.12839332222938537598e-02) (85, 1.07615470886230468750e+00) (86, -3.27967464923858642578e-01) (87, 1.26949596405029296875e+01) (88, -2.05977225303649902344e+00) (89, -2.02595496177673339844e+00) (90, -3.60446691513061523438e-01) (91, 1.91855120658874511719e+00) (92, 2.05759000778198242188e+00) (93, -4.14077579975128173828e-01) (94, -1.06903791427612304688e-01) (95, 1.27248678207397460938e+01) (96, -4.91726309061050415039e-01) (97, -1.96943664550781250000e+00) (98, 2.24889135360717773438e+00) (99, 2.20541143417358398438e+00) (100, -2.32459038496017456055e-01) (101, 1.27440862655639648438e+01) (102, 1.26460113525390625000e+01) (103, -2.37621232867240905762e-01) (104, -2.75837540626525878906e-01) (105, -1.97934007644653320312e+00) (106, 2.46841728687286376953e-01) (107, 2.11766386032104492188e+00) (108, -1.98688411712646484375e+00) (109, -2.04545545578002929688e+00) (110, -2.77192473411560058594e-01) (111, -1.97929072380065917969e+00) (112, -2.00807070732116699219e+00) (113, 1.73438167572021484375e+00) (114, -2.03145122528076171875e+00) (115, 1.62052493542432785034e-02) (116, -4.64218974113464355469e-01) (117, 3.10239374637603759766e-01) (118, -1.00507356226444244385e-01) (119, -4.50972855091094970703e-01) (120, 1.37428343296051025391e-01) (121, 2.58165031671524047852e-01) (122, 8.23610797524452209473e-02) (123, -2.01709270477294921875e+00) (124, 2.71541148424148559570e-01) (125, -2.37387791275978088379e-01) (0, -1.50423601269721984863e-01) (1, 7.28700399398803710938e+00) (2, 1.04848682880401611328e-01) (3, -1.77989639341831207275e-02) (4, -6.36360645294189453125e-01) (5, -1.26231050491333007812e+01) (6, -3.57484996318817138672e-01) (7, 7.31009912490844726562e+00) (8, 6.48523509502410888672e-01) (9, 5.54237008094787597656e-01) (10, -6.13561123609542846680e-02) (11, 1.92508852481842041016e+00) (12, -1.27151336669921875000e+01) (13, -1.80499047040939331055e-01) (14, -1.26988382339477539062e+01) (15, 2.54925876855850219727e-01) (16, -1.26662235260009765625e+01) (17, -9.65490579605102539062e-01) (18, 1.36418640613555908203e-02) (19, 6.97708427906036376953e-01) (20, 3.89686226844787597656e-02) (21, 4.77726250886917114258e-01) (22, -1.27826948165893554688e+01) (23, -1.26265563964843750000e+01) (24, 7.31754732131958007812e+00) (25, 7.37830114364624023438e+00) (26, 7.27355051040649414062e+00) (27, 9.38450622558593750000e+00) (28, -6.36277794837951660156e-01) (29, 7.40277910232543945312e+00) (30, 7.44745874404907226562e+00) (31, -5.57748842239379882812e+00) (32, 1.27808599472045898438e+01) (33, 1.29284217953681945801e-01) (34, 1.26557884216308593750e+01) (35, 5.43358385562896728516e-01) (36, -1.98613345623016357422e-01) (37, 1.27411956787109375000e+01) (38, -4.08440053462982177734e-01) (39, 5.44520795345306396484e-01) (40, -9.88190889358520507812e-01) (41, -1.06127536296844482422e+00) (42, 7.36788892745971679688e+00) (43, 1.77941471338272094727e-03) (44, -2.81989693641662597656e-01) (45, 7.28072309494018554688e+00) (46, -1.26266202926635742188e+01) (47, 4.30952571332454681396e-03) (48, -3.70648860931396484375e-01) (49, -1.27585515975952148438e+01) (50, -2.53828018903732299805e-01) (51, -2.79312998056411743164e-01) (52, 6.20305120944976806641e-01) (53, -1.05660401284694671631e-01) (54, -9.34308674186468124390e-03) (55, -2.40086483955383300781e+00) (56, 1.27948083877563476562e+01) (57, -1.06580674648284912109e+00) (58, 1.26853208541870117188e+01) (59, -1.27805719375610351562e+01) (60, -3.26705247163772583008e-01) (61, -1.74657928943634033203e+00) (62, 5.95443367958068847656e-01) (63, -5.85915327072143554688e-01) (64, -6.31811976432800292969e-01) (65, 1.16815710067749023438e+00) (66, -4.05522048473358154297e-01) (67, -5.53879916667938232422e-01) (68, 3.50880265235900878906e-01) (69, 9.51845550537109375000e+00) (70, 9.42774200439453125000e+00) (71, -8.23541259765625000000e+00) (72, -1.27814970016479492188e+01) (73, -4.68344306945800781250e+00) (74, -1.27691669464111328125e+01) (75, -2.93605327606201171875e-01) (76, 7.27580976486206054688e+00) (77, -6.24266028404235839844e-01) (78, 9.37517929077148437500e+00) (79, 9.42800331115722656250e+00) (80, -8.17564773559570312500e+00) (81, -1.27405862808227539062e+01) (82, -4.74170732498168945312e+00) (83, -1.27588539123535156250e+01) (84, -2.88327783346176147461e-01) (85, 7.43130350112915039062e+00) (86, 4.06102538108825683594e-02) (87, 1.27310276031494140625e+01) (88, -1.27932310104370117188e+01) (89, -1.26558170318603515625e+01) (90, 1.08858145773410797119e-01) (91, 7.26865720748901367188e+00) (92, 9.35691261291503906250e+00) (93, 5.20844459533691406250e-01) (94, -7.31476485729217529297e-01) (95, 1.26600284576416015625e+01) (96, -6.12806200981140136719e-01) (97, -1.27004518508911132812e+01) (98, 9.37974357604980468750e+00) (99, 9.47512626647949218750e+00) (100, -3.35117906332015991211e-01) (101, 1.27386646270751953125e+01) (102, 1.27674665451049804688e+01) (103, -9.93638873100280761719e-01) (104, -9.91163969039916992188e-01) (105, -1.26133728027343750000e+01) (106, 1.16469645500183105469e+00) (107, 7.39788961410522460938e+00) (108, -1.27858152389526367188e+01) (109, -8.24196243286132812500e+00) (110, -1.11200064420700073242e-01) (111, -1.27051362991333007812e+01) (112, -8.17087554931640625000e+00) (113, 1.46689987182617187500e+00) (114, -1.26523180007934570312e+01) (115, -2.74342477321624755859e-01) (116, 4.91883248090744018555e-01) (117, -3.50317788124084472656e+00) (118, -3.01867783069610595703e-01) (119, -3.77073466777801513672e-01) (120, 3.45390200614929199219e-01) (121, -1.53717374801635742188e+00) (122, -1.51665881276130676270e-01) (123, -1.27975893020629882812e+01) (124, -1.02948158979415893555e-01) (125, 8.58443900942802429199e-02) (0, 1.03971391916275024414e-01) (1, 1.26148500442504882812e+01) (2, -4.02090698480606079102e-02) (3, 2.64148175716400146484e-01) (4, 2.19420287758111953735e-02) (5, -1.26835813522338867188e+01) (6, -3.56754779815673828125e-01) (7, 1.27055234909057617188e+01) (8, 6.26712799072265625000e-01) (9, 5.09715378284454345703e-01) (10, -3.50742280483245849609e-01) (11, 2.87003993988037109375e+00) (12, -1.27230739593505859375e+01) (13, -9.95236039161682128906e-01) (14, -1.27701787948608398438e+01) (15, 2.05411225557327270508e-01) (16, -1.27871294021606445312e+01) (17, -1.50170874595642089844e+00) (18, 5.41958957910537719727e-02) (19, 9.19158279895782470703e-01) (20, 8.22749361395835876465e-02) (21, 3.67999434471130371094e-01) (22, -1.27862119674682617188e+01) (23, -1.27220335006713867188e+01) (24, 1.27725820541381835938e+01) (25, 1.26345520019531250000e+01) (26, 1.27927923202514648438e+01) (27, 1.27325592041015625000e+01) (28, -4.85520392656326293945e-01) (29, 1.27569513320922851562e+01) (30, 1.26600008010864257812e+01) (31, -2.33085131645202636719e+00) (32, 1.27601289749145507812e+01) (33, 3.13476473093032836914e-01) (34, 1.26130113601684570312e+01) (35, 5.02429544925689697266e-01) (36, -2.91060388088226318359e-01) (37, 1.26419401168823242188e+01) (38, -4.83139902353286743164e-01) (39, 5.78342854976654052734e-01) (40, -7.85088419914245605469e-01) (41, -5.90990006923675537109e-01) (42, 1.27015790939331054688e+01) (43, 1.87363788485527038574e-01) (44, -1.21122792363166809082e-01) (45, 1.27430734634399414062e+01) (46, -1.26278524398803710938e+01) (47, -4.27828431129455566406e-01) (48, -3.84546220302581787109e-01) (49, -1.27517366409301757812e+01) (50, -2.36204862594604492188e-02) (51, -9.83870103955268859863e-02) (52, 5.84793269634246826172e-01) (53, -6.39079689979553222656e-01) (54, 3.14707994461059570312e-01) (55, -2.40011715888977050781e+00) (56, 1.26589756011962890625e+01) (57, -1.03552269935607910156e+00) (58, 1.27626962661743164062e+01) (59, -1.27274065017700195312e+01) (60, -4.93623524904251098633e-01) (61, -5.46925878524780273438e+00) (62, 7.44734764099121093750e-01) (63, -2.74503946304321289062e-01) (64, -5.77160596847534179688e-01) (65, 1.75478196144104003906e+00) (66, -4.91309672594070434570e-01) (67, -3.44534814357757568359e-01) (68, 5.93811690807342529297e-01) (69, 1.26500034332275390625e+01) (70, 1.27758750915527343750e+01) (71, -1.26151227951049804688e+01) (72, -1.27008285522460937500e+01) (73, -1.57454514503479003906e+00) (74, -1.27452487945556640625e+01) (75, -1.84670209884643554688e-01) (76, 1.27971820831298828125e+01) (77, -6.01580142974853515625e-01) (78, 1.27281007766723632812e+01) (79, 1.26555280685424804688e+01) (80, -1.27014923095703125000e+01) (81, -1.26962823867797851562e+01) (82, -1.57783722877502441406e+00) (83, -1.26322641372680664062e+01) (84, -1.96499913930892944336e-01) (85, 1.27590904235839843750e+01) (86, -2.76489496231079101562e-01) (87, 1.27987899780273437500e+01) (88, -1.27865352630615234375e+01) (89, -1.26511039733886718750e+01) (90, 5.86948990821838378906e-01) (91, 1.26598100662231445312e+01) (92, 1.27715930938720703125e+01) (93, 5.70618093013763427734e-01) (94, -6.43910169601440429688e-01) (95, 1.26579351425170898438e+01) (96, -3.38163018226623535156e-01) (97, -1.27341117858886718750e+01) (98, 1.27593603134155273438e+01) (99, 1.26670083999633789062e+01) (100, -2.20421880483627319336e-01) (101, 1.27235622406005859375e+01) (102, 1.26635580062866210938e+01) (103, -1.08650672435760498047e+00) (104, -9.47244882583618164062e-01) (105, -1.26933631896972656250e+01) (106, 1.50047171115875244141e+00) (107, 1.27631807327270507812e+01) (108, -1.26431198120117187500e+01) (109, -1.27671432495117187500e+01) (110, 7.20638215541839599609e-01) (111, -1.27329397201538085938e+01) (112, -1.26517524719238281250e+01) (113, 1.76283431053161621094e+00) (114, -1.27535314559936523438e+01) (115, -1.96277663111686706543e-01) (116, 5.52305400371551513672e-01) (117, -1.73970162868499755859e+00) (118, -2.09160313010215759277e-01) (119, -2.10894346237182617188e-01) (120, 5.64449191093444824219e-01) (121, -1.47041821479797363281e+00) (122, -2.44770199060440063477e-01) (123, -1.26234970092773437500e+01) (124, -9.20595601201057434082e-02) (125, -1.99569061398506164551e-01) (0, 5.47752752900123596191e-02) (1, 5.07987928390502929688e+00) (2, 6.68320834636688232422e-01) (3, -5.75302317738533020020e-02) (4, -1.39896556735038757324e-01) (5, -5.02661085128784179688e+00) (6, 9.43592414259910583496e-02) (7, 1.33017909526824951172e+00) (8, -1.11077986657619476318e-01) (9, 2.55488194525241851807e-02) (10, 2.41675809025764465332e-01) (11, 2.41241261363029479980e-01) (12, -1.75967264175415039062e+00) (13, 5.51727056503295898438e-01) (14, -5.02724361419677734375e+00) (15, -1.13264974206686019897e-02) (16, -4.98036384582519531250e+00) (17, 7.67106488347053527832e-02) (18, 2.94160485267639160156e-01) (19, 9.33057367801666259766e-02) (20, 4.06475871801376342773e-01) (21, -1.92993283271789550781e-01) (22, -5.05453538894653320312e+00) (23, -5.08073663711547851562e+00) (24, 1.23500585556030273438e+00) (25, 5.10678005218505859375e+00) (26, 5.21055936813354492188e+00) (27, 5.15880060195922851562e+00) (28, -1.72773265838623046875e+00) (29, 1.36692607402801513672e+00) (30, 5.04526615142822265625e+00) (31, -9.33989286422729492188e-01) (32, 1.26623401641845703125e+01) (33, -6.65694624185562133789e-02) (34, 1.26966619491577148438e+01) (35, 1.41141593456268310547e-01) (36, -2.42424428462982177734e-01) (37, 1.27906761169433593750e+01) (38, 3.25459182262420654297e-01) (39, -1.62884175777435302734e-01) (40, 2.60805875062942504883e-01) (41, 4.20592486858367919922e-01) (42, 5.03062438964843750000e+00) (43, -4.04644981026649475098e-02) (44, -1.93419039249420166016e-01) (45, 5.10991096496582031250e+00) (46, -1.33236038684844970703e+00) (47, 6.76696598529815673828e-01) (48, 3.44377160072326660156e-01) (49, -2.59511446952819824219e+00) (50, 2.80801445245742797852e-01) (51, 4.41493481397628784180e-01) (52, -1.75073206424713134766e-01) (53, 2.14241102337837219238e-01) (54, 4.59262073040008544922e-01) (55, -5.06226778030395507812e-01) (56, 1.27006282806396484375e+01) (57, 2.93141484260559082031e-01) (58, 1.27664899826049804688e+01) (59, -4.94914865493774414062e+00) (60, -6.25597313046455383301e-02) (61, 4.62247282266616821289e-01) (62, -3.95934358239173889160e-02) (63, 2.71154306828975677490e-02) (64, 2.50864867120981216431e-02) (65, 2.85395562648773193359e-01) (66, 1.16193518042564392090e-01) (67, -7.32233300805091857910e-02) (68, 2.25193679332733154297e-01) (69, 5.22514295578002929688e+00) (70, 5.21486616134643554688e+00) (71, -4.94327545166015625000e+00) (72, -2.60239815711975097656e+00) (73, 2.29934588074684143066e-01) (74, -2.69180893898010253906e+00) (75, -4.85690012574195861816e-02) (76, 2.30232214927673339844e+00) (77, -7.57990121841430664062e-01) (78, 5.04258537292480468750e+00) (79, 5.22492980957031250000e+00) (80, -4.92482900619506835938e+00) (81, -2.62704873085021972656e+00) (82, 9.74333360791206359863e-02) (83, -2.56675171852111816406e+00) (84, 3.29927086830139160156e-01) (85, 1.40188205242156982422e+00) (86, -8.79369229078292846680e-02) (87, 1.26820993423461914062e+01) (88, -2.78120970726013183594e+00) (89, -2.68360233306884765625e+00) (90, -2.21524566411972045898e-01) (91, 2.31378555297851562500e+00) (92, 5.11629581451416015625e+00) (93, -2.44168817996978759766e-01) (94, -2.97014135867357254028e-02) (95, 1.26577548980712890625e+01) (96, -1.76725208759307861328e-01) (97, -5.02122735977172851562e+00) (98, 5.09161090850830078125e+00) (99, 5.18405485153198242188e+00) (100, 2.32371360063552856445e-01) (101, 1.26650896072387695312e+01) (102, 1.27324523925781250000e+01) (103, 3.03121328353881835938e-01) (104, 2.67637133598327636719e-01) (105, -2.66524291038513183594e+00) (106, 3.39829884469509124756e-02) (107, 1.29126822948455810547e+00) (108, -2.79402899742126464844e+00) (109, -4.96548938751220703125e+00) (110, -1.28521785140037536621e-01) (111, -2.61232805252075195312e+00) (112, -4.99272298812866210938e+00) (113, 8.21025490760803222656e-01) (114, -4.98019409179687500000e+00) (115, 3.00813913345336914062e-01) (116, -1.12412936985492706299e-01) (117, 4.53075394034385681152e-02) (118, 3.71240735054016113281e-01) (119, -6.13458454608917236328e-04) (120, 2.74981409311294555664e-01) (121, 6.00343570113182067871e-02) (122, -1.67524576187133789062e-01) (123, -5.01281976699829101562e+00) (124, 2.04340830445289611816e-01) (125, -2.09597080945968627930e-01) (0, 2.83918797969818115234e-01) (1, -4.99167680740356445312e+00) (2, 1.06340259313583374023e-01) (3, 1.74724578857421875000e-01) (4, 1.95562511682510375977e-01) (5, 1.26206264495849609375e+01) (6, 5.68552315235137939453e-01) (7, -4.91337203979492187500e+00) (8, 2.00033098459243774414e-01) (9, 8.30192342400550842285e-02) (10, 2.97581285238265991211e-01) (11, -2.03578305244445800781e+00) (12, 3.72965931892395019531e+00) (13, 7.12273955345153808594e-01) (14, 6.50777816772460937500e+00) (15, 2.41341963410377502441e-01) (16, 6.47246885299682617188e+00) (17, 1.08237758278846740723e-01) (18, 2.69974380731582641602e-01) (19, -1.80286452174186706543e-01) (20, 2.14789330959320068359e-01) (21, 2.22941875457763671875e-01) (22, 1.27467422485351562500e+01) (23, 1.27427740097045898438e+01) (24, -4.90759181976318359375e+00) (25, -4.96751594543457031250e+00) (26, -4.98191547393798828125e+00) (27, -5.07446908950805664062e+00) (28, 1.30178976058959960938e+00) (29, -5.10034942626953125000e+00) (30, -5.03473377227783203125e+00) (31, 7.26043164730072021484e-01) (32, 1.27327060699462890625e+01) (33, 3.66686075925827026367e-01) (34, 1.27890625000000000000e+01) (35, 2.21607849001884460449e-01) (36, 1.10465252399444580078e+00) (37, 1.26473522186279296875e+01) (38, 6.94411098957061767578e-01) (39, 9.08131599426269531250e-02) (40, 6.00101411342620849609e-01) (41, 5.74583470821380615234e-01) (42, -4.99518489837646484375e+00) (43, 1.64262592792510986328e-01) (44, 2.17666774988174438477e-01) (45, -5.03887319564819335938e+00) (46, 1.27231464385986328125e+01) (47, 2.18615651130676269531e-01) (48, 7.62218832969665527344e-01) (49, 1.26489944458007812500e+01) (50, 4.96348887681961059570e-01) (51, 1.90500110387802124023e-01) (52, 1.85895502567291259766e-01) (53, 2.22238451242446899414e-01) (54, 1.74575418233871459961e-01) (55, 1.31248080730438232422e+00) (56, 1.27019119262695312500e+01) (57, 6.19170725345611572266e-01) (58, 1.27330827713012695312e+01) (59, 1.27346363067626953125e+01) (60, 5.54433882236480712891e-01) (61, 1.46227216720581054688e+00) (62, 1.66493222117424011230e-01) (63, 5.44249296188354492188e-01) (64, 7.43567883968353271484e-01) (65, -1.44922447204589843750e+00) (66, 1.50525778532028198242e-01) (67, 4.89817738533020019531e-01) (68, -6.15990161895751953125e-01) (69, -5.04044723510742187500e+00) (70, -5.01462650299072265625e+00) (71, 1.26600389480590820312e+01) (72, 1.27920551300048828125e+01) (73, 4.13677431643009185791e-02) (74, 1.26256542205810546875e+01) (75, 4.88481283187866210938e-01) (76, -5.03562498092651367188e+00) (77, 2.65758395195007324219e-01) (78, -4.90951538085937500000e+00) (79, -5.09785032272338867188e+00) (80, 1.27744493484497070312e+01) (81, 1.26248426437377929688e+01) (82, 1.49970605969429016113e-01) (83, 1.26648616790771484375e+01) (84, 3.79439383745193481445e-01) (85, -4.96040630340576171875e+00) (86, 3.12389642000198364258e-01) (87, 1.26663074493408203125e+01) (88, 1.27166833877563476562e+01) (89, 1.26756210327148437500e+01) (90, 3.47450584173202514648e-01) (91, -5.03645229339599609375e+00) (92, -5.04937505722045898438e+00) (93, 2.00953781604766845703e-01) (94, 1.25504279136657714844e+00) (95, 1.26588687896728515625e+01) (96, 2.86251485347747802734e-01) (97, 6.68814516067504882812e+00) (98, -5.06350421905517578125e+00) (99, -5.05203247070312500000e+00) (100, 3.16817551851272583008e-01) (101, 1.27466011047363281250e+01) (102, 1.27145366668701171875e+01) (103, 7.06599950790405273438e-01) (104, 7.62621104717254638672e-01) (105, 1.27285184860229492188e+01) (106, -2.05053597688674926758e-01) (107, -5.09744787216186523438e+00) (108, 1.26539745330810546875e+01) (109, 1.27190408706665039062e+01) (110, 1.27509236335754394531e-01) (111, 1.26167516708374023438e+01) (112, 1.27322111129760742188e+01) (113, -1.55664086341857910156e+00) (114, 1.26699399948120117188e+01) (115, 4.74300771951675415039e-01) (116, 2.45588555932044982910e-01) (117, 3.88036429882049560547e-01) (118, 5.28935968875885009766e-01) (119, 7.12750971317291259766e-01) (120, -9.17869284749031066895e-02) (121, 1.88181236386299133301e-01) (122, 1.98586523532867431641e-01) (123, 1.27335815429687500000e+01) (124, 4.98533904552459716797e-01) (125, 1.76855280995368957520e-01) (0, 1.62764608860015869141e-01) (1, 2.15285015106201171875e+00) (2, -1.98425799608230590820e-01) (3, -2.75038182735443115234e-01) (4, -1.14413000643253326416e-01) (5, -2.00258541107177734375e+00) (6, -7.89757519960403442383e-02) (7, 2.11021184921264648438e+00) (8, -7.93214216828346252441e-02) (9, 2.16435983777046203613e-01) (10, -1.78200078010559082031e+00) (11, 2.15363216400146484375e+00) (12, -1.69063359498977661133e-01) (13, -1.32237493991851806641e-01) (14, -2.10270786285400390625e+00) (15, 2.43280082941055297852e-01) (16, -2.08927011489868164062e+00) (17, 4.42388325929641723633e-01) (18, -2.80987992882728576660e-02) (19, 3.49710911512374877930e-01) (20, 4.34784851968288421631e-02) (21, -1.80769190192222595215e-01) (22, -2.03019785881042480469e+00) (23, -1.95766615867614746094e+00) (24, 2.11483216285705566406e+00) (25, 2.32066392898559570312e+00) (26, 2.12321019172668457031e+00) (27, 2.28805732727050781250e+00) (28, 4.00407686829566955566e-02) (29, 2.11345744132995605469e+00) (30, 2.29506087303161621094e+00) (31, 9.01691094040870666504e-02) (32, 1.26446723937988281250e+01) (33, 2.28920176625251770020e-01) (34, 1.26964263916015625000e+01) (35, 1.93900734186172485352e-01) (36, -3.28611522912979125977e-01) (37, 1.26434850692749023438e+01) (38, -7.97817483544349670410e-02) (39, 6.38489350676536560059e-02) (40, -1.20257295668125152588e-01) (41, 5.78622780740261077881e-02) (42, 2.24582743644714355469e+00) (43, 2.41395145654678344727e-01) (44, -5.38316778838634490967e-02) (45, 2.16777348518371582031e+00) (46, -2.02360653877258300781e+00) (47, -7.06562772393226623535e-02) (48, 7.20378570258617401123e-03) (49, -1.98191285133361816406e+00) (50, 7.86568969488143920898e-03) (51, 1.57091104984283447266e+00) (52, 1.12790070474147796631e-01) (53, -3.77489998936653137207e-02) (54, 2.48881265521049499512e-01) (55, 1.48683145642280578613e-01) (56, 1.26643333435058593750e+01) (57, -2.85184800624847412109e-01) (58, 1.27414255142211914062e+01) (59, -1.99087476730346679688e+00) (60, -5.96598505973815917969e-01) (61, 1.10767856240272521973e-01) (62, 2.23454326391220092773e-01) (63, -1.55382037162780761719e-01) (64, -6.70707166194915771484e-01) (65, 6.12943053245544433594e-01) (66, 1.21682159602642059326e-01) (67, -3.19319784641265869141e-01) (68, 5.79378902912139892578e-01) (69, 2.27156758308410644531e+00) (70, 2.33648085594177246094e+00) (71, -2.08463692665100097656e+00) (72, -2.08688616752624511719e+00) (73, 2.40608811378479003906e-01) (74, -2.07326984405517578125e+00) (75, -1.69253498315811157227e-01) (76, 2.07197356224060058594e+00) (77, 2.74517476558685302734e-01) (78, 2.21772623062133789062e+00) (79, 2.31037759780883789062e+00) (80, -1.98468112945556640625e+00) (81, -2.11418700218200683594e+00) (82, 2.73555159568786621094e-01) (83, -2.10210943222045898438e+00) (84, -1.33387655019760131836e-01) (85, 2.23141098022460937500e+00) (86, -1.84087261557579040527e-01) (87, 1.27682523727416992188e+01) (88, -1.99293041229248046875e+00) (89, -1.99160695075988769531e+00) (90, 1.42977282404899597168e-01) (91, 2.12934780120849609375e+00) (92, 2.18026089668273925781e+00) (93, 3.56151424348354339600e-02) (94, -9.27694216370582580566e-02) (95, 1.27373409271240234375e+01) (96, -2.88997530937194824219e-01) (97, -2.02752828598022460938e+00) (98, 2.29235386848449707031e+00) (99, 2.13953948020935058594e+00) (100, -1.85267001390457153320e-01) (101, 1.27623996734619140625e+01) (102, 1.26745748519897460938e+01) (103, -2.73752331733703613281e-01) (104, -2.92024850845336914062e-01) (105, -2.01036715507507324219e+00) (106, 3.82763087749481201172e-01) (107, 2.12690019607543945312e+00) (108, -2.01313543319702148438e+00) (109, -2.11564683914184570312e+00) (110, 1.98863416910171508789e-01) (111, -2.05076241493225097656e+00) (112, -2.08277964591979980469e+00) (113, 1.64848995208740234375e+00) (114, -2.00581765174865722656e+00) (115, -2.88398750126361846924e-02) (116, -1.87126740813255310059e-01) (117, 1.79654195904731750488e-01) (118, -8.80823656916618347168e-03) (119, -4.84999746084213256836e-01) (120, 8.12190413475036621094e-01) (121, 1.73939853906631469727e-01) (122, -2.57263749837875366211e-01) (123, -1.98346972465515136719e+00) (124, 3.21405410766601562500e-01) (125, -1.27628162503242492676e-01) (0, 1.38645470142364501953e-01) (1, -1.27774629592895507812e+01) (2, 3.80882829427719116211e-01) (3, -8.51473957300186157227e-02) (4, -3.31653773784637451172e-01) (5, 1.26653909683227539062e+01) (6, 4.77749198675155639648e-01) (7, -1.27140750885009765625e+01) (8, 1.05454353615641593933e-02) (9, -3.33523124456405639648e-01) (10, 5.20604729652404785156e-01) (11, -5.35986948013305664062e+00) (12, 1.27701244354248046875e+01) (13, 6.26351356506347656250e-01) (14, 1.27617406845092773438e+01) (15, -6.85926675796508789062e-01) (16, 1.26761674880981445312e+01) (17, -1.54644995927810668945e-01) (18, 1.08130343258380889893e-01) (19, -1.09656834602355957031e+00) (20, 3.96087706089019775391e-01) (21, -1.16669133305549621582e-01) (22, 1.27843341827392578125e+01) (23, 1.27189798355102539062e+01) (24, -1.27766656875610351562e+01) (25, -1.27166337966918945312e+01) (26, -1.26668348312377929688e+01) (27, -1.27987756729125976562e+01) (28, 5.68911552429199218750e-01) (29, -1.26877422332763671875e+01) (30, -1.27166223526000976562e+01) (31, 1.37100744247436523438e+00) (32, 1.27698125839233398438e+01) (33, -1.05151057243347167969e-01) (34, 1.28021011352539062500e+01) (35, -3.66412669420242309570e-01) (36, 1.08801722526550292969e+00) (37, 1.27953805923461914062e+01) (38, 5.48580169677734375000e-01) (39, -3.48140448331832885742e-01) (40, 2.46956884860992431641e-01) (41, 5.03919541835784912109e-01) (42, -1.27766389846801757812e+01) (43, -1.29926919937133789062e-01) (44, 3.06601494550704956055e-01) (45, -1.26265716552734375000e+01) (46, 1.26420593261718750000e+01) (47, 6.15561664104461669922e-01) (48, 6.57591581344604492188e-01) (49, 1.27007961273193359375e+01) (50, 4.71430659294128417969e-01) (51, -5.03889322280883789062e-01) (52, -1.42946645617485046387e-01) (53, 5.23036897182464599609e-01) (54, -6.60951212048530578613e-02) (55, 1.31707215309143066406e+00) (56, 1.26425170898437500000e+01) (57, 4.98427033424377441406e-01) (58, 1.27185106277465820312e+01) (59, 1.27011413574218750000e+01) (60, 7.49650955200195312500e-01) (61, 1.15903019905090332031e+00) (62, -5.21902382373809814453e-01) (63, 4.95396256446838378906e-01) (64, 9.16798830032348632812e-01) (65, -1.49432063102722167969e+00) (66, -1.10246442258358001709e-01) (67, 4.28269386291503906250e-01) (68, -1.28302633762359619141e+00) (69, -1.26122140884399414062e+01) (70, -1.26462345123291015625e+01) (71, 1.26550664901733398438e+01) (72, 1.27358465194702148438e+01) (73, -3.85096788406372070312e-01) (74, 1.26454315185546875000e+01) (75, 3.25379431247711181641e-01) (76, -1.26260995864868164062e+01) (77, 2.24655978381633758545e-02) (78, -1.26371669769287109375e+01) (79, -1.26266565322875976562e+01) (80, 1.27649412155151367188e+01) (81, 1.27493228912353515625e+01) (82, -2.18574836850166320801e-01) (83, 1.26238756179809570312e+01) (84, 3.57925891876220703125e-01) (85, -1.27553939819335937500e+01) (86, 4.14430081844329833984e-01) (87, 1.27159729003906250000e+01) (88, 1.27020740509033203125e+01) (89, 1.26246538162231445312e+01) (90, -8.11148528009653091431e-03) (91, -1.27632188796997070312e+01) (92, -1.27968025207519531250e+01) (93, -1.70766785740852355957e-01) (94, 1.32406675815582275391e+00) (95, 1.27251605987548828125e+01) (96, -2.27592378854751586914e-01) (97, 1.26853466033935546875e+01) (98, -1.26491193771362304688e+01) (99, -1.27413053512573242188e+01) (100, 3.57602119445800781250e-01) (101, 1.27396650314331054688e+01) (102, 1.27254343032836914062e+01) (103, 6.55454695224761962891e-01) (104, 5.86612582206726074219e-01) (105, 1.27591934204101562500e+01) (106, -4.73930865526199340820e-01) (107, -1.26976356506347656250e+01) (108, 1.26233377456665039062e+01) (109, 1.28005781173706054688e+01) (110, -3.65460127592086791992e-01) (111, 1.27766065597534179688e+01) (112, 1.27382278442382812500e+01) (113, -1.62020683288574218750e+00) (114, 1.27888097763061523438e+01) (115, 2.23082140088081359863e-01) (116, -1.64153516292572021484e-01) (117, 6.36807084083557128906e-01) (118, 3.27382683753967285156e-01) (119, 5.91227948665618896484e-01) (120, -2.01140731573104858398e-01) (121, -9.59611311554908752441e-02) (122, -2.47314289212226867676e-01) (123, 1.27228040695190429688e+01) (124, 3.42747330665588378906e-01) (125, 3.34114670753479003906e-01) (0, 1.82791911065578460693e-02) (1, 2.20473551750183105469e+00) (2, -4.80000227689743041992e-02) (3, 2.74881899356842041016e-01) (4, -2.46657431125640869141e-01) (5, -1.97442054748535156250e+00) (6, -2.10303410887718200684e-01) (7, 2.18886494636535644531e+00) (8, 1.26824736595153808594e-01) (9, 2.13836491107940673828e-01) (10, -2.60559439659118652344e-01) (11, 2.20099282264709472656e+00) (12, 6.55173584818840026855e-02) (13, -1.05909146368503570557e-01) (14, -1.97381019592285156250e+00) (15, 1.87919005751609802246e-01) (16, -2.05072283744812011719e+00) (17, 3.29826831817626953125e-01) (18, 5.29741905629634857178e-02) (19, 3.07127863168716430664e-01) (20, 9.34696048498153686523e-02) (21, -4.70076024532318115234e-01) (22, -1.99030566215515136719e+00) (23, -2.14293289184570312500e+00) (24, 2.07447385787963867188e+00) (25, 2.19206428527832031250e+00) (26, 2.24125599861145019531e+00) (27, 2.25805521011352539062e+00) (28, -5.35918846726417541504e-02) (29, 2.04805016517639160156e+00) (30, 2.28388333320617675781e+00) (31, 1.39488786458969116211e-01) (32, 1.26311502456665039062e+01) (33, -6.15145087242126464844e-01) (34, 1.27876062393188476562e+01) (35, 2.48134404420852661133e-01) (36, -2.45248809456825256348e-01) (37, 1.27027711868286132812e+01) (38, -5.86626306176185607910e-02) (39, 1.43789008259773254395e-01) (40, -1.02578677237033843994e-01) (41, 1.00076720118522644043e-01) (42, 2.31029677391052246094e+00) (43, 3.22421312332153320312e-01) (44, -4.46934178471565246582e-02) (45, 2.16114068031311035156e+00) (46, -1.99794125556945800781e+00) (47, 1.27804845571517944336e-01) (48, -6.45149126648902893066e-02) (49, -2.07517480850219726562e+00) (50, -1.48597598075866699219e-01) (51, 5.49863219261169433594e-01) (52, 7.38567560911178588867e-02) (53, -4.19787541031837463379e-02) (54, 1.26003324985504150391e-01) (55, -3.23299556970596313477e-01) (56, 1.26924962997436523438e+01) (57, -2.96533346176147460938e-01) (58, 1.27054653167724609375e+01) (59, -2.10208868980407714844e+00) (60, -3.84386897087097167969e-01) (61, 6.36299401521682739258e-02) (62, 2.28378221392631530762e-01) (63, -2.45659649372100830078e-01) (64, -1.20792531967163085938e+00) (65, 5.09047269821166992188e-01) (66, 3.15627455711364746094e-01) (67, -2.47034668922424316406e-01) (68, 7.46526777744293212891e-01) (69, 2.16841030120849609375e+00) (70, 2.22587490081787109375e+00) (71, -2.11156797409057617188e+00) (72, -1.94782876968383789062e+00) (73, 2.88091421127319335938e-01) (74, -2.01917457580566406250e+00) (75, -1.82623565196990966797e-01) (76, 2.14160394668579101562e+00) (77, -2.67122507095336914062e-01) (78, 2.23714280128479003906e+00) (79, 2.18588948249816894531e+00) (80, -1.99818277359008789062e+00) (81, -1.97790026664733886719e+00) (82, 4.20958429574966430664e-01) (83, -2.08121109008789062500e+00) (84, -4.03387323021888732910e-02) (85, 2.27820086479187011719e+00) (86, -6.18841290473937988281e-01) (87, 1.26894636154174804688e+01) (88, -1.95748901367187500000e+00) (89, -2.01262712478637695312e+00) (90, -5.36719441413879394531e-01) (91, 2.21043348312377929688e+00) (92, 2.31210303306579589844e+00) (93, 1.13367758691310882568e-01) (94, -2.43615098297595977783e-02) (95, 1.26676740646362304688e+01) (96, -1.77971869707107543945e-01) (97, -1.99516439437866210938e+00) (98, 2.29497241973876953125e+00) (99, 2.20595550537109375000e+00) (100, -5.60601130127906799316e-02) (101, 1.26544113159179687500e+01) (102, 1.27140598297119140625e+01) (103, -1.66480183601379394531e-01) (104, -2.46148943901062011719e-01) (105, -2.11678719520568847656e+00) (106, 2.51170367002487182617e-01) (107, 2.12000656127929687500e+00) (108, -2.03979516029357910156e+00) (109, -1.96800279617309570312e+00) (110, -1.54918879270553588867e-01) (111, -2.09092378616333007812e+00) (112, -1.99884891510009765625e+00) (113, 1.77089238166809082031e+00) (114, -2.02508068084716796875e+00) (115, 3.63721475005149841309e-02) (116, -6.00257962942123413086e-02) (117, 2.11302012205123901367e-01) (118, -8.58368054032325744629e-02) (119, -4.80366319417953491211e-01) (120, 7.86847829818725585938e-01) (121, 3.75747799873352050781e-01) (122, 3.42578254640102386475e-02) (123, -2.07697033882141113281e+00) (124, 9.58623439073562622070e-02) (125, -5.45595526695251464844e-01) (0, -2.55643546581268310547e-01) (1, -5.63072681427001953125e-01) (2, -8.25860425829887390137e-02) (3, 2.32819408178329467773e-01) (4, 2.33671158552169799805e-01) (5, 5.07354593276977539062e+00) (6, 3.55584360659122467041e-02) (7, -1.22534120082855224609e+00) (8, 1.25911742448806762695e-01) (9, 1.65847837924957275391e-01) (10, -8.04549381136894226074e-02) (11, -2.89731621742248535156e-01) (12, 2.35540771484375000000e+00) (13, 2.68041118979454040527e-02) (14, 2.31401157379150390625e+00) (15, 1.74569189548492431641e-01) (16, 2.25780081748962402344e+00) (17, 2.05558046698570251465e-01) (18, -3.61525207757949829102e-01) (19, 2.09120273590087890625e-01) (20, 1.18918856605887413025e-02) (21, 2.70320206880569458008e-01) (22, 5.14240217208862304688e+00) (23, 5.03037214279174804688e+00) (24, -1.60089480876922607422e+00) (25, -1.75828635692596435547e+00) (26, -1.62163126468658447266e+00) (27, -4.99502182006835937500e+00) (28, 2.82926559448242187500e-01) (29, -1.21121084690093994141e+00) (30, -1.74580538272857666016e+00) (31, 1.88380777835845947266e-01) (32, 1.27317829132080078125e+01) (33, -1.57706126570701599121e-01) (34, 1.27027521133422851562e+01) (35, 2.06172764301300048828e-01) (36, -3.40131949633359909058e-03) (37, 1.26274948120117187500e+01) (38, 2.28426530957221984863e-02) (39, 2.93634831905364990234e-01) (40, -1.03149108588695526123e-01) (41, 9.07438471913337707520e-02) (42, -1.69708192348480224609e+00) (43, 3.10567378997802734375e-01) (44, 3.05904030799865722656e-01) (45, -9.78022933006286621094e-01) (46, 5.07587957382202148438e+00) (47, 1.89869590103626251221e-02) (48, 1.27171069383621215820e-01) (49, 5.09608316421508789062e+00) (50, -2.09684669971466064453e-02) (51, 7.17289149761199951172e-02) (52, 2.97995150089263916016e-01) (53, -1.11876897513866424561e-01) (54, -1.37740895152091979980e-01) (55, 3.19625198841094970703e-01) (56, 1.26610593795776367188e+01) (57, 6.14544227719306945801e-02) (58, 1.26635007858276367188e+01) (59, 5.15890741348266601562e+00) (60, 8.36703106760978698730e-02) (61, 9.76347804069519042969e-01) (62, 2.62720525264739990234e-01) (63, -8.54930188506841659546e-03) (64, 6.86777308583259582520e-02) (65, -6.02481901645660400391e-01) (66, 2.99137115478515625000e-01) (67, -3.28889489173889160156e-02) (68, 1.15018539130687713623e-01) (69, -1.08781063556671142578e+00) (70, -5.03431892395019531250e+00) (71, 5.11625194549560546875e+00) (72, 5.03924751281738281250e+00) (73, 3.16174149513244628906e-01) (74, 5.08651638031005859375e+00) (75, 3.67431938648223876953e-02) (76, -5.23482561111450195312e-01) (77, 2.49639242887496948242e-01) (78, -1.02352297306060791016e+00) (79, -5.00127506256103515625e+00) (80, 5.20541954040527343750e+00) (81, 5.06325006484985351562e+00) (82, 2.53304958343505859375e-01) (83, 5.17544174194335937500e+00) (84, -6.62387162446975708008e-02) (85, -1.70569956302642822266e+00) (86, -1.59632131457328796387e-01) (87, 1.27342586517333984375e+01) (88, 5.22362661361694335938e+00) (89, 5.16759061813354492188e+00) (90, -1.93901345133781433105e-01) (91, -4.50953692197799682617e-01) (92, -5.08825254440307617188e+00) (93, 3.24389576911926269531e-01) (94, -1.57554000616073608398e-02) (95, 1.27983245849609375000e+01) (96, 1.69252172112464904785e-01) (97, 2.58629822731018066406e+00) (98, -1.67799198627471923828e+00) (99, -5.02922582626342773438e+00) (100, -4.48367297649383544922e-02) (101, 1.27770853042602539062e+01) (102, 1.27786989212036132812e+01) (103, 3.71706411242485046387e-02) (104, 4.15864959359169006348e-02) (105, 5.05354309082031250000e+00) (106, 1.55265897512435913086e-01) (107, -1.75152313709259033203e+00) (108, 5.16287946701049804688e+00) (109, 5.19873189926147460938e+00) (110, 2.23349854350090026855e-01) (111, 5.14176893234252929688e+00) (112, 5.03545236587524414062e+00) (113, -1.60326814651489257812e+00) (114, 5.09068059921264648438e+00) (115, -1.33311435580253601074e-01) (116, 2.43724405765533447266e-01) (117, 8.32347348332405090332e-02) (118, -2.10725679993629455566e-01) (119, 2.73236066102981567383e-01) (120, -2.58190244436264038086e-01) (121, 2.29522243142127990723e-01) (122, 2.21285492181777954102e-01) (123, 5.13925123214721679688e+00) (124, -8.54886099696159362793e-02) (125, -1.13488696515560150146e-01) (0, -2.16568157076835632324e-01) (1, -5.46381711959838867188e-01) (2, 2.97956690192222595215e-02) (3, -1.46683305501937866211e-03) (4, 2.83607840538024902344e-01) (5, 2.29926347732543945312e+00) (6, 6.88031241297721862793e-02) (7, -5.02051115036010742188e-01) (8, 3.01339358091354370117e-01) (9, 2.10024863481521606445e-01) (10, -3.76616790890693664551e-02) (11, -1.50262862443923950195e-01) (12, 4.82796341180801391602e-01) (13, -5.56268021464347839355e-02) (14, 4.01767224073410034180e-01) (15, 3.88846918940544128418e-02) (16, 4.01372283697128295898e-01) (17, 1.87137320637702941895e-01) (18, -3.59032005071640014648e-01) (19, -1.82035565376281738281e-02) (20, -2.82321244478225708008e-01) (21, 2.47385516762733459473e-01) (22, 5.05203247070312500000e+00) (23, 5.13064527511596679688e+00) (24, -4.63878840208053588867e-01) (25, -5.11471986770629882812e-01) (26, -4.67632263898849487305e-01) (27, -1.12066304683685302734e+00) (28, 2.87425667047500610352e-01) (29, -6.11545324325561523438e-01) (30, -4.77069348096847534180e-01) (31, 3.11345309019088745117e-01) (32, 1.27165813446044921875e+01) (33, -6.15412667393684387207e-02) (34, 1.27362880706787109375e+01) (35, 2.18065723776817321777e-01) (36, -1.13479197025299072266e-01) (37, 1.26942749023437500000e+01) (38, 9.69196110963821411133e-02) (39, 3.36141824722290039062e-01) (40, 7.80857354402542114258e-03) (41, 8.28483924269676208496e-02) (42, -6.09930992126464843750e-01) (43, 1.82020023465156555176e-01) (44, 2.15577706694602966309e-01) (45, -6.01567506790161132812e-01) (46, 5.08256530761718750000e+00) (47, -9.46616455912590026855e-02) (48, -5.25609925389289855957e-02) (49, 5.10526180267333984375e+00) (50, 7.08091910928487777710e-03) (51, 5.59373646974563598633e-02) (52, 3.26117396354675292969e-01) (53, 2.96000391244888305664e-03) (54, -2.14300021529197692871e-01) (55, 3.22145223617553710938e-01) (56, 1.26829347610473632812e+01) (57, -1.30071625113487243652e-01) (58, 1.27734861373901367188e+01) (59, 5.13045978546142578125e+00) (60, -6.53799846768379211426e-02) (61, 1.01529347896575927734e+00) (62, 1.57237455248832702637e-01) (63, 2.71994471549987792969e-02) (64, -5.10345473885536193848e-02) (65, -4.74429011344909667969e-01) (66, 1.46778851747512817383e-01) (67, -5.81105425953865051270e-02) (68, 1.55537605285644531250e-01) (69, -1.13654315471649169922e+00) (70, -1.10039389133453369141e+00) (71, 5.22204303741455078125e+00) (72, 5.18261957168579101562e+00) (73, 2.30580955743789672852e-01) (74, 5.06376028060913085938e+00) (75, -8.73683393001556396484e-02) (76, -1.45404338836669921875e-02) (77, 2.14532688260078430176e-01) (78, -1.08412587642669677734e+00) (79, -1.00191998481750488281e+00) (80, 5.19852733612060546875e+00) (81, 5.20785379409790039062e+00) (82, 2.54111379384994506836e-01) (83, 5.17382907867431640625e+00) (84, -6.79809320718050003052e-03) (85, -4.96499508619308471680e-01) (86, -1.03902198374271392822e-01) (87, 1.26155748367309570312e+01) (88, 5.17589282989501953125e+00) (89, 5.07848310470581054688e+00) (90, -8.62096622586250305176e-02) (91, 7.85599946975708007812e-02) (92, -9.71520781517028808594e-01) (93, -5.02393916249275207520e-02) (94, 2.32093110680580139160e-02) (95, 1.26284503936767578125e+01) (96, 2.25655242800712585449e-01) (97, 5.97436070442199707031e-01) (98, -1.06894171237945556641e+00) (99, -9.92059469223022460938e-01) (100, -6.96281064301729202271e-03) (101, 1.27216091156005859375e+01) (102, 1.27547626495361328125e+01) (103, 1.84165835380554199219e-02) (104, 1.00517340004444122314e-01) (105, 5.20685005187988281250e+00) (106, 2.23911285400390625000e-01) (107, -5.70172548294067382812e-01) (108, 5.10011529922485351562e+00) (109, 5.17242097854614257812e+00) (110, 3.20228785276412963867e-01) (111, 5.07211303710937500000e+00) (112, 5.15374469757080078125e+00) (113, -1.52842557430267333984e+00) (114, 5.21941184997558593750e+00) (115, -8.46612378954887390137e-02) (116, 1.68955892324447631836e-01) (117, 1.28729650750756263733e-02) (118, -1.51675984263420104980e-01) (119, 2.88770109415054321289e-01) (120, -2.17659682035446166992e-01) (121, 3.11892092227935791016e-01) (122, 3.21034789085388183594e-01) (123, 5.12961959838867187500e+00) (124, -2.61840969324111938477e-02) (125, -1.19952000677585601807e-01) (0, -2.42215558886528015137e-01) (1, 5.12197136878967285156e-01) (2, 6.59421682357788085938e-02) (3, -4.68188107013702392578e-01) (4, 6.18396326899528503418e-02) (5, -5.30415534973144531250e-01) (6, -1.26677185297012329102e-01) (7, 1.02361425757408142090e-01) (8, -4.96994227170944213867e-01) (9, -1.09834626317024230957e-01) (10, 3.10380756855010986328e-01) (11, 4.80406433343887329102e-01) (12, 4.10489261150360107422e-01) (13, 2.26821273565292358398e-01) (14, -4.83179032802581787109e-01) (15, 1.26545682549476623535e-01) (16, -5.34028768539428710938e-01) (17, 2.87746012210845947266e-01) (18, 1.46153390407562255859e-01) (19, -1.55787646770477294922e+00) (20, 3.62541019916534423828e-01) (21, -1.28572890534996986389e-02) (22, -7.27405548095703125000e-01) (23, -7.01632022857666015625e-01) (24, -7.84892588853836059570e-03) (25, 6.50029540061950683594e-01) (26, 4.48713570833206176758e-01) (27, 8.86389851570129394531e-01) (28, -2.34848186373710632324e-01) (29, 1.90507590770721435547e-01) (30, 6.54725909233093261719e-01) (31, -5.44041171669960021973e-02) (32, 1.26300439834594726562e+01) (33, -6.29769384860992431641e-01) (34, 1.26460037231445312500e+01) (35, 1.56391173601150512695e-01) (36, 5.47268614172935485840e-02) (37, 1.27465019226074218750e+01) (38, 3.34823995828628540039e-01) (39, 8.90282914042472839355e-02) (40, 1.07471317052841186523e-01) (41, 2.88417041301727294922e-01) (42, 7.33551502227783203125e-01) (43, 1.43825799226760864258e-01) (44, 1.05700761079788208008e-01) (45, 6.57535552978515625000e-01) (46, -3.42997640371322631836e-01) (47, 2.23694771528244018555e-01) (48, 3.91767591238021850586e-01) (49, -7.28876471519470214844e-01) (50, 4.07190591096878051758e-01) (51, 5.59117853641510009766e-01) (52, 1.66867375373840332031e-02) (53, 2.59053379297256469727e-01) (54, -8.16634595394134521484e-01) (55, -1.74917891621589660645e-01) (56, 1.26823635101318359375e+01) (57, 1.87614858150482177734e-01) (58, 1.26804256439208984375e+01) (59, -5.00455617904663085938e-01) (60, 1.52867361903190612793e-01) (61, 2.25932970643043518066e-01) (62, 5.10289631783962249756e-02) (63, -1.66004151105880737305e-01) (64, 3.20014238357543945312e-01) (65, -6.10662922263145446777e-02) (66, 2.68366545438766479492e-01) (67, -9.05796661972999572754e-02) (68, 8.98860543966293334961e-02) (69, 7.23864197731018066406e-01) (70, 8.12582135200500488281e-01) (71, -6.81532263755798339844e-01) (72, -7.31657266616821289062e-01) (73, 2.15172857046127319336e-01) (74, -6.61324501037597656250e-01) (75, -1.45873516798019409180e-01) (76, 6.39480590820312500000e-01) (77, -1.19157738983631134033e-01) (78, 8.23318719863891601562e-01) (79, 8.35151195526123046875e-01) (80, -5.88988423347473144531e-01) (81, -6.55100822448730468750e-01) (82, 1.34378805756568908691e-01) (83, -7.90084481239318847656e-01) (84, -1.31720930337905883789e-01) (85, 3.79245936870574951172e-01) (86, -5.18256664276123046875e-01) (87, 1.26903839111328125000e+01) (88, -8.03727984428405761719e-01) (89, -8.03996682167053222656e-01) (90, -5.85445940494537353516e-01) (91, 4.96306896209716796875e-01) (92, 8.38479280471801757812e-01) (93, -5.47084271907806396484e-01) (94, -3.71361672878265380859e-01) (95, 1.26384229660034179688e+01) (96, -1.65842831134796142578e-01) (97, -2.68825262784957885742e-01) (98, 7.44137883186340332031e-01) (99, 9.26851868629455566406e-01) (100, -6.89947977662086486816e-02) (101, 1.28042039871215820312e+01) (102, 1.26170692443847656250e+01) (103, 3.85751247406005859375e-01) (104, 1.27300858497619628906e-01) (105, -4.07582074403762817383e-02) (106, 4.92270827293395996094e-01) (107, 1.13454982638359069824e-01) (108, -2.33763962984085083008e-01) (109, -5.29849350452423095703e-01) (110, -3.28481972217559814453e-01) (111, -1.13005936145782470703e-01) (112, -5.18586993217468261719e-01) (113, 1.22333981096744537354e-01) (114, -4.39941912889480590820e-01) (115, 2.43483290076255798340e-01) (116, 9.10132229328155517578e-02) (117, 1.24622970819473266602e-01) (118, 1.22194960713386535645e-01) (119, 2.05582603812217712402e-01) (120, 2.50873535871505737305e-01) (121, -1.45108178257942199707e-02) (122, 2.02800035476684570312e-01) (123, -6.51769280433654785156e-01) (124, 2.81496971845626831055e-01) (125, -4.92107421159744262695e-01) (0, 2.29755893349647521973e-01) (1, 1.26441946029663085938e+01) (2, -2.03932195901870727539e-01) (3, 2.65356540679931640625e-01) (4, -9.17121842503547668457e-02) (5, -1.27201662063598632812e+01) (6, -2.90007412433624267578e-01) (7, 1.26414718627929687500e+01) (8, 3.35770964622497558594e-01) (9, 2.31280356645584106445e-01) (10, -2.55778431892395019531e-01) (11, 2.94997549057006835938e+00) (12, -1.26199817657470703125e+01) (13, -9.47121500968933105469e-01) (14, -1.26862897872924804688e+01) (15, 1.04875475168228149414e-01) (16, -1.27604837417602539062e+01) (17, -9.49033856391906738281e-01) (18, 1.53368547558784484863e-01) (19, 4.77439850568771362305e-01) (20, 1.99856124818325042725e-02) (21, 4.31591719388961791992e-01) (22, -1.28035383224487304688e+01) (23, -1.26621532440185546875e+01) (24, 1.26306743621826171875e+01) (25, 1.26777725219726562500e+01) (26, 1.26976900100708007812e+01) (27, 1.27806825637817382812e+01) (28, -6.48155212402343750000e-01) (29, 1.27458524703979492188e+01) (30, 1.27473249435424804688e+01) (31, -5.65281200408935546875e+00) (32, 1.27783746719360351562e+01) (33, 3.17283391952514648438e-01) (34, 1.27306146621704101562e+01) (35, 3.90984654426574707031e-01) (36, -3.20076227188110351562e-01) (37, 1.26262903213500976562e+01) (38, -6.42599999904632568359e-01) (39, 5.43469130992889404297e-01) (40, -8.81592988967895507812e-01) (41, -1.10522627830505371094e+00) (42, 1.28104934692382812500e+01) (43, 1.93951472640037536621e-01) (44, 5.59539571404457092285e-02) (45, 1.27358760833740234375e+01) (46, -1.27218008041381835938e+01) (47, -6.38175547122955322266e-01) (48, -4.16844785213470458984e-01) (49, -1.27855195999145507812e+01) (50, -1.01692497730255126953e-01) (51, 7.02506117522716522217e-03) (52, 2.98917293548583984375e-01) (53, -4.70626324415206909180e-01) (54, 2.70482033491134643555e-01) (55, -2.38974475860595703125e+00) (56, 1.26706495285034179688e+01) (57, -9.65333700180053710938e-01) (58, 1.26987209320068359375e+01) (59, -1.27251214981079101562e+01) (60, -4.34533447027206420898e-01) (61, -1.40570700168609619141e+00) (62, 6.63414359092712402344e-01) (63, -3.97168040275573730469e-01) (64, -5.23399710655212402344e-01) (65, 1.59106492996215820312e+00) (66, -5.09382009506225585938e-01) (67, -2.96947002410888671875e-01) (68, 2.90927350521087646484e-01) (69, 1.26724710464477539062e+01) (70, 1.26524410247802734375e+01) (71, -1.26909933090209960938e+01) (72, -1.27428569793701171875e+01) (73, -7.00941443443298339844e-01) (74, -1.26145315170288085938e+01) (75, -3.06932747364044189453e-01) (76, 1.27754650115966796875e+01) (77, -5.64810872077941894531e-01) (78, 1.26799545288085937500e+01) (79, 1.28015127182006835938e+01) (80, -1.26985063552856445312e+01) (81, -1.27586479187011718750e+01) (82, -1.23718214035034179688e+00) (83, -1.27994699478149414062e+01) (84, -2.51404911279678344727e-01) (85, 1.27757787704467773438e+01) (86, 3.30122292041778564453e-01) (87, 1.27165508270263671875e+01) (88, -1.26996574401855468750e+01) (89, -1.27943820953369140625e+01) (90, 3.91309142112731933594e-01) (91, 1.28057775497436523438e+01) (92, 1.26516628265380859375e+01) (93, 2.93657839298248291016e-01) (94, -8.56044948101043701172e-01) (95, 1.27917671203613281250e+01) (96, -7.64755368232727050781e-01) (97, -1.27288808822631835938e+01) (98, 1.27407789230346679688e+01) (99, 1.27626504898071289062e+01) (100, -1.53715044260025024414e-01) (101, 1.27815475463867187500e+01) (102, 1.26833295822143554688e+01) (103, -1.10083639621734619141e+00) (104, -1.10377907752990722656e+00) (105, -1.27428750991821289062e+01) (106, 1.42773187160491943359e+00) (107, 1.27849292755126953125e+01) (108, -1.26558618545532226562e+01) (109, -1.26880292892456054688e+01) (110, 4.69824746251106262207e-02) (111, -1.27426958084106445312e+01) (112, -1.26350049972534179688e+01) (113, 1.78196454048156738281e+00) (114, -1.27304925918579101562e+01) (115, -2.73443371057510375977e-01) (116, 3.88124346733093261719e-01) (117, -2.82746028900146484375e+00) (118, -1.68565317988395690918e-01) (119, -4.47772324085235595703e-01) (120, 5.64905762672424316406e-01) (121, -1.78337836265563964844e+00) (122, -1.76106184720993041992e-01) (123, -1.27429704666137695312e+01) (124, -9.26949456334114074707e-02) (125, 3.78313779830932617188e-01) (0, 9.03284773230552673340e-02) (1, 1.27393941879272460938e+01) (2, -2.34786644577980041504e-01) (3, -2.15842366218566894531e-01) (4, 3.05018156766891479492e-01) (5, -1.28068561553955078125e+01) (6, -2.37905204296112060547e-01) (7, 1.27620286941528320312e+01) (8, 2.43542313575744628906e-01) (9, 4.91082221269607543945e-01) (10, -4.23738181591033935547e-01) (11, 2.35563898086547851562e+00) (12, -1.26811733245849609375e+01) (13, -2.67927438020706176758e-01) (14, -1.26154441833496093750e+01) (15, 3.63983988761901855469e-01) (16, -1.27677307128906250000e+01) (17, 1.76307439804077148438e-01) (18, 2.00438544154167175293e-01) (19, 4.43146497011184692383e-01) (20, 2.76004433631896972656e-01) (21, 3.49451392889022827148e-01) (22, -1.26751289367675781250e+01) (23, -1.26887607574462890625e+01) (24, 1.27414274215698242188e+01) (25, 1.27769279479980468750e+01) (26, 1.26534595489501953125e+01) (27, 1.26769647598266601562e+01) (28, -6.41771078109741210938e-01) (29, 1.26661128997802734375e+01) (30, 1.26553983688354492188e+01) (31, -8.09304475784301757812e-01) (32, 1.27938346862792968750e+01) (33, -2.44936108589172363281e-01) (34, 1.26723299026489257812e+01) (35, 4.70154881477355957031e-01) (36, -4.13676202297210693359e-01) (37, 1.26201086044311523438e+01) (38, -4.31674480438232421875e-01) (39, 9.71134066581726074219e-01) (40, -1.30334466695785522461e-01) (41, -2.65640407800674438477e-01) (42, 1.28112487792968750000e+01) (43, 2.57305055856704711914e-01) (44, -1.12847968935966491699e-01) (45, 1.28074769973754882812e+01) (46, -5.28875684738159179688e+00) (47, -2.46733918786048889160e-01) (48, -2.74192452430725097656e-01) (49, -1.26629934310913085938e+01) (50, -1.12035118043422698975e-01) (51, 2.93596863746643066406e-01) (52, 3.36883127689361572266e-01) (53, -1.85068950057029724121e-01) (54, -1.99359178543090820312e-01) (55, -1.04648542404174804688e+00) (56, 1.26878709793090820312e+01) (57, -8.37499976158142089844e-01) (58, 1.27437229156494140625e+01) (59, -1.27015161514282226562e+01) (60, -2.38686785101890563965e-01) (61, -9.37467932701110839844e-01) (62, 7.53977119922637939453e-01) (63, 2.63108462095260620117e-02) (64, -5.82776784896850585938e-01) (65, 1.62334322929382324219e+00) (66, 1.64424210786819458008e-01) (67, 1.68573752045631408691e-01) (68, 4.84164804220199584961e-01) (69, 1.26492176055908203125e+01) (70, 1.27291584014892578125e+01) (71, -1.27839899063110351562e+01) (72, -5.41061305999755859375e+00) (73, 2.78189569711685180664e-01) (74, -1.26878137588500976562e+01) (75, -1.29753738641738891602e-01) (76, 1.27245378494262695312e+01) (77, 3.01198899745941162109e-01) (78, 1.27342042922973632812e+01) (79, 1.26932382583618164062e+01) (80, -1.27493610382080078125e+01) (81, -5.38159847259521484375e+00) (82, 2.06857815384864807129e-01) (83, -1.26123580932617187500e+01) (84, -1.40452403575181961060e-02) (85, 1.27444782257080078125e+01) (86, -2.83814728260040283203e-01) (87, 1.26957464218139648438e+01) (88, -5.41686153411865234375e+00) (89, -5.28040790557861328125e+00) (90, -1.55656665563583374023e-01) (91, 1.26566448211669921875e+01) (92, 1.27855701446533203125e+01) (93, -1.58651284873485565186e-02) (94, -4.32454407215118408203e-01) (95, 1.26662969589233398438e+01) (96, 2.28277832269668579102e-01) (97, -1.27749080657958984375e+01) (98, 1.26567907333374023438e+01) (99, 1.27143888473510742188e+01) (100, 5.23897260427474975586e-02) (101, 1.27742757797241210938e+01) (102, 1.27420711517333984375e+01) (103, -8.24136376380920410156e-01) (104, -4.36958551406860351562e-01) (105, -5.42427206039428710938e+00) (106, 1.38785088062286376953e+00) (107, 1.28042030334472656250e+01) (108, -5.31063985824584960938e+00) (109, -1.26736602783203125000e+01) (110, 3.00413876771926879883e-01) (111, -5.44832801818847656250e+00) (112, -1.27767286300659179688e+01) (113, 1.83647871017456054688e+00) (114, -1.27821559906005859375e+01) (115, -1.89741224050521850586e-01) (116, 2.13758304715156555176e-01) (117, -7.25822985172271728516e-01) (118, -1.05667501688003540039e-01) (119, 1.91584154963493347168e-01) (120, 6.29904866218566894531e-01) (121, -4.28154617547988891602e-01) (122, -2.40692347288131713867e-01) (123, -1.27440643310546875000e+01) (124, 2.91698984801769256592e-03) (125, -1.80178642272949218750e-01) (0, 6.32520377635955810547e-01) (1, -1.26626958847045898438e+01) (2, -1.11250467598438262939e-01) (3, 5.52250929176807403564e-02) (4, 2.63438403606414794922e-01) (5, 1.26924562454223632812e+01) (6, 2.83322244882583618164e-01) (7, -1.26295824050903320312e+01) (8, -1.78870126605033874512e-01) (9, -6.05302602052688598633e-02) (10, 2.95707523822784423828e-01) (11, -5.44003915786743164062e+00) (12, 5.02867794036865234375e+00) (13, 1.83543026447296142578e-01) (14, 1.27881755828857421875e+01) (15, 6.09469506889581680298e-03) (16, 1.26461124420166015625e+01) (17, 1.58953773975372314453e+00) (18, -5.81292156130075454712e-03) (19, -4.64902482926845550537e-02) (20, -1.47615119814872741699e-01) (21, -3.85693162679672241211e-02) (22, 1.27712182998657226562e+01) (23, 1.27928304672241210938e+01) (24, -1.26486759185791015625e+01) (25, -1.27584161758422851562e+01) (26, -1.27093915939331054688e+01) (27, -1.26894054412841796875e+01) (28, 1.76069289445877075195e-01) (29, -1.28011264801025390625e+01) (30, -1.27196969985961914062e+01) (31, 2.74901318550109863281e+00) (32, 1.27711954116821289062e+01) (33, -7.38825649023056030273e-02) (34, 1.26221208572387695312e+01) (35, -1.61116972565650939941e-01) (36, 1.63519471883773803711e-01) (37, 1.27520751953125000000e+01) (38, 4.93749320507049560547e-01) (39, -3.91352981328964233398e-01) (40, 1.37315165996551513672e+00) (41, 5.23834705352783203125e-01) (42, -1.27709388732910156250e+01) (43, 4.20452922582626342773e-01) (44, 2.13196843862533569336e-01) (45, -1.27944355010986328125e+01) (46, 1.26400842666625976562e+01) (47, -1.81594584137201309204e-03) (48, -4.14647310972213745117e-02) (49, 1.26361513137817382812e+01) (50, -6.95913881063461303711e-02) (51, -4.15442064404487609863e-02) (52, -9.91550087928771972656e-02) (53, 1.02410160005092620850e-01) (54, -1.37773439288139343262e-01) (55, 2.74208807945251464844e+00) (56, 1.27567644119262695312e+01) (57, 3.45692962408065795898e-01) (58, 1.27701129913330078125e+01) (59, 1.26776294708251953125e+01) (60, 1.87509953975677490234e-01) (61, 5.44596612453460693359e-01) (62, -3.55458140373229980469e-01) (63, -3.58745753765106201172e-02) (64, 4.46053773164749145508e-01) (65, -1.72659015655517578125e+00) (66, 4.15956586599349975586e-01) (67, -4.42340150475502014160e-02) (68, -4.04607445001602172852e-01) (69, -1.26706953048706054688e+01) (70, -1.26813316345214843750e+01) (71, 5.03645610809326171875e+00) (72, 1.27823038101196289062e+01) (73, 1.14912843704223632812e+00) (74, 1.27737674713134765625e+01) (75, -1.67808338999748229980e-01) (76, -1.26233606338500976562e+01) (77, 9.19466018676757812500e-01) (78, -1.27388172149658203125e+01) (79, -1.27946767807006835938e+01) (80, 5.04151487350463867188e+00) (81, 1.26168174743652343750e+01) (82, 2.58996081352233886719e+00) (83, 1.26998348236083984375e+01) (84, -7.53518640995025634766e-02) (85, -1.26476202011108398438e+01) (86, -4.79967892169952392578e-02) (87, 1.26537446975708007812e+01) (88, 1.27421131134033203125e+01) (89, 1.26944475173950195312e+01) (90, -6.43030107021331787109e-02) (91, -1.27042980194091796875e+01) (92, -1.26784820556640625000e+01) (93, -1.55247732996940612793e-01) (94, 1.31289768218994140625e+00) (95, 1.26937284469604492188e+01) (96, 1.06954789161682128906e+00) (97, 1.28031768798828125000e+01) (98, -1.28015193939208984375e+01) (99, -1.26151790618896484375e+01) (100, -3.98501679301261901855e-02) (101, 1.27521677017211914062e+01) (102, 1.26180925369262695312e+01) (103, 2.82417505979537963867e-01) (104, 2.90874451398849487305e-01) (105, 1.27801876068115234375e+01) (106, -3.80693554878234863281e-01) (107, -1.27117910385131835938e+01) (108, 1.27706937789916992188e+01) (109, 5.20702219009399414062e+00) (110, -1.02835677564144134521e-01) (111, 1.27856788635253906250e+01) (112, 1.27973098754882812500e+01) (113, -1.82927131652832031250e+00) (114, 1.26738405227661132812e+01) (115, 1.24688157811760902405e-02) (116, -8.56624078005552291870e-03) (117, 5.21303272247314453125e+00) (118, 5.45404031872749328613e-02) (119, -1.31660044193267822266e-01) (120, -3.86574193835258483887e-02) (121, 7.65970706939697265625e-01) (122, 4.69021201133728027344e-01) (123, 1.26141414642333984375e+01) (124, -1.52079030871391296387e-01) (125, -1.09809547662734985352e-01) (0, 1.26056343317031860352e-01) (1, 1.27980623245239257812e+01) (2, -3.88865768909454345703e-01) (3, 2.79732882976531982422e-01) (4, 2.06558018922805786133e-01) (5, -1.26251649856567382812e+01) (6, -3.50510537624359130859e-01) (7, 1.28009757995605468750e+01) (8, 3.42544794082641601562e-01) (9, 3.07870715856552124023e-01) (10, -2.85073935985565185547e-01) (11, 3.04016828536987304688e+00) (12, -1.27650480270385742188e+01) (13, -9.96404051780700683594e-01) (14, -1.26339235305786132812e+01) (15, 7.84432828426361083984e-01) (16, -1.27208280563354492188e+01) (17, -8.87490987777709960938e-01) (18, 1.58404424786567687988e-01) (19, 4.71037715673446655273e-01) (20, -5.93441799283027648926e-02) (21, 5.19907236099243164062e-01) (22, -1.26721572875976562500e+01) (23, -1.26409797668457031250e+01) (24, 1.26841869354248046875e+01) (25, 1.26204662322998046875e+01) (26, 1.26150827407836914062e+01) (27, 1.27028770446777343750e+01) (28, -5.11221408843994140625e-01) (29, 1.26648845672607421875e+01) (30, 1.27653999328613281250e+01) (31, -5.57282352447509765625e+00) (32, 1.26512737274169921875e+01) (33, 2.34238699078559875488e-01) (34, 1.28021373748779296875e+01) (35, 2.07449942827224731445e-01) (36, -2.83214151859283447266e-02) (37, 1.26373100280761718750e+01) (38, -4.31104183197021484375e-01) (39, 5.99447429180145263672e-01) (40, -7.93983459472656250000e-01) (41, -4.93896692991256713867e-01) (42, 1.26928119659423828125e+01) (43, -8.07724893093109130859e-04) (44, -3.17391417920589447021e-02) (45, 1.26705617904663085938e+01) (46, -1.26291666030883789062e+01) (47, -2.65601724386215209961e-01) (48, -4.20616567134857177734e-01) (49, -1.26488418579101562500e+01) (50, -9.22793298959732055664e-02) (51, -1.25300779938697814941e-01) (52, 3.50515812635421752930e-01) (53, -3.73073279857635498047e-01) (54, 2.91896253824234008789e-01) (55, -5.47206544876098632812e+00) (56, 1.26902847290039062500e+01) (57, -1.07086062431335449219e+00) (58, 1.26994218826293945312e+01) (59, -1.27217979431152343750e+01) (60, -4.21028584241867065430e-01) (61, -3.03663086891174316406e+00) (62, 7.46726930141448974609e-01) (63, -2.01118320226669311523e-01) (64, -6.14273846149444580078e-01) (65, 1.74589991569519042969e+00) (66, -3.91597449779510498047e-01) (67, -2.92823582887649536133e-01) (68, 2.56781458854675292969e-01) (69, 1.27811412811279296875e+01) (70, 1.27390451431274414062e+01) (71, -1.26375293731689453125e+01) (72, -1.26725978851318359375e+01) (73, -8.14365506172180175781e-01) (74, -1.26185255050659179688e+01) (75, -2.60514616966247558594e-01) (76, 1.26790742874145507812e+01) (77, -4.76170748472213745117e-01) (78, 1.26144838333129882812e+01) (79, 1.27013492584228515625e+01) (80, -1.26731882095336914062e+01) (81, -1.26785583496093750000e+01) (82, -8.92921209335327148438e-01) (83, -1.27491579055786132812e+01) (84, -3.33381056785583496094e-01) (85, 1.28086013793945312500e+01) (86, 2.85544663667678833008e-01) (87, 1.26932182312011718750e+01) (88, -1.27723608016967773438e+01) (89, -1.26648645401000976562e+01) (90, 3.97905617952346801758e-01) (91, 1.27465791702270507812e+01) (92, 1.27999572753906250000e+01) (93, 3.83566886186599731445e-01) (94, -8.28839600086212158203e-01) (95, 1.26491861343383789062e+01) (96, -1.27193294465541839600e-02) (97, -1.27838907241821289062e+01) (98, 1.26926765441894531250e+01) (99, 1.27466430664062500000e+01) (100, -1.39063566923141479492e-01) (101, 1.26200494766235351562e+01) (102, 1.27207860946655273438e+01) (103, -9.76917982101440429688e-01) (104, -1.09635388851165771484e+00) (105, -1.27094125747680664062e+01) (106, 1.53421604633331298828e+00) (107, 1.26959629058837890625e+01) (108, -1.27337589263916015625e+01) (109, -1.26470165252685546875e+01) (110, 6.99242174625396728516e-01) (111, -1.27952747344970703125e+01) (112, -1.27139024734497070312e+01) (113, 1.84857797622680664062e+00) (114, -1.27327604293823242188e+01) (115, -1.95308819413185119629e-01) (116, 4.87560778856277465820e-01) (117, -3.40676951408386230469e+00) (118, -1.13763295114040374756e-01) (119, 1.91839247941970825195e-01) (120, 6.20973348617553710938e-01) (121, -3.95608663558959960938e-01) (122, -2.08572536706924438477e-01) (123, -1.27386083602905273438e+01) (124, -8.28299596905708312988e-02) (125, 3.99657815694808959961e-01) (0, 4.28602844476699829102e-01) (1, 5.07048749923706054688e+00) (2, 6.33754193782806396484e-01) (3, 5.52891433238983154297e-01) (4, 1.62137746810913085938e-02) (5, -4.90832519531250000000e+00) (6, 3.62171471118927001953e-01) (7, 5.11457157135009765625e+00) (8, 5.86243093013763427734e-01) (9, 6.49648427963256835938e-01) (10, 4.65700626373291015625e-01) (11, 2.13942956924438476562e+00) (12, -1.80591487884521484375e+00) (13, 5.33501267433166503906e-01) (14, -5.04549837112426757812e+00) (15, 3.50439906120300292969e-01) (16, -5.02191734313964843750e+00) (17, 7.96811044216156005859e-01) (18, 2.98617154359817504883e-01) (19, 8.59776616096496582031e-01) (20, 3.77530515193939208984e-01) (21, -8.38698297739028930664e-02) (22, -5.00503396987915039062e+00) (23, -5.06477546691894531250e+00) (24, 5.13057804107666015625e+00) (25, 5.21280527114868164062e+00) (26, 5.22195339202880859375e+00) (27, 5.03364849090576171875e+00) (28, -4.55828964710235595703e-01) (29, 5.13270425796508789062e+00) (30, 5.20682096481323242188e+00) (31, -1.73713660240173339844e+00) (32, 1.27618045806884765625e+01) (33, 6.32958352565765380859e-01) (34, 1.27731723785400390625e+01) (35, 7.61859774589538574219e-01) (36, 1.50465056300163269043e-01) (37, 1.27731313705444335938e+01) (38, 2.36107125878334045410e-01) (39, 7.38608166575431823730e-02) (40, 3.83843600749969482422e-01) (41, 2.11493909358978271484e-01) (42, 5.03688621520996093750e+00) (43, 8.11074972152709960938e-01) (44, 9.34997871518135070801e-02) (45, 5.09791755676269531250e+00) (46, -4.95197629928588867188e+00) (47, 7.93031036853790283203e-01) (48, 2.68759727478027343750e-01) (49, -4.94494581222534179688e+00) (50, 3.50074738264083862305e-01) (51, 3.13761711120605468750e-01) (52, 5.49180686473846435547e-01) (53, 6.58051490783691406250e-01) (54, 6.04064941406250000000e-01) (55, -6.65423393249511718750e-01) (56, 1.26231994628906250000e+01) (57, 2.86723911762237548828e-01) (58, 1.26203069686889648438e+01) (59, -5.03566312789916992188e+00) (60, 1.02254845201969146729e-01) (61, -1.80201277136802673340e-01) (62, 1.02555841207504272461e-01) (63, 3.43029797077178955078e-01) (64, -4.70282994210720062256e-02) (65, 5.31028687953948974609e-01) (66, 6.15109875798225402832e-02) (67, 3.09471309185028076172e-01) (68, 4.13479775190353393555e-01) (69, 5.15587091445922851562e+00) (70, 5.09013128280639648438e+00) (71, -4.96447896957397460938e+00) (72, -4.96978569030761718750e+00) (73, 7.11966454982757568359e-01) (74, -5.08503198623657226562e+00) (75, 2.12243318557739257812e-01) (76, 5.17187547683715820312e+00) (77, 1.27351850271224975586e-01) (78, 5.19912433624267578125e+00) (79, 5.20206546783447265625e+00) (80, -4.96889448165893554688e+00) (81, -5.01017999649047851562e+00) (82, 7.03239858150482177734e-01) (83, -5.07142686843872070312e+00) (84, 3.43391060829162597656e-01) (85, 5.22321081161499023438e+00) (86, 4.88331943750381469727e-01) (87, 1.27448015213012695312e+01) (88, -4.98297500610351562500e+00) (89, -5.06127643585205078125e+00) (90, 4.55708742141723632812e-01) (91, 5.18313264846801757812e+00) (92, 5.06070852279663085938e+00) (93, 4.96493011713027954102e-01) (94, -3.11019271612167358398e-03) (95, 1.26160221099853515625e+01) (96, -1.63540989160537719727e-03) (97, -5.05450820922851562500e+00) (98, 5.18050050735473632812e+00) (99, 5.03733730316162109375e+00) (100, 4.03151869773864746094e-01) (101, 1.26292448043823242188e+01) (102, 1.27645301818847656250e+01) (103, 2.77957409620285034180e-01) (104, 2.51379966735839843750e-01) (105, -4.93217420578002929688e+00) (106, 1.82056620717048645020e-01) (107, 5.06340503692626953125e+00) (108, -4.95612287521362304688e+00) (109, -5.00346565246582031250e+00) (110, -1.50303944945335388184e-01) (111, -5.01848745346069335938e+00) (112, -4.90711545944213867188e+00) (113, 1.07738077640533447266e+00) (114, -4.98338413238525390625e+00) (115, 3.59586179256439208984e-01) (116, 3.49721372127532958984e-01) (117, 5.86016237735748291016e-01) (118, 2.92715311050415039062e-01) (119, 1.10272951424121856689e-01) (120, 8.95854473114013671875e-01) (121, 9.56450924277305603027e-02) (122, 9.05832126736640930176e-02) (123, -5.06733322143554687500e+00) (124, 7.99173474311828613281e-01) (125, 5.45974671840667724609e-01) (0, -1.36326938867568969727e-01) (1, -4.95654439926147460938e+00) (2, -1.64528295397758483887e-01) (3, 4.12560760974884033203e-01) (4, 2.20919340848922729492e-01) (5, 2.22110009193420410156e+00) (6, -9.38671156764030456543e-02) (7, -4.99287939071655273438e+00) (8, 1.89879804849624633789e-01) (9, -3.51098999381065368652e-02) (10, -9.75945517420768737793e-02) (11, -1.32916510105133056641e+00) (12, 7.62953460216522216797e-01) (13, -2.72398322820663452148e-01) (14, 2.30579781532287597656e+00) (15, 8.50928947329521179199e-02) (16, 2.35296607017517089844e+00) (17, 5.54674208164215087891e-01) (18, -4.27127450704574584961e-01) (19, 1.49946287274360656738e-02) (20, -3.55688542127609252930e-01) (21, 1.62267580628395080566e-01) (22, 2.10282063484191894531e+00) (23, 2.14731812477111816406e+00) (24, -5.00078439712524414062e+00) (25, -5.09214544296264648438e+00) (26, -4.99452447891235351562e+00) (27, -5.04630470275878906250e+00) (28, -5.53745925426483154297e-02) (29, -5.09160280227661132812e+00) (30, -4.95204305648803710938e+00) (31, 4.27148967981338500977e-01) (32, 1.27765855789184570312e+01) (33, 3.15814107656478881836e-01) (34, 1.27063179016113281250e+01) (35, -2.40509416908025741577e-02) (36, -1.51456981897354125977e-01) (37, 1.27214069366455078125e+01) (38, 1.29954308271408081055e-01) (39, -7.55866765975952148438e-02) (40, -2.94458478689193725586e-01) (41, -1.83449313044548034668e-01) (42, -5.05613708496093750000e+00) (43, 8.90355035662651062012e-02) (44, 8.59946846961975097656e-01) (45, -4.97684955596923828125e+00) (46, 2.20920586585998535156e+00) (47, -2.18580141663551330566e-01) (48, -2.36641868948936462402e-01) (49, 2.24275183677673339844e+00) (50, -3.18840265274047851562e-01) (51, -9.28276851773262023926e-02) (52, -9.25902053713798522949e-02) (53, -1.59611985087394714355e-01) (54, 2.06091731786727905273e-01) (55, 9.86011028289794921875e-01) (56, 1.27772569656372070312e+01) (57, -5.17404600977897644043e-02) (58, 1.26348094940185546875e+01) (59, 2.11262011528015136719e+00) (60, -2.65356805175542831421e-02) (61, 3.61465305089950561523e-01) (62, -1.04379244148731231689e-01) (63, -2.35946074128150939941e-01) (64, 1.27615362405776977539e-01) (65, -1.99931478500366210938e+00) (66, 1.29313856363296508789e-01) (67, -2.82945364713668823242e-01) (68, 6.67273029685020446777e-02) (69, -4.98765850067138671875e+00) (70, -4.92554950714111328125e+00) (71, 2.23048090934753417969e+00) (72, 2.13968801498413085938e+00) (73, 2.41361871361732482910e-01) (74, 2.19032812118530273438e+00) (75, -3.77746850252151489258e-01) (76, -4.94547605514526367188e+00) (77, 4.14946168661117553711e-01) (78, -5.00228881835937500000e+00) (79, -4.93709325790405273438e+00) (80, 2.25537729263305664062e+00) (81, 2.13952827453613281250e+00) (82, 3.87525886297225952148e-01) (83, 2.11254334449768066406e+00) (84, -1.92482516169548034668e-01) (85, -5.06702756881713867188e+00) (86, 3.97044777870178222656e-01) (87, 1.27745304107666015625e+01) (88, 2.10692739486694335938e+00) (89, 2.09859228134155273438e+00) (90, 3.97067904472351074219e-01) (91, -5.10415935516357421875e+00) (92, -4.92376756668090820312e+00) (93, 3.13362032175064086914e-01) (94, 2.92464911937713623047e-01) (95, 1.26728296279907226562e+01) (96, 3.47418218851089477539e-01) (97, 5.06222629547119140625e+00) (98, -4.93856191635131835938e+00) (99, -5.07659864425659179688e+00) (100, -2.35188201069831848145e-01) (101, 1.27606210708618164062e+01) (102, 1.27786312103271484375e+01) (103, -3.10009747743606567383e-01) (104, -1.30489870905876159668e-01) (105, 2.15728616714477539062e+00) (106, -2.31678515672683715820e-01) (107, -4.96515417098999023438e+00) (108, 2.16991162300109863281e+00) (109, 2.21050643920898437500e+00) (110, 1.70938640832901000977e-01) (111, 2.13183474540710449219e+00) (112, 2.25658059120178222656e+00) (113, -1.92190456390380859375e+00) (114, 2.15092420578002929688e+00) (115, -1.55541315674781799316e-01) (116, 1.82251319289207458496e-01) (117, 7.52466097474098205566e-02) (118, -1.37860476970672607422e-01) (119, -4.48130518198013305664e-02) (120, -6.68126225471496582031e-01) (121, 3.15270930528640747070e-01) (122, 2.60105878114700317383e-01) (123, 2.12082552909851074219e+00) (124, -4.57072675228118896484e-01) (125, 3.14920991659164428711e-01) (0, 4.06553119421005249023e-01) (1, 5.13938856124877929688e+00) (2, 7.68373608589172363281e-01) (3, 4.17805165052413940430e-01) (4, -1.99246406555175781250e-02) (5, -5.01638793945312500000e+00) (6, 2.05324605107307434082e-01) (7, 5.13627767562866210938e+00) (8, 6.06108963489532470703e-01) (9, 7.30333507061004638672e-01) (10, 5.89496791362762451172e-01) (11, 2.14680933952331542969e+00) (12, -4.97938823699951171875e+00) (13, 4.27091211080551147461e-01) (14, -5.08572244644165039062e+00) (15, 3.65234389901161193848e-02) (16, -5.01811170578002929688e+00) (17, 8.21942925453186035156e-01) (18, 7.09791004657745361328e-01) (19, 2.07659766077995300293e-01) (20, 4.62359160184860229492e-01) (21, -8.79182480275630950928e-04) (22, -4.92117071151733398438e+00) (23, -5.03893756866455078125e+00) (24, 5.22201108932495117188e+00) (25, 5.05649805068969726562e+00) (26, 5.19940519332885742188e+00) (27, 5.16570711135864257812e+00) (28, 7.45243113487958908081e-03) (29, 5.20300579071044921875e+00) (30, 5.06558418273925781250e+00) (31, -1.76118636131286621094e+00) (32, 1.27010068893432617188e+01) (33, 6.26341164112091064453e-01) (34, 1.26140365600585937500e+01) (35, 6.64923906326293945312e-01) (36, 3.57848480343818664551e-02) (37, 1.26194810867309570312e+01) (38, 3.24275434017181396484e-01) (39, 1.15594275295734405518e-01) (40, 3.99109780788421630859e-01) (41, 3.90785098075866699219e-01) (42, 5.08599901199340820312e+00) (43, 1.97227209806442260742e-01) (44, -1.92695319652557373047e-01) (45, 5.10680675506591796875e+00) (46, -4.94786071777343750000e+00) (47, 6.86707258224487304688e-01) (48, 3.02780359983444213867e-01) (49, -5.02155733108520507812e+00) (50, 4.26114410161972045898e-01) (51, 1.13572418689727783203e-01) (52, 5.90840935707092285156e-01) (53, 8.17954540252685546875e-01) (54, 5.48752307891845703125e-01) (55, -5.32330274581909179688e-01) (56, 1.26267957687377929688e+01) (57, 2.08862781524658203125e-01) (58, 1.26854581832885742188e+01) (59, -5.03406715393066406250e+00) (60, 9.46954861283302307129e-02) (61, 2.73968666791915893555e-01) (62, 8.01020190119743347168e-02) (63, 2.74673074483871459961e-01) (64, -1.29730463027954101562e-01) (65, 1.02043330669403076172e+00) (66, 4.92643564939498901367e-02) (67, 3.12088966369628906250e-01) (68, 2.78238773345947265625e-01) (69, 5.11534881591796875000e+00) (70, 5.13448238372802734375e+00) (71, -5.08445405960083007812e+00) (72, -5.10225915908813476562e+00) (73, 2.04925447702407836914e-01) (74, -4.96373844146728515625e+00) (75, 3.69640529155731201172e-01) (76, 5.07422828674316406250e+00) (77, -1.47163927555084228516e-01) (78, 5.05019760131835937500e+00) (79, 5.13843917846679687500e+00) (80, -4.92009639739990234375e+00) (81, -5.08306646347045898438e+00) (82, 1.57957538962364196777e-01) (83, -4.98096847534179687500e+00) (84, 2.30407252907752990723e-01) (85, 5.22312116622924804688e+00) (86, 5.11883139610290527344e-01) (87, 1.26354141235351562500e+01) (88, -5.06092596054077148438e+00) (89, -4.97257375717163085938e+00) (90, 5.47916650772094726562e-01) (91, 5.09762191772460937500e+00) (92, 5.07332658767700195312e+00) (93, 5.66247045993804931641e-01) (94, 4.30227592587471008301e-02) (95, 1.27459383010864257812e+01) (96, -1.13396584987640380859e-01) (97, -4.97366809844970703125e+00) (98, 5.11303377151489257812e+00) (99, 5.19026041030883789062e+00) (100, 2.43470087647438049316e-01) (101, 1.28061294555664062500e+01) (102, 1.27974786758422851562e+01) (103, 1.49038627743721008301e-01) (104, 3.21728587150573730469e-01) (105, -4.97793197631835937500e+00) (106, 2.47298508882522583008e-01) (107, 5.03610658645629882812e+00) (108, -5.07647132873535156250e+00) (109, -5.08715009689331054688e+00) (110, -4.12286818027496337891e-02) (111, -5.09003782272338867188e+00) (112, -5.06368684768676757812e+00) (113, 2.32499361038208007812e+00) (114, -4.96447610855102539062e+00) (115, 5.07708489894866943359e-01) (116, -1.65037959814071655273e-02) (117, 4.28475201129913330078e-01) (118, 2.94207751750946044922e-01) (119, -1.80700495839118957520e-01) (120, 1.02701628208160400391e+00) (121, 1.20677210390567779541e-01) (122, 9.13303568959236145020e-02) (123, -4.92355346679687500000e+00) (124, 7.82191872596740722656e-01) (125, 5.92854738235473632812e-01) (0, 1.02336192131042480469e+00) (1, 5.04769802093505859375e+00) (2, 2.58969157934188842773e-01) (3, -3.46141457557678222656e-01) (4, 2.21840143203735351562e-02) (5, -5.01084518432617187500e+00) (6, 4.09606039524078369141e-01) (7, 5.19723463058471679688e+00) (8, -1.64798557758331298828e-01) (9, -2.82811582088470458984e-01) (10, 2.86869406700134277344e-01) (11, 4.85280334949493408203e-01) (12, -4.93687248229980468750e+00) (13, 1.11769810318946838379e-02) (14, -4.96980190277099609375e+00) (15, 1.22713604941964149475e-02) (16, -4.96067619323730468750e+00) (17, -1.62781751155853271484e+00) (18, 4.24669265747070312500e-01) (19, 2.15672217309474945068e-02) (20, 3.49056959152221679688e-01) (21, 5.56865558028221130371e-02) (22, -5.01639890670776367188e+00) (23, -5.00029563903808593750e+00) (24, 5.08227825164794921875e+00) (25, 5.05284118652343750000e+00) (26, 5.10416984558105468750e+00) (27, 5.03750514984130859375e+00) (28, -1.36626645922660827637e-01) (29, 5.19010972976684570312e+00) (30, 5.17864656448364257812e+00) (31, -4.98000049591064453125e+00) (32, 1.27964210510253906250e+01) (33, 2.52439290285110473633e-01) (34, 1.27419481277465820312e+01) (35, 6.42982274293899536133e-02) (36, -1.29368811845779418945e-01) (37, 1.27401504516601562500e+01) (38, 2.09558233618736267090e-01) (39, 2.97604184597730636597e-02) (40, -2.96263359487056732178e-02) (41, -7.85306617617607116699e-02) (42, 5.18732023239135742188e+00) (43, -1.27312257885932922363e-01) (44, -1.89169049263000488281e-01) (45, 5.12404823303222656250e+00) (46, -4.95717096328735351562e+00) (47, 2.75997668504714965820e-01) (48, 1.46296307444572448730e-01) (49, -5.02408838272094726562e+00) (50, 2.29095578193664550781e-01) (51, 3.73129338026046752930e-01) (52, -2.32380032539367675781e-01) (53, 2.54036277532577514648e-01) (54, -3.15937906503677368164e-01) (55, -7.03439950942993164062e-01) (56, 1.27308921813964843750e+01) (57, -2.61894129216670989990e-02) (58, 1.27324504852294921875e+01) (59, -4.97802305221557617188e+00) (60, -1.61623999476432800293e-01) (61, -2.90608078241348266602e-01) (62, 1.16808220744132995605e-01) (63, 2.02535137534141540527e-01) (64, -1.18183575570583343506e-01) (65, 1.18505120277404785156e+00) (66, -6.89023733139038085938e-02) (67, 1.83032795786857604980e-01) (68, 1.40494674444198608398e-01) (69, 5.17685079574584960938e+00) (70, 5.09079217910766601562e+00) (71, -5.10418224334716796875e+00) (72, -4.91655540466308593750e+00) (73, -2.11535885930061340332e-01) (74, -5.04596662521362304688e+00) (75, 3.85308891534805297852e-01) (76, 5.14910030364990234375e+00) (77, -7.80377268791198730469e-01) (78, 5.10038948059082031250e+00) (79, 5.22618961334228515625e+00) (80, -5.01416635513305664062e+00) (81, -5.02989387512207031250e+00) (82, -1.28807306289672851562e-01) (83, -4.96011114120483398438e+00) (84, 4.44877564907073974609e-01) (85, 5.14866638183593750000e+00) (86, 2.82540857791900634766e-01) (87, 1.27004365921020507812e+01) (88, -5.09239864349365234375e+00) (89, -4.92952966690063476562e+00) (90, 2.43589311838150024414e-01) (91, 5.09623670578002929688e+00) (92, 5.07642507553100585938e+00) (93, -2.14127898216247558594e-01) (94, -2.53473490476608276367e-01) (95, 1.27605829238891601562e+01) (96, -1.91005721688270568848e-01) (97, -4.98653078079223632812e+00) (98, 5.19626140594482421875e+00) (99, 5.19793844223022460938e+00) (100, 3.45652759075164794922e-01) (101, 1.26456661224365234375e+01) (102, 1.27854290008544921875e+01) (103, -5.78906200826168060303e-02) (104, -5.91385625302791595459e-02) (105, -5.07220983505249023438e+00) (106, 7.08706602454185485840e-02) (107, 5.20814657211303710938e+00) (108, -5.06228780746459960938e+00) (109, -5.01338624954223632812e+00) (110, 1.85619592666625976562e-02) (111, -4.96992397308349609375e+00) (112, -4.93674993515014648438e+00) (113, 1.95883131027221679688e+00) (114, -5.02350521087646484375e+00) (115, 3.00452560186386108398e-01) (116, -1.74026563763618469238e-02) (117, -3.82164835929870605469e-01) (118, 1.89216092228889465332e-01) (119, -8.11412572860717773438e-01) (120, 5.61020314693450927734e-01) (121, -1.91229909658432006836e-01) (122, -2.63153016567230224609e-01) (123, -4.94038724899291992188e+00) (124, 4.19437140226364135742e-01) (125, 2.31379956007003784180e-01) 