FANN_FLO_2.1
num_layers=3
learning_rate=0.700000
connection_rate=1.000000
network_type=0
learning_momentum=0.400000
training_algorithm=0
train_error_function=1
train_stop_function=0
cascade_output_change_fraction=0.010000
quickprop_decay=-0.000100
quickprop_mu=1.750000
rprop_increase_factor=1.200000
rprop_decrease_factor=0.500000
rprop_delta_min=0.000000
rprop_delta_max=50.000000
rprop_delta_zero=0.100000
cascade_output_stagnation_epochs=12
cascade_candidate_change_fraction=0.010000
cascade_candidate_stagnation_epochs=12
cascade_max_out_epochs=150
cascade_min_out_epochs=50
cascade_max_cand_epochs=150
cascade_min_cand_epochs=50
cascade_num_candidate_groups=2
bit_fail_limit=3.49999994039535522461e-01
cascade_candidate_limit=1.00000000000000000000e+03
cascade_weight_multiplier=4.00000005960464477539e-01
cascade_activation_functions_count=10
cascade_activation_functions=3 5 7 8 10 11 14 15 16 17 
cascade_activation_steepnesses_count=4
cascade_activation_steepnesses=2.50000000000000000000e-01 5.00000000000000000000e-01 7.50000000000000000000e-01 1.00000000000000000000e+00 
layer_sizes=49 97 4 
scale_included=0
neurons (num_inputs, activation_function, activation_steepness)=(0, 0, 0.00000000000000000000e+00) (0, 0, 0.00000000000000000000e+00) (0, 0, 0.00000000000000000000e+00) (0, 0, 0.00000000000000000000e+00) (0, 0, 0.00000000000000000000e+00) (0, 0, 0.00000000000000000000e+00) (0, 0, 0.00000000000000000000e+00) (0, 0, 0.00000000000000000000e+00) (0, 0, 0.00000000000000000000e+00) (0, 0, 0.00000000000000000000e+00) (0, 0, 0.00000000000000000000e+00) (0, 0, 0.00000000000000000000e+00) (0, 0, 0.00000000000000000000e+00) (0, 0, 0.00000000000000000000e+00) (0, 0, 0.00000000000000000000e+00) (0, 0, 0.00000000000000000000e+00) (0, 0, 0.00000000000000000000e+00) (0, 0, 0.00000000000000000000e+00) (0, 0, 0.00000000000000000000e+00) (0, 0, 0.00000000000000000000e+00) (0, 0, 0.00000000000000000000e+00) (0, 0, 0.00000000000000000000e+00) (0, 0, 0.00000000000000000000e+00) (0, 0, 0.00000000000000000000e+00) (0, 0, 0.00000000000000000000e+00) (0, 0, 0.00000000000000000000e+00) (0, 0, 0.00000000000000000000e+00) (0, 0, 0.00000000000000000000e+00) (0, 0, 0.00000000000000000000e+00) (0, 0, 0.00000000000000000000e+00) (0, 0, 0.00000000000000000000e+00) (0, 0, 0.00000000000000000000e+00) (0, 0, 0.00000000000000000000e+00) (0, 0, 0.00000000000000000000e+00) (0, 0, 0.00000000000000000000e+00) (0, 0, 0.00000000000000000000e+00) (0, 0, 0.00000000000000000000e+00) (0, 0, 0.00000000000000000000e+00) (0, 0, 0.00000000000000000000e+00) (0, 0, 0.00000000000000000000e+00) (0, 0, 0.00000000000000000000e+00) (0, 0, 0.00000000000000000000e+00) (0, 0, 0.00000000000000000000e+00) (0, 0, 0.00000000000000000000e+00) (0, 0, 0.00000000000000000000e+00) (0, 0, 0.00000000000000000000e+00) (0, 0, 0.00000000000000000000e+00) (0, 0, 0.00000000000000000000e+00) (0, 0, 0.00000000000000000000e+00) (49, 4, 5.00000000000000000000e-01) (49, 4, 5.00000000000000000000e-01) (49, 4, 5.00000000000000000000e-01) (49, 4, 5.00000000000000000000e-01) (49, 4, 5.00000000000000000000e-01) (49, 4, 5.00000000000000000000e-01) (49, 4, 5.00000000000000000000e-01) (49, 4, 5.00000000000000000000e-01) (49, 4, 5.00000000000000000000e-01) (49, 4, 5.00000000000000000000e-01) (49, 4, 5.00000000000000000000e-01) (49, 4, 5.00000000000000000000e-01) (49, 4, 5.00000000000000000000e-01) (49, 4, 5.00000000000000000000e-01) (49, 4, 5.00000000000000000000e-01) (49, 4, 5.00000000000000000000e-01) (49, 4, 5.00000000000000000000e-01) (49, 4, 5.00000000000000000000e-01) (49, 4, 5.00000000000000000000e-01) (49, 4, 5.00000000000000000000e-01) (49, 4, 5.00000000000000000000e-01) (49, 4, 5.00000000000000000000e-01) (49, 4, 5.00000000000000000000e-01) (49, 4, 5.00000000000000000000e-01) (49, 4, 5.00000000000000000000e-01) (49, 4, 5.00000000000000000000e-01) (49, 4, 5.00000000000000000000e-01) (49, 4, 5.00000000000000000000e-01) (49, 4, 5.00000000000000000000e-01) (49, 4, 5.00000000000000000000e-01) (49, 4, 5.00000000000000000000e-01) (49, 4, 5.00000000000000000000e-01) (49, 4, 5.00000000000000000000e-01) (49, 4, 5.00000000000000000000e-01) (49, 4, 5.00000000000000000000e-01) (49, 4, 5.00000000000000000000e-01) (49, 4, 5.00000000000000000000e-01) (49, 4, 5.00000000000000000000e-01) (49, 4, 5.00000000000000000000e-01) (49, 4, 5.00000000000000000000e-01) (49, 4, 5.00000000000000000000e-01) (49, 4, 5.00000000000000000000e-01) (49, 4, 5.00000000000000000000e-01) (49, 4, 5.00000000000000000000e-01) (49, 4, 5.00000000000000000000e-01) (49, 4, 5.00000000000000000000e-01) (49, 4, 5.00000000000000000000e-01) (49, 4, 5.00000000000000000000e-01) (49, 4, 5.00000000000000000000e-01) (49, 4, 5.00000000000000000000e-01) (49, 4, 5.00000000000000000000e-01) (49, 4, 5.00000000000000000000e-01) (49, 4, 5.00000000000000000000e-01) (49, 4, 5.00000000000000000000e-01) (49, 4, 5.00000000000000000000e-01) (49, 4, 5.00000000000000000000e-01) (49, 4, 5.00000000000000000000e-01) (49, 4, 5.00000000000000000000e-01) (49, 4, 5.00000000000000000000e-01) (49, 4, 5.00000000000000000000e-01) (49, 4, 5.00000000000000000000e-01) (49, 4, 5.00000000000000000000e-01) (49, 4, 5.00000000000000000000e-01) (49, 4, 5.00000000000000000000e-01) (49, 4, 5.00000000000000000000e-01) (49, 4, 5.00000000000000000000e-01) (49, 4, 5.00000000000000000000e-01) (49, 4, 5.00000000000000000000e-01) (49, 4, 5.00000000000000000000e-01) (49, 4, 5.00000000000000000000e-01) (49, 4, 5.00000000000000000000e-01) (49, 4, 5.00000000000000000000e-01) (49, 4, 5.00000000000000000000e-01) (49, 4, 5.00000000000000000000e-01) (49, 4, 5.00000000000000000000e-01) (49, 4, 5.00000000000000000000e-01) (49, 4, 5.00000000000000000000e-01) (49, 4, 5.00000000000000000000e-01) (49, 4, 5.00000000000000000000e-01) (49, 4, 5.00000000000000000000e-01) (49, 4, 5.00000000000000000000e-01) (49, 4, 5.00000000000000000000e-01) (49, 4, 5.00000000000000000000e-01) (49, 4, 5.00000000000000000000e-01) (49, 4, 5.00000000000000000000e-01) (49, 4, 5.00000000000000000000e-01) (49, 4, 5.00000000000000000000e-01) (49, 4, 5.00000000000000000000e-01) (49, 4, 5.00000000000000000000e-01) (49, 4, 5.00000000000000000000e-01) (49, 4, 5.00000000000000000000e-01) (49, 4, 5.00000000000000000000e-01) (49, 4, 5.00000000000000000000e-01) (49, 4, 5.00000000000000000000e-01) (49, 4, 5.00000000000000000000e-01) (49, 4, 5.00000000000000000000e-01) (0, 0, 0.00000000000000000000e+00) (97, 4, 5.00000000000000000000e-01) (97, 4, 5.00000000000000000000e-01) (97, 4, 5.00000000000000000000e-01) (0, 0, 0.00000000000000000000e+00) 
connections (connected_to_neuron, weight)=(0, 1.76394287500000000000e+06) (1, 3.56491575000000000000e+06) (2, 7.26315700000000000000e+06) (3, 8.22446150000000000000e+06) (4, 9.41303900000000000000e+06) (5, 7.97461900000000000000e+06) (6, 4.74064250000000000000e+06) (7, 3.76633275000000000000e+06) (8, 1.18214087500000000000e+06) (9, 2.90818275000000000000e+06) (10, 5.38505000000000000000e+06) (11, 9.66921900000000000000e+06) (12, 1.15579530000000000000e+07) (13, 8.86587700000000000000e+06) (14, 4.41649850000000000000e+06) (15, 5.87325200000000000000e+06) (16, 1.43698837500000000000e+06) (17, 2.86318950000000000000e+06) (18, 4.62594550000000000000e+06) (19, 1.27204290000000000000e+07) (20, 1.16621280000000000000e+07) (21, 1.02440500000000000000e+07) (22, 3.17894450000000000000e+06) (23, 4.44828750000000000000e+06) (24, 1.63861737500000000000e+06) (25, 3.90290625000000000000e+06) (26, 4.01257150000000000000e+06) (27, 1.34022430000000000000e+07) (28, 1.30941850000000000000e+07) (29, 9.69909500000000000000e+06) (30, 4.08147900000000000000e+06) (31, 3.75316450000000000000e+06) (32, 1.57856575000000000000e+06) (33, 3.96841625000000000000e+06) (34, 4.24682350000000000000e+06) (35, 1.47870740000000000000e+07) (36, 1.37300280000000000000e+07) (37, 8.65481000000000000000e+06) (38, 3.84800925000000000000e+06) (39, 3.08893550000000000000e+06) (40, 1.28344875000000000000e+06) (41, 3.02441975000000000000e+06) (42, 6.72355800000000000000e+06) (43, 1.34907650000000000000e+07) (44, 1.23634990000000000000e+07) (45, 9.64703300000000000000e+06) (46, 3.39104750000000000000e+06) (47, 2.47166625000000000000e+06) (48, 6.64649040000000000000e+07) (0, -2.27346000000000000000e+06) (1, -5.58203000000000000000e+06) (2, -9.14317300000000000000e+06) (3, -1.48420200000000000000e+07) (4, -9.67941900000000000000e+06) (5, -6.20639550000000000000e+06) (6, -1.17568190000000000000e+07) (7, -6.81894050000000000000e+06) (8, -3.39230400000000000000e+06) (9, -6.33206150000000000000e+06) (10, -6.93323750000000000000e+06) (11, -1.32668660000000000000e+07) (12, -1.37365870000000000000e+07) (13, -1.31683640000000000000e+07) (14, -8.02585300000000000000e+06) (15, -9.84111000000000000000e+06) (16, -2.77769900000000000000e+06) (17, -6.89102400000000000000e+06) (18, -8.99712800000000000000e+06) (19, -1.55480010000000000000e+07) (20, -1.34535640000000000000e+07) (21, -1.70473540000000000000e+07) (22, -8.84097100000000000000e+06) (23, -8.35796600000000000000e+06) (24, -3.08179575000000000000e+06) (25, -6.20482100000000000000e+06) (26, -8.91984900000000000000e+06) (27, -1.44845290000000000000e+07) (28, -1.80628440000000000000e+07) (29, -1.96970540000000000000e+07) (30, -7.06329900000000000000e+06) (31, -5.44659250000000000000e+06) (32, -2.88043750000000000000e+06) (33, -4.80267800000000000000e+06) (34, -8.85171100000000000000e+06) (35, -1.42784910000000000000e+07) (36, -2.33094260000000000000e+07) (37, -1.35053500000000000000e+07) (38, -9.26204300000000000000e+06) (39, -4.41139400000000000000e+06) (40, -1.15578975000000000000e+06) (41, -4.07365675000000000000e+06) (42, -1.04000860000000000000e+07) (43, -1.39119210000000000000e+07) (44, -2.23107740000000000000e+07) (45, -1.13419270000000000000e+07) (46, -6.52148850000000000000e+06) (47, -6.22341750000000000000e+06) (48, -9.38612880000000000000e+07) (0, 3.24839900000000000000e+06) (1, 6.05393050000000000000e+06) (2, 1.19992500000000000000e+07) (3, 1.42944750000000000000e+07) (4, 1.66719340000000000000e+07) (5, 1.28271010000000000000e+07) (6, 8.32641000000000000000e+06) (7, 5.83016550000000000000e+06) (8, 2.72774250000000000000e+06) (9, 5.69403250000000000000e+06) (10, 8.94513200000000000000e+06) (11, 1.59766610000000000000e+07) (12, 2.06230240000000000000e+07) (13, 1.49127930000000000000e+07) (14, 6.98737000000000000000e+06) (15, 9.07665200000000000000e+06) (16, 2.74618500000000000000e+06) (17, 5.53133500000000000000e+06) (18, 8.60073000000000000000e+06) (19, 2.13052940000000000000e+07) (20, 2.05298220000000000000e+07) (21, 1.72932140000000000000e+07) (22, 5.13621450000000000000e+06) (23, 7.04855500000000000000e+06) (24, 3.23859050000000000000e+06) (25, 7.26423450000000000000e+06) (26, 7.23597300000000000000e+06) (27, 2.17480060000000000000e+07) (28, 2.28255380000000000000e+07) (29, 1.67709720000000000000e+07) (30, 6.53873000000000000000e+06) (31, 6.04114300000000000000e+06) (32, 2.68876650000000000000e+06) (33, 7.08765600000000000000e+06) (34, 7.78821200000000000000e+06) (35, 2.40197400000000000000e+07) (36, 2.37754780000000000000e+07) (37, 1.45961960000000000000e+07) (38, 6.06930000000000000000e+06) (39, 5.52387400000000000000e+06) (40, 2.10009400000000000000e+06) (41, 5.03378700000000000000e+06) (42, 1.15645610000000000000e+07) (43, 2.21449960000000000000e+07) (44, 2.15037200000000000000e+07) (45, 1.58181230000000000000e+07) (46, 5.05075750000000000000e+06) (47, 3.93973300000000000000e+06) (48, 1.12508800000000000000e+08) (0, 2.57002450000000000000e+06) (1, 4.83597950000000000000e+06) (2, 9.41656100000000000000e+06) (3, 1.14646830000000000000e+07) (4, 1.33058380000000000000e+07) (5, 1.02362150000000000000e+07) (6, 6.40441300000000000000e+06) (7, 4.89044950000000000000e+06) (8, 1.95521625000000000000e+06) (9, 4.50310950000000000000e+06) (10, 7.22434250000000000000e+06) (11, 1.29137210000000000000e+07) (12, 1.63100820000000000000e+07) (13, 1.16787790000000000000e+07) (14, 5.58448200000000000000e+06) (15, 7.28182050000000000000e+06) (16, 2.08316562500000000000e+06) (17, 4.29302800000000000000e+06) (18, 6.89048150000000000000e+06) (19, 1.72571980000000000000e+07) (20, 1.62909540000000000000e+07) (21, 1.36804450000000000000e+07) (22, 4.12549750000000000000e+06) (23, 5.50328900000000000000e+06) (24, 2.60597150000000000000e+06) (25, 5.65134600000000000000e+06) (26, 5.79087100000000000000e+06) (27, 1.76259560000000000000e+07) (28, 1.82197380000000000000e+07) (29, 1.31912710000000000000e+07) (30, 5.32312050000000000000e+06) (31, 4.78806350000000000000e+06) (32, 2.08984150000000000000e+06) (33, 5.35485700000000000000e+06) (34, 6.36335150000000000000e+06) (35, 1.90883720000000000000e+07) (36, 1.87402420000000000000e+07) (37, 1.18637770000000000000e+07) (38, 5.03763700000000000000e+06) (39, 4.40819300000000000000e+06) (40, 1.66899425000000000000e+06) (41, 3.65210125000000000000e+06) (42, 9.40658900000000000000e+06) (43, 1.78198480000000000000e+07) (44, 1.67253970000000000000e+07) (45, 1.26434090000000000000e+07) (46, 4.33655200000000000000e+06) (47, 3.28411250000000000000e+06) (48, 8.96278400000000000000e+07) (0, -3.38699500000000000000e+06) (1, -6.47675900000000000000e+06) (2, -1.27302690000000000000e+07) (3, -1.51191770000000000000e+07) (4, -1.75734740000000000000e+07) (5, -1.35171740000000000000e+07) (6, -8.61161100000000000000e+06) (7, -6.44190350000000000000e+06) (8, -2.67627850000000000000e+06) (9, -6.05279900000000000000e+06) (10, -9.65090700000000000000e+06) (11, -1.69722760000000000000e+07) (12, -2.16361640000000000000e+07) (13, -1.55686200000000000000e+07) (14, -7.37772750000000000000e+06) (15, -9.82856300000000000000e+06) (16, -2.91686400000000000000e+06) (17, -5.82898800000000000000e+06) (18, -9.07144000000000000000e+06) (19, -2.26885180000000000000e+07) (20, -2.14530080000000000000e+07) (21, -1.83432780000000000000e+07) (22, -5.46419350000000000000e+06) (23, -7.46752650000000000000e+06) (24, -3.52730475000000000000e+06) (25, -7.77220650000000000000e+06) (26, -7.55411100000000000000e+06) (27, -2.31647420000000000000e+07) (28, -2.39536180000000000000e+07) (29, -1.77098580000000000000e+07) (30, -7.06386400000000000000e+06) (31, -6.39849050000000000000e+06) (32, -2.94922950000000000000e+06) (33, -7.56949750000000000000e+06) (34, -8.26361950000000000000e+06) (35, -2.52597280000000000000e+07) (36, -2.47629080000000000000e+07) (37, -1.56270550000000000000e+07) (38, -6.68124550000000000000e+06) (39, -5.88267600000000000000e+06) (40, -2.32629000000000000000e+06) (41, -5.38594850000000000000e+06) (42, -1.23559190000000000000e+07) (43, -2.33851680000000000000e+07) (44, -2.22374100000000000000e+07) (45, -1.67883480000000000000e+07) (46, -5.58656700000000000000e+06) (47, -4.50874100000000000000e+06) (48, -1.19196520000000000000e+08) (0, 2.92067975000000000000e+06) (1, 5.44159100000000000000e+06) (2, 1.11470730000000000000e+07) (3, 1.33673590000000000000e+07) (4, 1.56660100000000000000e+07) (5, 1.13932510000000000000e+07) (6, 6.80386800000000000000e+06) (7, 5.47567550000000000000e+06) (8, 2.18030950000000000000e+06) (9, 5.01134950000000000000e+06) (10, 8.40460100000000000000e+06) (11, 1.47638070000000000000e+07) (12, 1.92763600000000000000e+07) (13, 1.28405120000000000000e+07) (14, 6.40135700000000000000e+06) (15, 8.58318700000000000000e+06) (16, 2.43632750000000000000e+06) (17, 4.81997100000000000000e+06) (18, 7.81083500000000000000e+06) (19, 1.97742240000000000000e+07) (20, 1.88012800000000000000e+07) (21, 1.52904950000000000000e+07) (22, 4.81701800000000000000e+06) (23, 6.45609750000000000000e+06) (24, 2.90806850000000000000e+06) (25, 6.44198800000000000000e+06) (26, 6.40236350000000000000e+06) (27, 2.00725900000000000000e+07) (28, 2.07994060000000000000e+07) (29, 1.52245030000000000000e+07) (30, 6.07067600000000000000e+06) (31, 5.42057450000000000000e+06) (32, 2.48332525000000000000e+06) (33, 6.41904600000000000000e+06) (34, 6.87691200000000000000e+06) (35, 2.16192880000000000000e+07) (36, 2.15674280000000000000e+07) (37, 1.36125000000000000000e+07) (38, 5.79312550000000000000e+06) (39, 4.93169050000000000000e+06) (40, 1.97500850000000000000e+06) (41, 4.67569300000000000000e+06) (42, 1.01737640000000000000e+07) (43, 2.01287580000000000000e+07) (44, 1.93994580000000000000e+07) (45, 1.47672500000000000000e+07) (46, 4.80614000000000000000e+06) (47, 3.83680250000000000000e+06) (48, 1.02577424000000000000e+08) (0, 9.47873437500000000000e+05) (1, 2.62809750000000000000e+06) (2, 1.54467587500000000000e+06) (3, 3.42881000000000000000e+06) (4, 2.48667650000000000000e+06) (5, 8.38349187500000000000e+05) (6, 2.03108475000000000000e+06) (7, 1.14051962500000000000e+06) (8, 1.22709487500000000000e+06) (9, 2.56665325000000000000e+06) (10, 2.16992700000000000000e+06) (11, 3.41468575000000000000e+06) (12, 3.10303500000000000000e+06) (13, 2.70423350000000000000e+06) (14, 1.18012587500000000000e+06) (15, 1.63499375000000000000e+06) (16, 9.58884000000000000000e+05) (17, 1.90162862500000000000e+06) (18, 3.18953825000000000000e+06) (19, 4.07392100000000000000e+06) (20, 3.12640175000000000000e+06) (21, 3.05746325000000000000e+06) (22, 5.71438500000000000000e+05) (23, 8.87344437500000000000e+05) (24, 1.04924375000000000000e+06) (25, 2.80881850000000000000e+06) (26, 2.50496850000000000000e+06) (27, 4.07784650000000000000e+06) (28, 3.82470775000000000000e+06) (29, 2.51320675000000000000e+06) (30, 7.49147875000000000000e+05) (31, 6.38535875000000000000e+05) (32, 1.14123775000000000000e+06) (33, 2.28913275000000000000e+06) (34, 3.43179225000000000000e+06) (35, 4.43299700000000000000e+06) (36, 3.68305675000000000000e+06) (37, 2.42352600000000000000e+06) (38, 1.00083868750000000000e+06) (39, 7.64312375000000000000e+05) (40, 8.76473875000000000000e+05) (41, 1.81108925000000000000e+06) (42, 4.37412000000000000000e+06) (43, 4.05138900000000000000e+06) (44, 3.52457825000000000000e+06) (45, 1.74386650000000000000e+06) (46, 1.07227662500000000000e+06) (47, 4.48956750000000000000e+05) (48, 2.23656880000000000000e+07) (0, -1.26539500000000000000e+06) (1, -4.15972125000000000000e+06) (2, -7.39345050000000000000e+06) (3, -1.05364760000000000000e+07) (4, -1.20560850000000000000e+07) (5, -5.40396850000000000000e+06) (6, -9.08148800000000000000e+06) (7, -5.61645250000000000000e+06) (8, -4.34083850000000000000e+06) (9, -5.28436600000000000000e+06) (10, -4.81165150000000000000e+06) (11, -1.32952200000000000000e+07) (12, -1.41335310000000000000e+07) (13, -8.88176300000000000000e+06) (14, -7.91035850000000000000e+06) (15, -6.28916600000000000000e+06) (16, -2.91995150000000000000e+06) (17, -6.88796000000000000000e+06) (18, -8.24990450000000000000e+06) (19, -1.56730120000000000000e+07) (20, -1.43334620000000000000e+07) (21, -1.26707320000000000000e+07) (22, -7.27824950000000000000e+06) (23, -4.65582100000000000000e+06) (24, -2.74158475000000000000e+06) (25, -4.95773250000000000000e+06) (26, -7.85006000000000000000e+06) (27, -1.54173420000000000000e+07) (28, -1.77629400000000000000e+07) (29, -1.48585660000000000000e+07) (30, -5.95306350000000000000e+06) (31, -3.32208925000000000000e+06) (32, -2.72305525000000000000e+06) (33, -4.18370975000000000000e+06) (34, -8.54303700000000000000e+06) (35, -1.34414630000000000000e+07) (36, -1.95278500000000000000e+07) (37, -1.06801400000000000000e+07) (38, -5.91488250000000000000e+06) (39, -3.83244675000000000000e+06) (40, -1.11300712500000000000e+06) (41, -4.05163675000000000000e+06) (42, -9.85753500000000000000e+06) (43, -1.18527790000000000000e+07) (44, -1.70664180000000000000e+07) (45, -8.80556700000000000000e+06) (46, -3.13172800000000000000e+06) (47, -4.45689450000000000000e+06) (48, -7.80238800000000000000e+07) (0, 2.17567000000000000000e+06) (1, 3.97702450000000000000e+06) (2, 7.56858500000000000000e+06) (3, 9.26643100000000000000e+06) (4, 1.04926520000000000000e+07) (5, 8.03545850000000000000e+06) (6, 5.61461200000000000000e+06) (7, 3.86662725000000000000e+06) (8, 1.78126875000000000000e+06) (9, 3.90010575000000000000e+06) (10, 5.93435050000000000000e+06) (11, 1.02477290000000000000e+07) (12, 1.30202690000000000000e+07) (13, 9.65298300000000000000e+06) (14, 4.49450400000000000000e+06) (15, 5.96667300000000000000e+06) (16, 1.72960587500000000000e+06) (17, 3.79482100000000000000e+06) (18, 5.61428800000000000000e+06) (19, 1.36824790000000000000e+07) (20, 1.30451200000000000000e+07) (21, 1.11120750000000000000e+07) (22, 3.41723525000000000000e+06) (23, 4.53960450000000000000e+06) (24, 2.11397700000000000000e+06) (25, 4.76051650000000000000e+06) (26, 4.78504800000000000000e+06) (27, 1.41153890000000000000e+07) (28, 1.46164480000000000000e+07) (29, 1.06733830000000000000e+07) (30, 4.25192850000000000000e+06) (31, 3.93775300000000000000e+06) (32, 1.77420600000000000000e+06) (33, 4.54940350000000000000e+06) (34, 5.20868600000000000000e+06) (35, 1.53016990000000000000e+07) (36, 1.51373170000000000000e+07) (37, 9.39630700000000000000e+06) (38, 4.11794600000000000000e+06) (39, 3.54723725000000000000e+06) (40, 1.33565187500000000000e+06) (41, 3.15974175000000000000e+06) (42, 7.48229100000000000000e+06) (43, 1.43758510000000000000e+07) (44, 1.37069870000000000000e+07) (45, 9.92413300000000000000e+06) (46, 3.53569125000000000000e+06) (47, 2.74236450000000000000e+06) (48, 7.18903040000000000000e+07) (0, 2.51073150000000000000e+06) (1, 4.89474600000000000000e+06) (2, 9.88926200000000000000e+06) (3, 1.15526680000000000000e+07) (4, 1.28916190000000000000e+07) (5, 1.04846450000000000000e+07) (6, 6.62029050000000000000e+06) (7, 4.94074900000000000000e+06) (8, 1.82082962500000000000e+06) (9, 4.41646250000000000000e+06) (10, 7.34912200000000000000e+06) (11, 1.28261060000000000000e+07) (12, 1.62201340000000000000e+07) (13, 1.19992490000000000000e+07) (14, 5.72706550000000000000e+06) (15, 7.52701100000000000000e+06) (16, 2.01684687500000000000e+06) (17, 4.16580975000000000000e+06) (18, 6.81662300000000000000e+06) (19, 1.71350960000000000000e+07) (20, 1.60652260000000000000e+07) (21, 1.42490980000000000000e+07) (22, 4.12840300000000000000e+06) (23, 5.78771450000000000000e+06) (24, 2.17992050000000000000e+06) (25, 5.61239450000000000000e+06) (26, 5.52800100000000000000e+06) (27, 1.74772800000000000000e+07) (28, 1.81697000000000000000e+07) (29, 1.37351310000000000000e+07) (30, 5.38400800000000000000e+06) (31, 4.97113800000000000000e+06) (32, 2.24088450000000000000e+06) (33, 5.32384250000000000000e+06) (34, 5.89936800000000000000e+06) (35, 1.91246880000000000000e+07) (36, 1.88360880000000000000e+07) (37, 1.20771710000000000000e+07) (38, 5.13039300000000000000e+06) (39, 4.45564950000000000000e+06) (40, 1.74704637500000000000e+06) (41, 4.11573750000000000000e+06) (42, 8.53009500000000000000e+06) (43, 1.76637080000000000000e+07) (44, 1.70332560000000000000e+07) (45, 1.30040650000000000000e+07) (46, 4.40005650000000000000e+06) (47, 3.50207950000000000000e+06) (48, 8.97818320000000000000e+07) (0, 3.55317575000000000000e+06) (1, 9.26435600000000000000e+06) (2, 1.43026170000000000000e+07) (3, 2.35272320000000000000e+07) (4, 1.75199920000000000000e+07) (5, 1.22823890000000000000e+07) (6, 1.62359920000000000000e+07) (7, 1.00994220000000000000e+07) (8, 2.49225125000000000000e+06) (9, 9.15309400000000000000e+06) (10, 1.16011920000000000000e+07) (11, 1.81262000000000000000e+07) (12, 2.49465400000000000000e+07) (13, 2.33946000000000000000e+07) (14, 7.80027550000000000000e+06) (15, 1.68731000000000000000e+07) (16, 2.75778450000000000000e+06) (17, 8.24003750000000000000e+06) (18, 1.20718180000000000000e+07) (19, 2.52227280000000000000e+07) (20, 2.40964600000000000000e+07) (21, 2.40524560000000000000e+07) (22, 1.27178080000000000000e+07) (23, 1.51702510000000000000e+07) (24, 5.47621650000000000000e+06) (25, 7.60675500000000000000e+06) (26, 9.52719600000000000000e+06) (27, 2.43427820000000000000e+07) (28, 3.04528460000000000000e+07) (29, 2.43925300000000000000e+07) (30, 1.01703600000000000000e+07) (31, 9.88854900000000000000e+06) (32, 3.50026300000000000000e+06) (33, 5.95040750000000000000e+06) (34, 6.89601200000000000000e+06) (35, 2.53396660000000000000e+07) (36, 3.11829280000000000000e+07) (37, 2.15606500000000000000e+07) (38, 1.58670960000000000000e+07) (39, 7.71298850000000000000e+06) (40, 2.10172850000000000000e+06) (41, 4.26005050000000000000e+06) (42, 1.12912200000000000000e+07) (43, 2.23212080000000000000e+07) (44, 2.81161220000000000000e+07) (45, 2.03244460000000000000e+07) (46, 1.18554240000000000000e+07) (47, 9.67393900000000000000e+06) (48, 1.44014672000000000000e+08) (0, 1.49699862500000000000e+06) (1, 3.03723300000000000000e+06) (2, 6.26312900000000000000e+06) (3, 7.12160000000000000000e+06) (4, 8.14073450000000000000e+06) (5, 6.85690450000000000000e+06) (6, 4.21275400000000000000e+06) (7, 3.28444700000000000000e+06) (8, 9.75284750000000000000e+05) (9, 2.58424900000000000000e+06) (10, 4.64632650000000000000e+06) (11, 8.35950900000000000000e+06) (12, 9.76898300000000000000e+06) (13, 7.73349500000000000000e+06) (14, 3.92365400000000000000e+06) (15, 4.99291750000000000000e+06) (16, 1.30310462500000000000e+06) (17, 2.55747325000000000000e+06) (18, 4.10319800000000000000e+06) (19, 1.09147070000000000000e+07) (20, 9.92500300000000000000e+06) (21, 9.03483600000000000000e+06) (22, 2.74979875000000000000e+06) (23, 3.86665650000000000000e+06) (24, 1.42973800000000000000e+06) (25, 3.48848900000000000000e+06) (26, 3.48765650000000000000e+06) (27, 1.13786770000000000000e+07) (28, 1.13426980000000000000e+07) (29, 8.48203200000000000000e+06) (30, 3.55921350000000000000e+06) (31, 3.28693750000000000000e+06) (32, 1.55706712500000000000e+06) (33, 3.44757400000000000000e+06) (34, 3.63269500000000000000e+06) (35, 1.25513840000000000000e+07) (36, 1.18262200000000000000e+07) (37, 7.60469850000000000000e+06) (38, 3.36473975000000000000e+06) (39, 2.73630550000000000000e+06) (40, 1.21797400000000000000e+06) (41, 2.58840950000000000000e+06) (42, 5.76157100000000000000e+06) (43, 1.14897690000000000000e+07) (44, 1.06062180000000000000e+07) (45, 8.37136900000000000000e+06) (46, 2.88754800000000000000e+06) (47, 2.23426875000000000000e+06) (48, 5.68166840000000000000e+07) (0, -1.19297087500000000000e+06) (1, -3.83194025000000000000e+06) (2, -6.41650150000000000000e+06) (3, -1.09530580000000000000e+07) (4, -7.14689400000000000000e+06) (5, -4.75341400000000000000e+06) (6, -7.29019250000000000000e+06) (7, -4.31867000000000000000e+06) (8, -2.74454450000000000000e+06) (9, -4.55333850000000000000e+06) (10, -4.40861150000000000000e+06) (11, -1.10756880000000000000e+07) (12, -9.23939700000000000000e+06) (13, -7.46004200000000000000e+06) (14, -6.80690600000000000000e+06) (15, -5.46601550000000000000e+06) (16, -1.95211075000000000000e+06) (17, -6.31890350000000000000e+06) (18, -6.86209300000000000000e+06) (19, -1.26257560000000000000e+07) (20, -9.52052900000000000000e+06) (21, -1.06352710000000000000e+07) (22, -6.32361600000000000000e+06) (23, -4.87644550000000000000e+06) (24, -1.98932000000000000000e+06) (25, -4.85985950000000000000e+06) (26, -6.58345850000000000000e+06) (27, -1.04354890000000000000e+07) (28, -1.28916740000000000000e+07) (29, -1.15475650000000000000e+07) (30, -5.30264750000000000000e+06) (31, -2.83203675000000000000e+06) (32, -1.78358225000000000000e+06) (33, -3.77776225000000000000e+06) (34, -7.66627050000000000000e+06) (35, -9.07794100000000000000e+06) (36, -1.58646160000000000000e+07) (37, -8.31708700000000000000e+06) (38, -5.60736050000000000000e+06) (39, -3.78410375000000000000e+06) (40, -7.45406250000000000000e+05) (41, -3.14668725000000000000e+06) (42, -8.43986200000000000000e+06) (43, -8.07222200000000000000e+06) (44, -1.44487710000000000000e+07) (45, -7.04094300000000000000e+06) (46, -3.26856850000000000000e+06) (47, -4.00280575000000000000e+06) (48, -6.27071960000000000000e+07) (0, 2.17178175000000000000e+06) (1, 4.19737450000000000000e+06) (2, 8.78272800000000000000e+06) (3, 1.06919590000000000000e+07) (4, 1.26884430000000000000e+07) (5, 9.36241100000000000000e+06) (6, 5.58767150000000000000e+06) (7, 4.53066150000000000000e+06) (8, 1.53584950000000000000e+06) (9, 3.95107250000000000000e+06) (10, 6.64566850000000000000e+06) (11, 1.20181470000000000000e+07) (12, 1.55327680000000000000e+07) (13, 1.03826810000000000000e+07) (14, 5.13830000000000000000e+06) (15, 6.87514000000000000000e+06) (16, 1.82051787500000000000e+06) (17, 3.71758450000000000000e+06) (18, 6.10906350000000000000e+06) (19, 1.58725220000000000000e+07) (20, 1.52437310000000000000e+07) (21, 1.23978990000000000000e+07) (22, 3.63437950000000000000e+06) (23, 5.17526000000000000000e+06) (24, 1.85236187500000000000e+06) (25, 5.17513150000000000000e+06) (26, 4.84171300000000000000e+06) (27, 1.65286050000000000000e+07) (28, 1.64198600000000000000e+07) (29, 1.21533670000000000000e+07) (30, 4.92320100000000000000e+06) (31, 4.40463700000000000000e+06) (32, 2.25910825000000000000e+06) (33, 4.84478700000000000000e+06) (34, 5.25966200000000000000e+06) (35, 1.77282740000000000000e+07) (36, 1.70545440000000000000e+07) (37, 1.07267860000000000000e+07) (38, 4.67061600000000000000e+06) (39, 4.03128825000000000000e+06) (40, 1.80299150000000000000e+06) (41, 3.66925625000000000000e+06) (42, 8.03595850000000000000e+06) (43, 1.62243070000000000000e+07) (44, 1.52747060000000000000e+07) (45, 1.17550310000000000000e+07) (46, 3.71907575000000000000e+06) (47, 3.15053050000000000000e+06) (48, 8.22356720000000000000e+07) (0, 2.80279025000000000000e+06) (1, 5.19532150000000000000e+06) (2, 1.03081680000000000000e+07) (3, 1.22495680000000000000e+07) (4, 1.43317590000000000000e+07) (5, 1.10323890000000000000e+07) (6, 7.09161300000000000000e+06) (7, 5.26879050000000000000e+06) (8, 2.21392325000000000000e+06) (9, 5.07335050000000000000e+06) (10, 7.93937700000000000000e+06) (11, 1.38824430000000000000e+07) (12, 1.77042800000000000000e+07) (13, 1.26252460000000000000e+07) (14, 5.95304650000000000000e+06) (15, 8.01177050000000000000e+06) (16, 2.40245450000000000000e+06) (17, 4.73912950000000000000e+06) (18, 7.51257500000000000000e+06) (19, 1.86742080000000000000e+07) (20, 1.76421600000000000000e+07) (21, 1.51246160000000000000e+07) (22, 4.27589200000000000000e+06) (23, 5.85498600000000000000e+06) (24, 2.90688000000000000000e+06) (25, 6.38391050000000000000e+06) (26, 6.17915800000000000000e+06) (27, 1.89443560000000000000e+07) (28, 1.97048200000000000000e+07) (29, 1.46066180000000000000e+07) (30, 5.78308000000000000000e+06) (31, 5.13771050000000000000e+06) (32, 2.38528625000000000000e+06) (33, 6.18413350000000000000e+06) (34, 6.76020050000000000000e+06) (35, 2.06947380000000000000e+07) (36, 2.02323260000000000000e+07) (37, 1.28876330000000000000e+07) (38, 5.46867100000000000000e+06) (39, 4.93206450000000000000e+06) (40, 1.90197437500000000000e+06) (41, 4.38425800000000000000e+06) (42, 1.00604000000000000000e+07) (43, 1.92203880000000000000e+07) (44, 1.82033440000000000000e+07) (45, 1.37398760000000000000e+07) (46, 4.55664800000000000000e+06) (47, 3.71211100000000000000e+06) (48, 9.74087280000000000000e+07) (0, 7.34306562500000000000e+05) (1, 2.30838900000000000000e+06) (2, 1.05690462500000000000e+06) (3, 2.46560600000000000000e+06) (4, 1.52770637500000000000e+06) (5, 6.83099687500000000000e+05) (6, 1.20521500000000000000e+06) (7, 6.99580125000000000000e+05) (8, 1.13646200000000000000e+06) (9, 2.21983200000000000000e+06) (10, 1.53410875000000000000e+06) (11, 2.52367975000000000000e+06) (12, 1.96544712500000000000e+06) (13, 1.97135312500000000000e+06) (14, 7.56896500000000000000e+05) (15, 1.22212137500000000000e+06) (16, 6.64395687500000000000e+05) (17, 1.53773312500000000000e+06) (18, 2.45809350000000000000e+06) (19, 2.94822825000000000000e+06) (20, 2.02861912500000000000e+06) (21, 2.03911762500000000000e+06) (22, 1.63514853515625000000e+04) (23, 5.16873437500000000000e+05) (24, 6.47921750000000000000e+05) (25, 2.11940650000000000000e+06) (26, 2.11470300000000000000e+06) (27, 3.14240000000000000000e+06) (28, 2.46226125000000000000e+06) (29, 1.42776287500000000000e+06) (30, 4.58345812500000000000e+05) (31, 4.14680843750000000000e+05) (32, 5.40797062500000000000e+05) (33, 1.88192150000000000000e+06) (34, 2.97568250000000000000e+06) (35, 3.41747525000000000000e+06) (36, 1.87562087500000000000e+06) (37, 1.70869150000000000000e+06) (38, 7.83653000000000000000e+05) (39, 4.44173875000000000000e+05) (40, 3.94468000000000000000e+05) (41, 1.55543850000000000000e+06) (42, 3.80861800000000000000e+06) (43, 3.02839475000000000000e+06) (44, 1.61564662500000000000e+06) (45, 1.33079637500000000000e+06) (46, 8.79896062500000000000e+05) (47, 4.47186593750000000000e+05) (48, 1.57566510000000000000e+07) (0, 1.98678737500000000000e+06) (1, 3.70049300000000000000e+06) (2, 7.18342200000000000000e+06) (3, 8.81452100000000000000e+06) (4, 1.00759800000000000000e+07) (5, 8.26975500000000000000e+06) (6, 4.68034250000000000000e+06) (7, 3.45259550000000000000e+06) (8, 1.60193000000000000000e+06) (9, 3.40232450000000000000e+06) (10, 5.45051700000000000000e+06) (11, 9.92287100000000000000e+06) (12, 1.26260170000000000000e+07) (13, 8.99147300000000000000e+06) (14, 4.26718000000000000000e+06) (15, 5.48809200000000000000e+06) (16, 1.64471650000000000000e+06) (17, 3.18044675000000000000e+06) (18, 5.12065500000000000000e+06) (19, 1.32908250000000000000e+07) (20, 1.23756320000000000000e+07) (21, 1.06786730000000000000e+07) (22, 2.90023925000000000000e+06) (23, 4.35768250000000000000e+06) (24, 2.10563050000000000000e+06) (25, 4.37195000000000000000e+06) (26, 4.37027600000000000000e+06) (27, 1.42889500000000000000e+07) (28, 1.34569270000000000000e+07) (29, 9.87499900000000000000e+06) (30, 4.25112050000000000000e+06) (31, 3.82757125000000000000e+06) (32, 1.33457150000000000000e+06) (33, 4.65086050000000000000e+06) (34, 5.33079950000000000000e+06) (35, 1.56286150000000000000e+07) (36, 1.35103410000000000000e+07) (37, 8.58911100000000000000e+06) (38, 4.01376850000000000000e+06) (39, 3.40205350000000000000e+06) (40, 8.08454625000000000000e+05) (41, 3.45193650000000000000e+06) (42, 8.35047550000000000000e+06) (43, 1.44708620000000000000e+07) (44, 1.20535650000000000000e+07) (45, 9.49227300000000000000e+06) (46, 2.87433375000000000000e+06) (47, 2.77445350000000000000e+06) (48, 6.93756560000000000000e+07) (0, -1.98481337500000000000e+06) (1, -4.90360050000000000000e+06) (2, -8.03696850000000000000e+06) (3, -1.30731160000000000000e+07) (4, -8.49920300000000000000e+06) (5, -5.45383850000000000000e+06) (6, -1.03638130000000000000e+07) (7, -5.99026700000000000000e+06) (8, -2.97718200000000000000e+06) (9, -5.54598650000000000000e+06) (10, -6.08383300000000000000e+06) (11, -1.16643230000000000000e+07) (12, -1.20869670000000000000e+07) (13, -1.15922720000000000000e+07) (14, -7.06741150000000000000e+06) (15, -8.65190400000000000000e+06) (16, -2.43870175000000000000e+06) (17, -6.03977250000000000000e+06) (18, -7.87786500000000000000e+06) (19, -1.36863560000000000000e+07) (20, -1.18303830000000000000e+07) (21, -1.50204110000000000000e+07) (22, -7.77785300000000000000e+06) (23, -7.33584600000000000000e+06) (24, -2.71476800000000000000e+06) (25, -5.43682550000000000000e+06) (26, -7.81329700000000000000e+06) (27, -1.27485930000000000000e+07) (28, -1.58972220000000000000e+07) (29, -1.73447220000000000000e+07) (30, -6.21880250000000000000e+06) (31, -4.77438950000000000000e+06) (32, -2.54026425000000000000e+06) (33, -4.19711800000000000000e+06) (34, -7.76823400000000000000e+06) (35, -1.25500410000000000000e+07) (36, -2.05289780000000000000e+07) (37, -1.18980780000000000000e+07) (38, -8.12619400000000000000e+06) (39, -3.86933850000000000000e+06) (40, -1.01506312500000000000e+06) (41, -3.55817575000000000000e+06) (42, -9.13880600000000000000e+06) (43, -1.22411330000000000000e+07) (44, -1.96757620000000000000e+07) (45, -9.98347500000000000000e+06) (46, -5.71962100000000000000e+06) (47, -5.47605950000000000000e+06) (48, -8.25131760000000000000e+07) (0, -1.25146318359375000000e+04) (1, -2.68903945312500000000e+04) (2, -3.37574335937500000000e+04) (3, -5.20043125000000000000e+04) (4, -6.18655898437500000000e+04) (5, -1.95662167968750000000e+04) (6, -4.38728125000000000000e+04) (7, -2.71280957031250000000e+04) (8, -1.25926484375000000000e+04) (9, -3.69922617187500000000e+04) (10, -2.76434277343750000000e+04) (11, -5.39248203125000000000e+04) (12, -7.29736640625000000000e+04) (13, -4.22724101562500000000e+04) (14, -2.22129140625000000000e+04) (15, -3.58151210937500000000e+04) (16, -1.93355625000000000000e+04) (17, -2.88299062500000000000e+04) (18, -5.04583828125000000000e+04) (19, -5.81981367187500000000e+04) (20, -6.71982734375000000000e+04) (21, -6.15876875000000000000e+04) (22, -1.92062539062500000000e+04) (23, -2.62345937500000000000e+04) (24, -1.71819726562500000000e+04) (25, -3.33322656250000000000e+04) (26, -3.73823164062500000000e+04) (27, -5.71861562500000000000e+04) (28, -8.15283984375000000000e+04) (29, -5.52544179687500000000e+04) (30, -2.29651914062500000000e+04) (31, -1.20059814453125000000e+04) (32, -2.28217617187500000000e+04) (33, -2.83454179687500000000e+04) (34, -3.10971562500000000000e+04) (35, -6.38450703125000000000e+04) (36, -8.48137734375000000000e+04) (37, -3.85429843750000000000e+04) (38, -3.41347304687500000000e+04) (39, -1.60783857421875000000e+04) (40, -1.71208046875000000000e+04) (41, -1.93564433593750000000e+04) (42, -4.21019218750000000000e+04) (43, -5.47613984375000000000e+04) (44, -7.15689687500000000000e+04) (45, -3.23172011718750000000e+04) (46, -2.31781777343750000000e+04) (47, -1.41270097656250000000e+04) (48, -3.71022281250000000000e+05) (0, 2.48597650000000000000e+06) (1, 4.49941100000000000000e+06) (2, 8.94199500000000000000e+06) (3, 1.04147910000000000000e+07) (4, 1.26815140000000000000e+07) (5, 9.80078000000000000000e+06) (6, 6.19541450000000000000e+06) (7, 4.18329000000000000000e+06) (8, 1.85081400000000000000e+06) (9, 4.14375425000000000000e+06) (10, 6.65353300000000000000e+06) (11, 1.18997160000000000000e+07) (12, 1.55286820000000000000e+07) (13, 1.12110120000000000000e+07) (14, 5.16431350000000000000e+06) (15, 6.51693050000000000000e+06) (16, 1.94681175000000000000e+06) (17, 3.78593825000000000000e+06) (18, 6.38036500000000000000e+06) (19, 1.62238640000000000000e+07) (20, 1.52951350000000000000e+07) (21, 1.30638680000000000000e+07) (22, 3.63140025000000000000e+06) (23, 5.00698500000000000000e+06) (24, 2.38266375000000000000e+06) (25, 5.29108000000000000000e+06) (26, 5.30742800000000000000e+06) (27, 1.66157540000000000000e+07) (28, 1.72374520000000000000e+07) (29, 1.23582150000000000000e+07) (30, 4.84161700000000000000e+06) (31, 4.41975100000000000000e+06) (32, 1.84476300000000000000e+06) (33, 5.13249750000000000000e+06) (34, 5.93819750000000000000e+06) (35, 1.79182380000000000000e+07) (36, 1.78400980000000000000e+07) (37, 1.08553370000000000000e+07) (38, 4.49617650000000000000e+06) (39, 4.05189125000000000000e+06) (40, 1.36407012500000000000e+06) (41, 3.67302725000000000000e+06) (42, 8.65866000000000000000e+06) (43, 1.67637170000000000000e+07) (44, 1.61801740000000000000e+07) (45, 1.15476760000000000000e+07) (46, 3.76139600000000000000e+06) (47, 3.12820200000000000000e+06) (48, 8.37568640000000000000e+07) (0, 2.89266975000000000000e+06) (1, 8.47066600000000000000e+06) (2, 1.40824900000000000000e+07) (3, 2.42505780000000000000e+07) (4, 1.81306980000000000000e+07) (5, 1.19553530000000000000e+07) (6, 1.57199730000000000000e+07) (7, 1.00872890000000000000e+07) (8, 2.12752925000000000000e+06) (9, 8.04854700000000000000e+06) (10, 1.12323980000000000000e+07) (11, 1.85787860000000000000e+07) (12, 2.59108380000000000000e+07) (13, 2.23778580000000000000e+07) (14, 7.83161750000000000000e+06) (15, 1.70193840000000000000e+07) (16, 2.55142675000000000000e+06) (17, 7.38573250000000000000e+06) (18, 1.18021000000000000000e+07) (19, 2.52171040000000000000e+07) (20, 2.44296180000000000000e+07) (21, 2.37678380000000000000e+07) (22, 1.24057070000000000000e+07) (23, 1.50438870000000000000e+07) (24, 5.17481500000000000000e+06) (25, 6.90926200000000000000e+06) (26, 8.90057300000000000000e+06) (27, 2.45358920000000000000e+07) (28, 3.02409080000000000000e+07) (29, 2.46386880000000000000e+07) (30, 1.04594040000000000000e+07) (31, 9.79238900000000000000e+06) (32, 3.67025775000000000000e+06) (33, 5.46294950000000000000e+06) (34, 6.21461700000000000000e+06) (35, 2.50523720000000000000e+07) (36, 3.10627800000000000000e+07) (37, 2.15289480000000000000e+07) (38, 1.59609040000000000000e+07) (39, 8.05843450000000000000e+06) (40, 2.31771250000000000000e+06) (41, 3.99037200000000000000e+06) (42, 1.07931700000000000000e+07) (43, 2.21290220000000000000e+07) (44, 2.78882800000000000000e+07) (45, 2.00457300000000000000e+07) (46, 1.17991370000000000000e+07) (47, 9.89622900000000000000e+06) (48, 1.43144576000000000000e+08) (0, 2.96637300000000000000e+06) (1, 5.57531150000000000000e+06) (2, 1.13850480000000000000e+07) (3, 1.32365930000000000000e+07) (4, 1.55287880000000000000e+07) (5, 1.19651990000000000000e+07) (6, 7.69477150000000000000e+06) (7, 5.66957900000000000000e+06) (8, 2.34473975000000000000e+06) (9, 5.18148600000000000000e+06) (10, 8.51210100000000000000e+06) (11, 1.49443070000000000000e+07) (12, 1.91753080000000000000e+07) (13, 1.38094630000000000000e+07) (14, 6.64216150000000000000e+06) (15, 8.68698200000000000000e+06) (16, 2.50759750000000000000e+06) (17, 4.91820300000000000000e+06) (18, 7.92216400000000000000e+06) (19, 2.00089820000000000000e+07) (20, 1.90259740000000000000e+07) (21, 1.63173820000000000000e+07) (22, 4.73659550000000000000e+06) (23, 6.45319700000000000000e+06) (24, 3.11010075000000000000e+06) (25, 6.49868250000000000000e+06) (26, 6.59752050000000000000e+06) (27, 2.04667720000000000000e+07) (28, 2.13720360000000000000e+07) (29, 1.56015140000000000000e+07) (30, 6.24489000000000000000e+06) (31, 5.68757550000000000000e+06) (32, 2.29836725000000000000e+06) (33, 6.54499150000000000000e+06) (34, 7.30628700000000000000e+06) (35, 2.21587180000000000000e+07) (36, 2.19475540000000000000e+07) (37, 1.39359310000000000000e+07) (38, 5.90049850000000000000e+06) (39, 5.21921450000000000000e+06) (40, 1.70117162500000000000e+06) (41, 4.74434750000000000000e+06) (42, 1.07230980000000000000e+07) (43, 2.04984360000000000000e+07) (44, 1.98312420000000000000e+07) (45, 1.49540100000000000000e+07) (46, 4.96268850000000000000e+06) (47, 3.96844600000000000000e+06) (48, 1.05046520000000000000e+08) (0, 3.50760450000000000000e+06) (1, 8.97114000000000000000e+06) (2, 1.39431150000000000000e+07) (3, 2.37932160000000000000e+07) (4, 1.78035820000000000000e+07) (5, 1.18737190000000000000e+07) (6, 1.56083270000000000000e+07) (7, 9.91842700000000000000e+06) (8, 2.50071825000000000000e+06) (9, 8.88504600000000000000e+06) (10, 1.14507440000000000000e+07) (11, 1.83062480000000000000e+07) (12, 2.52256600000000000000e+07) (13, 2.25926840000000000000e+07) (14, 7.74552050000000000000e+06) (15, 1.66387240000000000000e+07) (16, 2.80961150000000000000e+06) (17, 8.01425050000000000000e+06) (18, 1.20712990000000000000e+07) (19, 2.52856820000000000000e+07) (20, 2.40723440000000000000e+07) (21, 2.34510340000000000000e+07) (22, 1.25355740000000000000e+07) (23, 1.49891240000000000000e+07) (24, 5.47989100000000000000e+06) (25, 7.69628700000000000000e+06) (26, 9.28349200000000000000e+06) (27, 2.43739400000000000000e+07) (28, 3.00383220000000000000e+07) (29, 2.40264200000000000000e+07) (30, 1.00994440000000000000e+07) (31, 9.69183100000000000000e+06) (32, 3.73097425000000000000e+06) (33, 6.00786150000000000000e+06) (34, 6.74601400000000000000e+06) (35, 2.51661400000000000000e+07) (36, 3.07193800000000000000e+07) (37, 2.13004560000000000000e+07) (38, 1.57143720000000000000e+07) (39, 7.77655000000000000000e+06) (40, 2.36224100000000000000e+06) (41, 4.32163000000000000000e+06) (42, 1.11750930000000000000e+07) (43, 2.23890340000000000000e+07) (44, 2.76013780000000000000e+07) (45, 2.00053920000000000000e+07) (46, 1.16175280000000000000e+07) (47, 9.66540000000000000000e+06) (48, 1.43242976000000000000e+08) (0, 3.44120100000000000000e+06) (1, 8.87275600000000000000e+06) (2, 1.36942010000000000000e+07) (3, 2.33784940000000000000e+07) (4, 1.78078560000000000000e+07) (5, 1.18964820000000000000e+07) (6, 1.56088910000000000000e+07) (7, 9.47061400000000000000e+06) (8, 2.46545250000000000000e+06) (9, 8.73356100000000000000e+06) (10, 1.12803340000000000000e+07) (11, 1.78645460000000000000e+07) (12, 2.49431620000000000000e+07) (13, 2.25920120000000000000e+07) (14, 7.29843400000000000000e+06) (15, 1.61756400000000000000e+07) (16, 2.71653200000000000000e+06) (17, 7.97236500000000000000e+06) (18, 1.18870000000000000000e+07) (19, 2.49543720000000000000e+07) (20, 2.38426960000000000000e+07) (21, 2.29901580000000000000e+07) (22, 1.21843650000000000000e+07) (23, 1.45753930000000000000e+07) (24, 5.40772950000000000000e+06) (25, 7.47862050000000000000e+06) (26, 9.12854400000000000000e+06) (27, 2.40787140000000000000e+07) (28, 2.99353360000000000000e+07) (29, 2.33220520000000000000e+07) (30, 9.75549600000000000000e+06) (31, 9.60528500000000000000e+06) (32, 3.55581575000000000000e+06) (33, 5.73351000000000000000e+06) (34, 6.53823750000000000000e+06) (35, 2.49082800000000000000e+07) (36, 3.05972660000000000000e+07) (37, 2.08276060000000000000e+07) (38, 1.53026460000000000000e+07) (39, 7.57975250000000000000e+06) (40, 2.32958425000000000000e+06) (41, 4.11758350000000000000e+06) (42, 1.08338580000000000000e+07) (43, 2.21716400000000000000e+07) (44, 2.73679880000000000000e+07) (45, 1.95557580000000000000e+07) (46, 1.13423460000000000000e+07) (47, 9.56183200000000000000e+06) (48, 1.40832672000000000000e+08) (0, 2.90064025000000000000e+06) (1, 5.71685600000000000000e+06) (2, 1.14359160000000000000e+07) (3, 1.30261760000000000000e+07) (4, 1.61087360000000000000e+07) (5, 1.23295350000000000000e+07) (6, 8.21027700000000000000e+06) (7, 5.27448550000000000000e+06) (8, 2.45131225000000000000e+06) (9, 5.52005250000000000000e+06) (10, 8.80513000000000000000e+06) (11, 1.50506590000000000000e+07) (12, 1.93190360000000000000e+07) (13, 1.43379540000000000000e+07) (14, 6.62964200000000000000e+06) (15, 8.36585950000000000000e+06) (16, 2.67075900000000000000e+06) (17, 5.30057300000000000000e+06) (18, 8.41223300000000000000e+06) (19, 2.01994380000000000000e+07) (20, 1.95649520000000000000e+07) (21, 1.68834680000000000000e+07) (22, 4.51798550000000000000e+06) (23, 6.37481400000000000000e+06) (24, 3.11890475000000000000e+06) (25, 7.19297300000000000000e+06) (26, 6.83994550000000000000e+06) (27, 2.08598940000000000000e+07) (28, 2.17740220000000000000e+07) (29, 1.60759520000000000000e+07) (30, 6.00736200000000000000e+06) (31, 5.82815300000000000000e+06) (32, 2.56098225000000000000e+06) (33, 7.08672350000000000000e+06) (34, 7.42405050000000000000e+06) (35, 2.29643160000000000000e+07) (36, 2.25526240000000000000e+07) (37, 1.41855880000000000000e+07) (38, 5.46553550000000000000e+06) (39, 5.19164200000000000000e+06) (40, 2.09155850000000000000e+06) (41, 5.04562950000000000000e+06) (42, 1.11300130000000000000e+07) (43, 2.13699100000000000000e+07) (44, 2.02507680000000000000e+07) (45, 1.51894420000000000000e+07) (46, 4.73748250000000000000e+06) (47, 3.61519475000000000000e+06) (48, 1.07217832000000000000e+08) (0, 2.28462450000000000000e+06) (1, 4.66317300000000000000e+06) (2, 1.01729750000000000000e+07) (3, 1.23392900000000000000e+07) (4, 1.44483100000000000000e+07) (5, 1.08601410000000000000e+07) (6, 6.32998800000000000000e+06) (7, 4.82161750000000000000e+06) (8, 1.90858737500000000000e+06) (9, 4.02686025000000000000e+06) (10, 7.37250450000000000000e+06) (11, 1.38151000000000000000e+07) (12, 1.78088860000000000000e+07) (13, 1.17958460000000000000e+07) (14, 5.80614850000000000000e+06) (15, 7.66484150000000000000e+06) (16, 2.20831775000000000000e+06) (17, 4.07124100000000000000e+06) (18, 7.13076750000000000000e+06) (19, 1.79507880000000000000e+07) (20, 1.74678420000000000000e+07) (21, 1.40906240000000000000e+07) (22, 3.98415525000000000000e+06) (23, 5.87748300000000000000e+06) (24, 2.74511775000000000000e+06) (25, 5.49657550000000000000e+06) (26, 5.72731050000000000000e+06) (27, 1.85756780000000000000e+07) (28, 1.92082260000000000000e+07) (29, 1.41383960000000000000e+07) (30, 5.42568900000000000000e+06) (31, 4.86766750000000000000e+06) (32, 2.29149075000000000000e+06) (33, 5.57778400000000000000e+06) (34, 6.25778800000000000000e+06) (35, 2.02163860000000000000e+07) (36, 1.97159580000000000000e+07) (37, 1.21957570000000000000e+07) (38, 5.23040750000000000000e+06) (39, 4.55397600000000000000e+06) (40, 1.83349387500000000000e+06) (41, 4.04949825000000000000e+06) (42, 9.71166500000000000000e+06) (43, 1.85216740000000000000e+07) (44, 1.76575680000000000000e+07) (45, 1.34530790000000000000e+07) (46, 4.14706000000000000000e+06) (47, 3.18869075000000000000e+06) (48, 9.37505920000000000000e+07) (0, 2.22180725000000000000e+06) (1, 4.00765775000000000000e+06) (2, 7.48543350000000000000e+06) (3, 9.13506700000000000000e+06) (4, 1.02915980000000000000e+07) (5, 7.73810250000000000000e+06) (6, 5.02437750000000000000e+06) (7, 3.80234250000000000000e+06) (8, 1.73787037500000000000e+06) (9, 3.97024625000000000000e+06) (10, 5.91076750000000000000e+06) (11, 9.92571700000000000000e+06) (12, 1.28338390000000000000e+07) (13, 9.13539700000000000000e+06) (14, 4.22733550000000000000e+06) (15, 5.81876550000000000000e+06) (16, 1.78114025000000000000e+06) (17, 3.76963200000000000000e+06) (18, 5.68177100000000000000e+06) (19, 1.33256210000000000000e+07) (20, 1.26882130000000000000e+07) (21, 1.07920020000000000000e+07) (22, 3.37244800000000000000e+06) (23, 4.58309500000000000000e+06) (24, 1.99388987500000000000e+06) (25, 4.86711000000000000000e+06) (26, 4.76525350000000000000e+06) (27, 1.35414490000000000000e+07) (28, 1.40695100000000000000e+07) (29, 1.05403320000000000000e+07) (30, 4.13565425000000000000e+06) (31, 3.83283325000000000000e+06) (32, 1.86122037500000000000e+06) (33, 4.55342450000000000000e+06) (34, 5.01458500000000000000e+06) (35, 1.46430690000000000000e+07) (36, 1.45109370000000000000e+07) (37, 9.44502000000000000000e+06) (38, 4.09289325000000000000e+06) (39, 3.45792550000000000000e+06) (40, 1.46777650000000000000e+06) (41, 3.27680125000000000000e+06) (42, 7.30669050000000000000e+06) (43, 1.35521640000000000000e+07) (44, 1.31231810000000000000e+07) (45, 9.90086300000000000000e+06) (46, 3.46305800000000000000e+06) (47, 2.72879400000000000000e+06) (48, 6.99029840000000000000e+07) (0, 2.80749650000000000000e+06) (1, 4.99428550000000000000e+06) (2, 1.00199930000000000000e+07) (3, 1.18878760000000000000e+07) (4, 1.42083750000000000000e+07) (5, 1.11794460000000000000e+07) (6, 6.98421300000000000000e+06) (7, 4.80165150000000000000e+06) (8, 2.09228962500000000000e+06) (9, 4.71566600000000000000e+06) (10, 7.43086950000000000000e+06) (11, 1.35812970000000000000e+07) (12, 1.74746360000000000000e+07) (13, 1.26808280000000000000e+07) (14, 5.82924050000000000000e+06) (15, 7.50731850000000000000e+06) (16, 2.27877425000000000000e+06) (17, 4.20128600000000000000e+06) (18, 7.13438300000000000000e+06) (19, 1.83578340000000000000e+07) (20, 1.72552640000000000000e+07) (21, 1.48546200000000000000e+07) (22, 4.26889400000000000000e+06) (23, 5.79476450000000000000e+06) (24, 2.72882700000000000000e+06) (25, 5.85122950000000000000e+06) (26, 5.87945200000000000000e+06) (27, 1.88887860000000000000e+07) (28, 1.93984640000000000000e+07) (29, 1.42091240000000000000e+07) (30, 5.59471800000000000000e+06) (31, 4.94983200000000000000e+06) (32, 2.16452775000000000000e+06) (33, 5.70194550000000000000e+06) (34, 6.56921550000000000000e+06) (35, 2.04078340000000000000e+07) (36, 2.02426280000000000000e+07) (37, 1.23545160000000000000e+07) (38, 5.33832450000000000000e+06) (39, 4.58004500000000000000e+06) (40, 1.60604075000000000000e+06) (41, 4.06148550000000000000e+06) (42, 9.63148200000000000000e+06) (43, 1.91168140000000000000e+07) (44, 1.83114660000000000000e+07) (45, 1.32903140000000000000e+07) (46, 4.22622150000000000000e+06) (47, 3.63076675000000000000e+06) (48, 9.52226080000000000000e+07) (0, 3.02118475000000000000e+06) (1, 5.59949800000000000000e+06) (2, 1.20305010000000000000e+07) (3, 1.43663930000000000000e+07) (4, 1.69875040000000000000e+07) (5, 1.26718640000000000000e+07) (6, 7.02982200000000000000e+06) (7, 5.43508800000000000000e+06) (8, 2.43587150000000000000e+06) (9, 5.09824400000000000000e+06) (10, 8.69294800000000000000e+06) (11, 1.61680220000000000000e+07) (12, 2.09897960000000000000e+07) (13, 1.38836930000000000000e+07) (14, 6.27223850000000000000e+06) (15, 8.72579200000000000000e+06) (16, 2.68785375000000000000e+06) (17, 5.08061100000000000000e+06) (18, 7.95051250000000000000e+06) (19, 2.14978780000000000000e+07) (20, 2.05144600000000000000e+07) (21, 1.61667210000000000000e+07) (22, 4.40321950000000000000e+06) (23, 6.46942800000000000000e+06) (24, 3.27278275000000000000e+06) (25, 6.88305100000000000000e+06) (26, 6.52148050000000000000e+06) (27, 2.18955220000000000000e+07) (28, 2.21930200000000000000e+07) (29, 1.57599790000000000000e+07) (30, 6.25478250000000000000e+06) (31, 5.70622950000000000000e+06) (32, 2.68165375000000000000e+06) (33, 6.89669350000000000000e+06) (34, 7.31800100000000000000e+06) (35, 2.32406120000000000000e+07) (36, 2.27164520000000000000e+07) (37, 1.42448040000000000000e+07) (38, 5.90823150000000000000e+06) (39, 5.29157200000000000000e+06) (40, 2.11020225000000000000e+06) (41, 5.03252850000000000000e+06) (42, 1.09245320000000000000e+07) (43, 2.17800480000000000000e+07) (44, 2.02066400000000000000e+07) (45, 1.56929630000000000000e+07) (46, 4.64962500000000000000e+06) (47, 4.22220400000000000000e+06) (48, 1.09378144000000000000e+08) (0, 2.85532000000000000000e+06) (1, 4.97319000000000000000e+06) (2, 9.74057300000000000000e+06) (3, 1.17803710000000000000e+07) (4, 1.34612390000000000000e+07) (5, 1.04587980000000000000e+07) (6, 6.79338400000000000000e+06) (7, 4.77925050000000000000e+06) (8, 2.16111675000000000000e+06) (9, 4.75412850000000000000e+06) (10, 7.38552450000000000000e+06) (11, 1.32989780000000000000e+07) (12, 1.66564170000000000000e+07) (13, 1.22358070000000000000e+07) (14, 5.69000000000000000000e+06) (15, 7.28155500000000000000e+06) (16, 2.37245775000000000000e+06) (17, 4.30328700000000000000e+06) (18, 7.12452600000000000000e+06) (19, 1.78933020000000000000e+07) (20, 1.64537180000000000000e+07) (21, 1.44081490000000000000e+07) (22, 4.32014800000000000000e+06) (23, 5.68099900000000000000e+06) (24, 2.70772250000000000000e+06) (25, 5.92007250000000000000e+06) (26, 5.95897300000000000000e+06) (27, 1.83031540000000000000e+07) (28, 1.84988940000000000000e+07) (29, 1.35772350000000000000e+07) (30, 5.41842100000000000000e+06) (31, 4.89288200000000000000e+06) (32, 2.15379725000000000000e+06) (33, 5.68712700000000000000e+06) (34, 6.73366200000000000000e+06) (35, 1.97492920000000000000e+07) (36, 1.92406360000000000000e+07) (37, 1.19929920000000000000e+07) (38, 4.98078850000000000000e+06) (39, 4.52527950000000000000e+06) (40, 1.59212087500000000000e+06) (41, 4.11576375000000000000e+06) (42, 9.64190100000000000000e+06) (43, 1.85157260000000000000e+07) (44, 1.76213400000000000000e+07) (45, 1.25975140000000000000e+07) (46, 4.17721450000000000000e+06) (47, 3.47280350000000000000e+06) (48, 9.23384720000000000000e+07) (0, 2.02070037500000000000e+06) (1, 4.02783475000000000000e+06) (2, 8.25715250000000000000e+06) (3, 9.84164900000000000000e+06) (4, 1.11994390000000000000e+07) (5, 8.60574100000000000000e+06) (6, 4.89169500000000000000e+06) (7, 4.18652525000000000000e+06) (8, 1.69020137500000000000e+06) (9, 3.77100650000000000000e+06) (10, 6.25363950000000000000e+06) (11, 1.10578350000000000000e+07) (12, 1.38344930000000000000e+07) (13, 9.46177200000000000000e+06) (14, 4.72717900000000000000e+06) (15, 6.58665500000000000000e+06) (16, 1.81991325000000000000e+06) (17, 3.73233075000000000000e+06) (18, 5.67321000000000000000e+06) (19, 1.45562780000000000000e+07) (20, 1.36091510000000000000e+07) (21, 1.12954080000000000000e+07) (22, 3.37032650000000000000e+06) (23, 5.02488950000000000000e+06) (24, 2.08599812500000000000e+06) (25, 5.04746450000000000000e+06) (26, 4.68947050000000000000e+06) (27, 1.47020010000000000000e+07) (28, 1.47520530000000000000e+07) (29, 1.13040070000000000000e+07) (30, 4.67504600000000000000e+06) (31, 4.32991250000000000000e+06) (32, 1.84960025000000000000e+06) (33, 4.95061250000000000000e+06) (34, 5.23135400000000000000e+06) (35, 1.59904920000000000000e+07) (36, 1.46336490000000000000e+07) (37, 1.04502020000000000000e+07) (38, 4.57756000000000000000e+06) (39, 3.86570300000000000000e+06) (40, 1.49992562500000000000e+06) (41, 3.76823625000000000000e+06) (42, 7.88929600000000000000e+06) (43, 1.44866650000000000000e+07) (44, 1.29684820000000000000e+07) (45, 1.13671530000000000000e+07) (46, 3.88239950000000000000e+06) (47, 3.05128875000000000000e+06) (48, 7.58412640000000000000e+07) (0, -3.25776750000000000000e+06) (1, -7.99701600000000000000e+06) (2, -1.30968440000000000000e+07) (3, -2.12799640000000000000e+07) (4, -1.38611630000000000000e+07) (5, -8.87277600000000000000e+06) (6, -1.68297320000000000000e+07) (7, -9.74841700000000000000e+06) (8, -4.86000600000000000000e+06) (9, -9.06320700000000000000e+06) (10, -9.94430800000000000000e+06) (11, -1.89997900000000000000e+07) (12, -1.96785160000000000000e+07) (13, -1.88378900000000000000e+07) (14, -1.14794530000000000000e+07) (15, -1.40792720000000000000e+07) (16, -3.97481025000000000000e+06) (17, -9.87145100000000000000e+06) (18, -1.28827200000000000000e+07) (19, -2.22770760000000000000e+07) (20, -1.92696340000000000000e+07) (21, -2.43855420000000000000e+07) (22, -1.26447410000000000000e+07) (23, -1.19630940000000000000e+07) (24, -4.42678650000000000000e+06) (25, -8.88603900000000000000e+06) (26, -1.27813530000000000000e+07) (27, -2.07683860000000000000e+07) (28, -2.58304480000000000000e+07) (29, -2.81831360000000000000e+07) (30, -1.01099320000000000000e+07) (31, -7.79728400000000000000e+06) (32, -4.14297475000000000000e+06) (33, -6.87467650000000000000e+06) (34, -1.26787330000000000000e+07) (35, -2.04725500000000000000e+07) (36, -3.33603380000000000000e+07) (37, -1.93200500000000000000e+07) (38, -1.32382410000000000000e+07) (39, -6.32643200000000000000e+06) (40, -1.66877625000000000000e+06) (41, -5.83187400000000000000e+06) (42, -1.48930270000000000000e+07) (43, -1.99618220000000000000e+07) (44, -3.19666160000000000000e+07) (45, -1.62231280000000000000e+07) (46, -9.32190700000000000000e+06) (47, -8.90557600000000000000e+06) (48, -1.34439344000000000000e+08) (0, 3.10509875000000000000e+06) (1, 5.78431700000000000000e+06) (2, 1.16021450000000000000e+07) (3, 1.37688660000000000000e+07) (4, 1.60667620000000000000e+07) (5, 1.22567600000000000000e+07) (6, 7.81495400000000000000e+06) (7, 5.76285100000000000000e+06) (8, 2.38331675000000000000e+06) (9, 5.28725300000000000000e+06) (10, 8.96828900000000000000e+06) (11, 1.52256000000000000000e+07) (12, 1.97329620000000000000e+07) (13, 1.42315700000000000000e+07) (14, 6.67493800000000000000e+06) (15, 8.75816300000000000000e+06) (16, 2.56281500000000000000e+06) (17, 5.05015950000000000000e+06) (18, 8.30829100000000000000e+06) (19, 2.04145380000000000000e+07) (20, 1.95539140000000000000e+07) (21, 1.68259840000000000000e+07) (22, 4.82098950000000000000e+06) (23, 6.59487200000000000000e+06) (24, 3.08376800000000000000e+06) (25, 6.95437350000000000000e+06) (26, 6.81920000000000000000e+06) (27, 2.08764480000000000000e+07) (28, 2.18185760000000000000e+07) (29, 1.60701210000000000000e+07) (30, 6.31955550000000000000e+06) (31, 5.76001100000000000000e+06) (32, 2.57873850000000000000e+06) (33, 6.91732050000000000000e+06) (34, 7.43655550000000000000e+06) (35, 2.27586740000000000000e+07) (36, 2.24198700000000000000e+07) (37, 1.42308950000000000000e+07) (38, 5.88505750000000000000e+06) (39, 5.40178350000000000000e+06) (40, 2.06502675000000000000e+06) (41, 4.88882250000000000000e+06) (42, 1.10308670000000000000e+07) (43, 2.10371900000000000000e+07) (44, 2.01269420000000000000e+07) (45, 1.52037520000000000000e+07) (46, 5.02812450000000000000e+06) (47, 4.17449275000000000000e+06) (48, 1.07601184000000000000e+08) (0, 2.85755300000000000000e+06) (1, 7.87245900000000000000e+06) (2, 1.09661610000000000000e+07) (3, 1.42517370000000000000e+07) (4, 1.16279130000000000000e+07) (5, 7.44153000000000000000e+06) (6, 1.00465020000000000000e+07) (7, 6.93140450000000000000e+06) (8, 1.87952750000000000000e+06) (9, 6.69409100000000000000e+06) (10, 8.36028950000000000000e+06) (11, 1.09398680000000000000e+07) (12, 1.73579680000000000000e+07) (13, 1.57701210000000000000e+07) (14, 5.44884950000000000000e+06) (15, 1.00933980000000000000e+07) (16, 2.70596250000000000000e+06) (17, 4.90812850000000000000e+06) (18, 8.88956600000000000000e+06) (19, 1.87125680000000000000e+07) (20, 1.73534700000000000000e+07) (21, 1.38215450000000000000e+07) (22, 7.32404950000000000000e+06) (23, 8.35730850000000000000e+06) (24, 3.91473575000000000000e+06) (25, 6.83538950000000000000e+06) (26, 7.16069500000000000000e+06) (27, 1.69023780000000000000e+07) (28, 2.14828440000000000000e+07) (29, 1.40571020000000000000e+07) (30, 6.29481450000000000000e+06) (31, 4.61159000000000000000e+06) (32, 3.58933575000000000000e+06) (33, 4.76537100000000000000e+06) (34, 5.28875450000000000000e+06) (35, 1.66307920000000000000e+07) (36, 2.13842600000000000000e+07) (37, 1.46161840000000000000e+07) (38, 8.44763600000000000000e+06) (39, 3.95791075000000000000e+06) (40, 2.43005800000000000000e+06) (41, 3.33438100000000000000e+06) (42, 7.55388450000000000000e+06) (43, 1.47261210000000000000e+07) (44, 1.87813280000000000000e+07) (45, 1.36673150000000000000e+07) (46, 7.42432850000000000000e+06) (47, 4.67626550000000000000e+06) (48, 9.48630800000000000000e+07) (0, 3.10660100000000000000e+06) (1, 5.70861500000000000000e+06) (2, 1.13778990000000000000e+07) (3, 1.33142610000000000000e+07) (4, 1.56908250000000000000e+07) (5, 1.18667960000000000000e+07) (6, 7.93166100000000000000e+06) (7, 5.73703650000000000000e+06) (8, 2.40867300000000000000e+06) (9, 5.46399100000000000000e+06) (10, 8.49757400000000000000e+06) (11, 1.50141970000000000000e+07) (12, 1.92066560000000000000e+07) (13, 1.39536980000000000000e+07) (14, 6.49411600000000000000e+06) (15, 8.73015800000000000000e+06) (16, 2.59187300000000000000e+06) (17, 5.14778100000000000000e+06) (18, 8.09241900000000000000e+06) (19, 2.02597840000000000000e+07) (20, 1.89592980000000000000e+07) (21, 1.64535710000000000000e+07) (22, 4.76418650000000000000e+06) (23, 6.57311100000000000000e+06) (24, 3.02182900000000000000e+06) (25, 6.82621850000000000000e+06) (26, 6.75387450000000000000e+06) (27, 2.03522560000000000000e+07) (28, 2.15390000000000000000e+07) (29, 1.58156740000000000000e+07) (30, 6.19216100000000000000e+06) (31, 5.60930950000000000000e+06) (32, 2.61736325000000000000e+06) (33, 6.66520800000000000000e+06) (34, 7.05273750000000000000e+06) (35, 2.22183860000000000000e+07) (36, 2.23234260000000000000e+07) (37, 1.38465480000000000000e+07) (38, 5.88322050000000000000e+06) (39, 5.24273800000000000000e+06) (40, 2.13101500000000000000e+06) (41, 4.73948250000000000000e+06) (42, 1.06308820000000000000e+07) (43, 2.05060400000000000000e+07) (44, 2.02164700000000000000e+07) (45, 1.47519410000000000000e+07) (46, 4.88932000000000000000e+06) (47, 3.98239025000000000000e+06) (48, 1.05676456000000000000e+08) (0, 3.04891475000000000000e+06) (1, 5.37680950000000000000e+06) (2, 1.08199180000000000000e+07) (3, 1.25996020000000000000e+07) (4, 1.50005810000000000000e+07) (5, 1.15012660000000000000e+07) (6, 7.38587250000000000000e+06) (7, 5.50584750000000000000e+06) (8, 2.25052550000000000000e+06) (9, 5.24366750000000000000e+06) (10, 8.23101950000000000000e+06) (11, 1.42480720000000000000e+07) (12, 1.84496500000000000000e+07) (13, 1.32498450000000000000e+07) (14, 6.43302850000000000000e+06) (15, 8.43046300000000000000e+06) (16, 2.39491550000000000000e+06) (17, 5.01594000000000000000e+06) (18, 7.60224850000000000000e+06) (19, 1.91320500000000000000e+07) (20, 1.85098580000000000000e+07) (21, 1.56971220000000000000e+07) (22, 4.76110700000000000000e+06) (23, 6.37079900000000000000e+06) (24, 3.10831500000000000000e+06) (25, 6.64059350000000000000e+06) (26, 6.23750650000000000000e+06) (27, 1.94104620000000000000e+07) (28, 2.07229900000000000000e+07) (29, 1.51218800000000000000e+07) (30, 6.06374900000000000000e+06) (31, 5.46709250000000000000e+06) (32, 2.46590450000000000000e+06) (33, 6.56758600000000000000e+06) (34, 6.81001900000000000000e+06) (35, 2.12003820000000000000e+07) (36, 2.12841760000000000000e+07) (37, 1.34648150000000000000e+07) (38, 5.77176400000000000000e+06) (39, 5.07734950000000000000e+06) (40, 1.93349212500000000000e+06) (41, 4.57480450000000000000e+06) (42, 1.02145370000000000000e+07) (43, 1.96343700000000000000e+07) (44, 1.91421420000000000000e+07) (45, 1.44479380000000000000e+07) (46, 4.84801450000000000000e+06) (47, 3.90534975000000000000e+06) (48, 1.01587096000000000000e+08) (0, 1.06832087500000000000e+06) (1, 2.57618150000000000000e+06) (2, 1.42435975000000000000e+06) (3, 3.48524275000000000000e+06) (4, 2.60506025000000000000e+06) (5, 7.49404875000000000000e+05) (6, 2.21538900000000000000e+06) (7, 9.99584000000000000000e+05) (8, 1.49776525000000000000e+06) (9, 2.73594175000000000000e+06) (10, 2.18291425000000000000e+06) (11, 3.57132175000000000000e+06) (12, 3.01491225000000000000e+06) (13, 2.73897450000000000000e+06) (14, 1.29261300000000000000e+06) (15, 1.46634125000000000000e+06) (16, 8.37756500000000000000e+05) (17, 2.33234525000000000000e+06) (18, 3.40498500000000000000e+06) (19, 3.91429750000000000000e+06) (20, 3.50992525000000000000e+06) (21, 2.95836000000000000000e+06) (22, 5.90901875000000000000e+05) (23, 8.18768875000000000000e+05) (24, 1.09083525000000000000e+06) (25, 3.00629900000000000000e+06) (26, 2.76008700000000000000e+06) (27, 3.98069800000000000000e+06) (28, 4.17989075000000000000e+06) (29, 2.50387700000000000000e+06) (30, 6.36499125000000000000e+05) (31, 5.68597187500000000000e+05) (32, 9.79535187500000000000e+05) (33, 2.48663100000000000000e+06) (34, 3.51707550000000000000e+06) (35, 4.76692200000000000000e+06) (36, 3.92113850000000000000e+06) (37, 2.40840225000000000000e+06) (38, 7.95173250000000000000e+05) (39, 6.90788437500000000000e+05) (40, 7.51756812500000000000e+05) (41, 1.90270475000000000000e+06) (42, 4.65845250000000000000e+06) (43, 4.26210250000000000000e+06) (44, 3.89332675000000000000e+06) (45, 1.71793050000000000000e+06) (46, 8.44862562500000000000e+05) (47, 2.05214125000000000000e+05) (48, 2.28028740000000000000e+07) (0, 2.50630925000000000000e+06) (1, 5.03427950000000000000e+06) (2, 1.00241400000000000000e+07) (3, 1.16853440000000000000e+07) (4, 1.34638720000000000000e+07) (5, 1.04543320000000000000e+07) (6, 6.67375750000000000000e+06) (7, 4.83850800000000000000e+06) (8, 1.84568437500000000000e+06) (9, 4.49449000000000000000e+06) (10, 7.25933350000000000000e+06) (11, 1.34896380000000000000e+07) (12, 1.66654570000000000000e+07) (13, 1.19827630000000000000e+07) (14, 5.74864950000000000000e+06) (15, 7.71637050000000000000e+06) (16, 1.81261587500000000000e+06) (17, 4.09398975000000000000e+06) (18, 6.66115250000000000000e+06) (19, 1.80041220000000000000e+07) (20, 1.64613290000000000000e+07) (21, 1.40843510000000000000e+07) (22, 4.01834575000000000000e+06) (23, 5.83889200000000000000e+06) (24, 1.78988337500000000000e+06) (25, 5.49118150000000000000e+06) (26, 5.57369500000000000000e+06) (27, 1.88008320000000000000e+07) (28, 1.81460080000000000000e+07) (29, 1.33430730000000000000e+07) (30, 5.61617200000000000000e+06) (31, 5.10204250000000000000e+06) (32, 2.09881950000000000000e+06) (33, 5.24046800000000000000e+06) (34, 6.08886350000000000000e+06) (35, 2.02949280000000000000e+07) (36, 1.87847120000000000000e+07) (37, 1.17555600000000000000e+07) (38, 5.27362250000000000000e+06) (39, 4.65945750000000000000e+06) (40, 1.58502600000000000000e+06) (41, 4.12050275000000000000e+06) (42, 9.21792400000000000000e+06) (43, 1.85801380000000000000e+07) (44, 1.70297500000000000000e+07) (45, 1.27469080000000000000e+07) (46, 4.36773250000000000000e+06) (47, 3.67990875000000000000e+06) (48, 9.17232960000000000000e+07) (0, 3.27426575000000000000e+06) (1, 6.24103750000000000000e+06) (2, 1.24654630000000000000e+07) (3, 1.47095830000000000000e+07) (4, 1.74687160000000000000e+07) (5, 1.32944530000000000000e+07) (6, 8.66437800000000000000e+06) (7, 5.99464950000000000000e+06) (8, 2.57184650000000000000e+06) (9, 5.82764300000000000000e+06) (10, 9.22783600000000000000e+06) (11, 1.66148620000000000000e+07) (12, 2.13920120000000000000e+07) (13, 1.54707600000000000000e+07) (14, 7.33665250000000000000e+06) (15, 9.39308800000000000000e+06) (16, 2.87402000000000000000e+06) (17, 5.44989550000000000000e+06) (18, 8.80477300000000000000e+06) (19, 2.22362780000000000000e+07) (20, 2.11288700000000000000e+07) (21, 1.83959320000000000000e+07) (22, 5.13890100000000000000e+06) (23, 7.06908800000000000000e+06) (24, 3.42597475000000000000e+06) (25, 7.47100650000000000000e+06) (26, 7.21584500000000000000e+06) (27, 2.27450400000000000000e+07) (28, 2.37279020000000000000e+07) (29, 1.75078480000000000000e+07) (30, 6.82443350000000000000e+06) (31, 6.07326850000000000000e+06) (32, 2.85890150000000000000e+06) (33, 7.25056600000000000000e+06) (34, 8.02189850000000000000e+06) (35, 2.44928540000000000000e+07) (36, 2.46165180000000000000e+07) (37, 1.54555490000000000000e+07) (38, 6.36824100000000000000e+06) (39, 5.57324000000000000000e+06) (40, 2.20565475000000000000e+06) (41, 5.20441750000000000000e+06) (42, 1.17687090000000000000e+07) (43, 2.28602620000000000000e+07) (44, 2.22083120000000000000e+07) (45, 1.67054150000000000000e+07) (46, 5.05745900000000000000e+06) (47, 4.25197000000000000000e+06) (48, 1.16773520000000000000e+08) (0, 2.27737650000000000000e+06) (1, 4.18544400000000000000e+06) (2, 8.32360550000000000000e+06) (3, 9.89764400000000000000e+06) (4, 1.13563400000000000000e+07) (5, 8.44811200000000000000e+06) (6, 5.60406300000000000000e+06) (7, 4.29929500000000000000e+06) (8, 1.57161875000000000000e+06) (9, 4.05907725000000000000e+06) (10, 6.40401700000000000000e+06) (11, 1.09643610000000000000e+07) (12, 1.39213740000000000000e+07) (13, 1.00328540000000000000e+07) (14, 4.63458850000000000000e+06) (15, 6.36043100000000000000e+06) (16, 1.80935587500000000000e+06) (17, 3.89686750000000000000e+06) (18, 6.00120000000000000000e+06) (19, 1.47674340000000000000e+07) (20, 1.37575100000000000000e+07) (21, 1.16566780000000000000e+07) (22, 3.62345725000000000000e+06) (23, 4.84882050000000000000e+06) (24, 2.57741800000000000000e+06) (25, 5.19156550000000000000e+06) (26, 4.88568800000000000000e+06) (27, 1.47660880000000000000e+07) (28, 1.55326420000000000000e+07) (29, 1.12380400000000000000e+07) (30, 4.51945500000000000000e+06) (31, 4.04442450000000000000e+06) (32, 1.81880187500000000000e+06) (33, 5.11018650000000000000e+06) (34, 5.45256800000000000000e+06) (35, 1.59731040000000000000e+07) (36, 1.58502120000000000000e+07) (37, 1.01650890000000000000e+07) (38, 4.37700150000000000000e+06) (39, 3.66786800000000000000e+06) (40, 1.59978925000000000000e+06) (41, 3.34592525000000000000e+06) (42, 8.16030100000000000000e+06) (43, 1.50299780000000000000e+07) (44, 1.42024180000000000000e+07) (45, 1.06628020000000000000e+07) (46, 3.77836850000000000000e+06) (47, 2.93708425000000000000e+06) (48, 7.68304080000000000000e+07) (0, 1.93684562500000000000e+06) (1, 3.74675900000000000000e+06) (2, 7.31777650000000000000e+06) (3, 8.77685800000000000000e+06) (4, 9.95199200000000000000e+06) (5, 7.57315850000000000000e+06) (6, 4.47406250000000000000e+06) (7, 3.64989800000000000000e+06) (8, 1.67879050000000000000e+06) (9, 3.66431850000000000000e+06) (10, 5.74256550000000000000e+06) (11, 9.89844000000000000000e+06) (12, 1.21809550000000000000e+07) (13, 8.41351600000000000000e+06) (14, 4.08914350000000000000e+06) (15, 5.65472500000000000000e+06) (16, 1.70066550000000000000e+06) (17, 3.54865850000000000000e+06) (18, 5.39582600000000000000e+06) (19, 1.33456690000000000000e+07) (20, 1.21575820000000000000e+07) (21, 1.00053370000000000000e+07) (22, 2.97814775000000000000e+06) (23, 4.18291075000000000000e+06) (24, 2.07987550000000000000e+06) (25, 4.60894800000000000000e+06) (26, 4.35779250000000000000e+06) (27, 1.34173680000000000000e+07) (28, 1.36748590000000000000e+07) (29, 9.80099100000000000000e+06) (30, 4.03763825000000000000e+06) (31, 3.74600500000000000000e+06) (32, 1.68174387500000000000e+06) (33, 4.41437800000000000000e+06) (34, 4.74767700000000000000e+06) (35, 1.44824800000000000000e+07) (36, 1.36659660000000000000e+07) (37, 8.87762900000000000000e+06) (38, 4.03804650000000000000e+06) (39, 3.45926375000000000000e+06) (40, 1.31843812500000000000e+06) (41, 3.12984200000000000000e+06) (42, 7.04966000000000000000e+06) (43, 1.33954290000000000000e+07) (44, 1.23043900000000000000e+07) (45, 9.57484400000000000000e+06) (46, 3.25240075000000000000e+06) (47, 2.65063800000000000000e+06) (48, 6.73278720000000000000e+07) (0, -1.06919162500000000000e+06) (1, -3.42122550000000000000e+06) (2, -5.72364500000000000000e+06) (3, -9.77313900000000000000e+06) (4, -6.38197550000000000000e+06) (5, -4.24357750000000000000e+06) (6, -6.49735350000000000000e+06) (7, -3.84587275000000000000e+06) (8, -2.44767625000000000000e+06) (9, -4.06652700000000000000e+06) (10, -3.94497050000000000000e+06) (11, -9.88779300000000000000e+06) (12, -8.24340100000000000000e+06) (13, -6.65247700000000000000e+06) (14, -6.06658000000000000000e+06) (15, -4.87625800000000000000e+06) (16, -1.73183250000000000000e+06) (17, -5.64626200000000000000e+06) (18, -6.11668000000000000000e+06) (19, -1.12876590000000000000e+07) (20, -8.49532200000000000000e+06) (21, -9.47354000000000000000e+06) (22, -5.63556050000000000000e+06) (23, -4.35181500000000000000e+06) (24, -1.77179937500000000000e+06) (25, -4.32510250000000000000e+06) (26, -5.88521350000000000000e+06) (27, -9.34316200000000000000e+06) (28, -1.14921330000000000000e+07) (29, -1.02933730000000000000e+07) (30, -4.73572150000000000000e+06) (31, -2.52290575000000000000e+06) (32, -1.58576537500000000000e+06) (33, -3.36369050000000000000e+06) (34, -6.85249250000000000000e+06) (35, -8.12542200000000000000e+06) (36, -1.41449000000000000000e+07) (37, -7.40564050000000000000e+06) (38, -4.99837100000000000000e+06) (39, -3.38030950000000000000e+06) (40, -6.57610312500000000000e+05) (41, -2.80346350000000000000e+06) (42, -7.54445200000000000000e+06) (43, -7.23538100000000000000e+06) (44, -1.28958670000000000000e+07) (45, -6.27579200000000000000e+06) (46, -2.90606400000000000000e+06) (47, -3.57539925000000000000e+06) (48, -5.59815240000000000000e+07) (0, 2.43473925000000000000e+06) (1, 4.76093950000000000000e+06) (2, 8.95346400000000000000e+06) (3, 1.09634080000000000000e+07) (4, 1.25052730000000000000e+07) (5, 1.00538620000000000000e+07) (6, 5.92120250000000000000e+06) (7, 4.38365200000000000000e+06) (8, 1.95257075000000000000e+06) (9, 4.26696800000000000000e+06) (10, 6.84527300000000000000e+06) (11, 1.22797950000000000000e+07) (12, 1.56314180000000000000e+07) (13, 1.11691060000000000000e+07) (14, 5.27015250000000000000e+06) (15, 6.88187650000000000000e+06) (16, 1.87729262500000000000e+06) (17, 4.01712400000000000000e+06) (18, 6.41731350000000000000e+06) (19, 1.64499750000000000000e+07) (20, 1.54103610000000000000e+07) (21, 1.31993240000000000000e+07) (22, 3.71380975000000000000e+06) (23, 5.39067950000000000000e+06) (24, 2.33356225000000000000e+06) (25, 5.31617800000000000000e+06) (26, 5.45631350000000000000e+06) (27, 1.74663700000000000000e+07) (28, 1.69307180000000000000e+07) (29, 1.23468700000000000000e+07) (30, 5.20657700000000000000e+06) (31, 4.69562100000000000000e+06) (32, 1.68361437500000000000e+06) (33, 5.44479100000000000000e+06) (34, 6.45552700000000000000e+06) (35, 1.90685180000000000000e+07) (36, 1.70127660000000000000e+07) (37, 1.08083100000000000000e+07) (38, 4.89908650000000000000e+06) (39, 4.25110000000000000000e+06) (40, 1.12870175000000000000e+06) (41, 4.08094700000000000000e+06) (42, 9.95992800000000000000e+06) (43, 1.76556660000000000000e+07) (44, 1.51850590000000000000e+07) (45, 1.17930800000000000000e+07) (46, 3.70198800000000000000e+06) (47, 3.37866925000000000000e+06) (48, 8.58529760000000000000e+07) (0, 2.07426312500000000000e+06) (1, 4.05269875000000000000e+06) (2, 7.40475500000000000000e+06) (3, 8.73767800000000000000e+06) (4, 1.02881320000000000000e+07) (5, 7.56101950000000000000e+06) (6, 5.36262850000000000000e+06) (7, 3.83525825000000000000e+06) (8, 1.48605250000000000000e+06) (9, 3.83283775000000000000e+06) (10, 5.93345250000000000000e+06) (11, 9.67353600000000000000e+06) (12, 1.25682100000000000000e+07) (13, 9.19897800000000000000e+06) (14, 4.16941750000000000000e+06) (15, 5.82618850000000000000e+06) (16, 1.88638037500000000000e+06) (17, 3.56934975000000000000e+06) (18, 5.66416300000000000000e+06) (19, 1.32496900000000000000e+07) (20, 1.22181440000000000000e+07) (21, 1.06588930000000000000e+07) (22, 3.28047525000000000000e+06) (23, 4.41708800000000000000e+06) (24, 2.37151375000000000000e+06) (25, 4.82333350000000000000e+06) (26, 4.59989850000000000000e+06) (27, 1.38095020000000000000e+07) (28, 1.37405870000000000000e+07) (29, 1.00162980000000000000e+07) (30, 4.05109925000000000000e+06) (31, 3.75416900000000000000e+06) (32, 1.89891275000000000000e+06) (33, 4.66660650000000000000e+06) (34, 5.13978200000000000000e+06) (35, 1.48379940000000000000e+07) (36, 1.41540500000000000000e+07) (37, 8.77222200000000000000e+06) (38, 3.96576125000000000000e+06) (39, 3.51609775000000000000e+06) (40, 1.44555775000000000000e+06) (41, 3.32592725000000000000e+06) (42, 7.47935150000000000000e+06) (43, 1.40905150000000000000e+07) (44, 1.26509290000000000000e+07) (45, 9.07021900000000000000e+06) (46, 3.52122075000000000000e+06) (47, 2.83025325000000000000e+06) (48, 6.93350880000000000000e+07) (0, 2.77934325000000000000e+06) (1, 5.63394200000000000000e+06) (2, 1.06132810000000000000e+07) (3, 1.29773610000000000000e+07) (4, 1.41435380000000000000e+07) (5, 1.10630710000000000000e+07) (6, 7.47183050000000000000e+06) (7, 5.49201200000000000000e+06) (8, 2.13014125000000000000e+06) (9, 5.07087450000000000000e+06) (10, 8.07191650000000000000e+06) (11, 1.44487380000000000000e+07) (12, 1.77767520000000000000e+07) (13, 1.30549250000000000000e+07) (14, 6.24450750000000000000e+06) (15, 8.38715900000000000000e+06) (16, 2.43283400000000000000e+06) (17, 4.81143500000000000000e+06) (18, 7.42386400000000000000e+06) (19, 1.94153360000000000000e+07) (20, 1.78458220000000000000e+07) (21, 1.52637400000000000000e+07) (22, 4.55677900000000000000e+06) (23, 6.28612600000000000000e+06) (24, 2.93710425000000000000e+06) (25, 6.40271400000000000000e+06) (26, 6.31957500000000000000e+06) (27, 1.95193880000000000000e+07) (28, 2.01911020000000000000e+07) (29, 1.45609540000000000000e+07) (30, 5.95487600000000000000e+06) (31, 5.40358850000000000000e+06) (32, 2.52331050000000000000e+06) (33, 6.29903950000000000000e+06) (34, 6.98908800000000000000e+06) (35, 2.11217320000000000000e+07) (36, 2.07752640000000000000e+07) (37, 1.30415520000000000000e+07) (38, 5.76380500000000000000e+06) (39, 5.03252200000000000000e+06) (40, 2.00093050000000000000e+06) (41, 4.42064750000000000000e+06) (42, 1.02920430000000000000e+07) (43, 1.96561580000000000000e+07) (44, 1.85459220000000000000e+07) (45, 1.40626030000000000000e+07) (46, 4.92898650000000000000e+06) (47, 3.80439100000000000000e+06) (48, 1.00044592000000000000e+08) (0, 1.02326816406250000000e+04) (1, 1.16204033203125000000e+04) (2, 1.32267109375000000000e+04) (3, 1.01684814453125000000e+04) (4, 5.26290332031250000000e+03) (5, 1.70087519531250000000e+04) (6, 8.74604199218750000000e+03) (7, 6.77202294921875000000e+03) (8, 9.20329199218750000000e+03) (9, 3.06334804687500000000e+04) (10, 1.80175937500000000000e+04) (11, 2.05811132812500000000e+04) (12, 4.45541357421875000000e+03) (13, 1.61752119140625000000e+04) (14, 5.49563623046875000000e+03) (15, 5.11701367187500000000e+03) (16, 8.34667480468750000000e+03) (17, 1.87575371093750000000e+04) (18, 1.57120253906250000000e+04) (19, 3.78715898437500000000e+04) (20, 1.11083144531250000000e+04) (21, 2.56471855468750000000e+04) (22, 6.32566552734375000000e+03) (23, 2.03167419433593750000e+03) (24, 4.98774072265625000000e+03) (25, 6.14175927734375000000e+03) (26, 2.07329550781250000000e+04) (27, 3.07598984375000000000e+04) (28, 3.82661210937500000000e+04) (29, 1.79764804687500000000e+04) (30, 1.82763847656250000000e+04) (31, 5.28857275390625000000e+03) (32, 6.27326123046875000000e+03) (33, 5.36593750000000000000e+03) (34, 1.19386142578125000000e+04) (35, 2.68804238281250000000e+04) (36, 2.84836503906250000000e+04) (37, 3.09368574218750000000e+04) (38, 5.17740576171875000000e+03) (39, 1.02569970703125000000e+04) (40, 3.82105712890625000000e+03) (41, 1.18675156250000000000e+04) (42, 1.34495029296875000000e+04) (43, 1.60659902343750000000e+04) (44, 2.20008476562500000000e+04) (45, 2.12033496093750000000e+04) (46, 1.14369550781250000000e+04) (47, 1.69898632812500000000e+04) (48, 1.49179656250000000000e+05) (0, 1.76389637500000000000e+06) (1, 2.83530000000000000000e+06) (2, 6.26731150000000000000e+06) (3, 7.13140400000000000000e+06) (4, 8.27272300000000000000e+06) (5, 7.03394000000000000000e+06) (6, 4.51651550000000000000e+06) (7, 2.57353475000000000000e+06) (8, 1.35354425000000000000e+06) (9, 2.85309850000000000000e+06) (10, 4.67155900000000000000e+06) (11, 8.01386000000000000000e+06) (12, 1.02411680000000000000e+07) (13, 8.24691200000000000000e+06) (14, 3.24246350000000000000e+06) (15, 4.39328850000000000000e+06) (16, 1.33451462500000000000e+06) (17, 2.57037150000000000000e+06) (18, 4.59879800000000000000e+06) (19, 1.10538050000000000000e+07) (20, 1.02586570000000000000e+07) (21, 9.15768700000000000000e+06) (22, 2.36786275000000000000e+06) (23, 3.37015725000000000000e+06) (24, 1.64063600000000000000e+06) (25, 3.74134650000000000000e+06) (26, 3.68088850000000000000e+06) (27, 1.14125640000000000000e+07) (28, 1.16117020000000000000e+07) (29, 8.74259900000000000000e+06) (30, 3.07914900000000000000e+06) (31, 3.23840400000000000000e+06) (32, 1.24343637500000000000e+06) (33, 3.85360950000000000000e+06) (34, 3.73690100000000000000e+06) (35, 1.25360600000000000000e+07) (36, 1.19717100000000000000e+07) (37, 7.63732400000000000000e+06) (38, 2.92671425000000000000e+06) (39, 2.76530175000000000000e+06) (40, 1.06779750000000000000e+06) (41, 2.65061725000000000000e+06) (42, 5.55845900000000000000e+06) (43, 1.16229520000000000000e+07) (44, 1.06998090000000000000e+07) (45, 8.33547950000000000000e+06) (46, 2.36548275000000000000e+06) (47, 2.29974350000000000000e+06) (48, 5.66505960000000000000e+07) (0, 2.07092150000000000000e+06) (1, 4.02679250000000000000e+06) (2, 7.45615150000000000000e+06) (3, 8.78957300000000000000e+06) (4, 1.01413980000000000000e+07) (5, 7.55956900000000000000e+06) (6, 5.29328500000000000000e+06) (7, 3.93416175000000000000e+06) (8, 1.64880275000000000000e+06) (9, 3.77911650000000000000e+06) (10, 6.08372800000000000000e+06) (11, 9.92136300000000000000e+06) (12, 1.21692160000000000000e+07) (13, 9.02266500000000000000e+06) (14, 4.34676950000000000000e+06) (15, 5.85352100000000000000e+06) (16, 1.68565612500000000000e+06) (17, 3.82448225000000000000e+06) (18, 5.48226100000000000000e+06) (19, 1.32122390000000000000e+07) (20, 1.26035010000000000000e+07) (21, 1.03339240000000000000e+07) (22, 3.30954450000000000000e+06) (23, 4.40544550000000000000e+06) (24, 2.23482100000000000000e+06) (25, 4.97970800000000000000e+06) (26, 4.57104700000000000000e+06) (27, 1.33118210000000000000e+07) (28, 1.40817220000000000000e+07) (29, 1.01316500000000000000e+07) (30, 3.89687000000000000000e+06) (31, 3.80400875000000000000e+06) (32, 1.75225300000000000000e+06) (33, 4.78541900000000000000e+06) (34, 4.91189800000000000000e+06) (35, 1.47311740000000000000e+07) (36, 1.43238420000000000000e+07) (37, 9.35103500000000000000e+06) (38, 3.71073525000000000000e+06) (39, 3.24512350000000000000e+06) (40, 1.35012200000000000000e+06) (41, 3.22465450000000000000e+06) (42, 7.46685450000000000000e+06) (43, 1.36831940000000000000e+07) (44, 1.29040800000000000000e+07) (45, 9.80214600000000000000e+06) (46, 3.49351375000000000000e+06) (47, 2.44853000000000000000e+06) (48, 6.91799920000000000000e+07) (0, 1.05284072265625000000e+04) (1, 3.71260253906250000000e+03) (2, 6.72281982421875000000e+03) (3, 3.28200781250000000000e+03) (4, 2.59427148437500000000e+03) (5, 3.17756469726562500000e+03) (6, 6.55072802734375000000e+03) (7, 2.25451318359375000000e+03) (8, 1.06762870788574218750e+02) (9, 1.84349277343750000000e+04) (10, 1.25851103515625000000e+04) (11, 1.03716503906250000000e+04) (12, -2.00973266601562500000e+03) (13, 6.10881201171875000000e+03) (14, 1.16705297851562500000e+03) (15, 1.27222082519531250000e+03) (16, 3.02739898681640625000e+02) (17, 5.82863232421875000000e+03) (18, 1.49743535156250000000e+04) (19, 2.09205156250000000000e+04) (20, 6.20354687500000000000e+03) (21, 4.59741552734375000000e+03) (22, -9.46633117675781250000e+02) (23, -6.57163715362548828125e+00) (24, 5.18085517883300781250e+01) (25, 2.80107202148437500000e+03) (26, 1.13565771484375000000e+04) (27, 1.16123808593750000000e+04) (28, 1.65537207031250000000e+04) (29, 4.47182324218750000000e+03) (30, -8.09018920898437500000e+02) (31, -2.92862609863281250000e+02) (32, 6.74450378417968750000e+02) (33, 2.01966027832031250000e+03) (34, 5.72310205078125000000e+03) (35, 1.36539941406250000000e+04) (36, 4.33736474609375000000e+03) (37, 1.70514921875000000000e+04) (38, 1.12220861816406250000e+03) (39, 1.18495739746093750000e+03) (40, 6.54357421875000000000e+02) (41, 1.12821594238281250000e+03) (42, 1.06671660156250000000e+04) (43, 7.33162792968750000000e+03) (44, 5.75287744140625000000e+03) (45, 2.06090673828125000000e+03) (46, 1.24157636718750000000e+04) (47, 3.64347106933593750000e+02) (48, 5.39352812500000000000e+04) (0, 2.06331562500000000000e+06) (1, 3.84723950000000000000e+06) (2, 7.55355800000000000000e+06) (3, 9.15556000000000000000e+06) (4, 1.03751320000000000000e+07) (5, 7.68516500000000000000e+06) (6, 5.15930000000000000000e+06) (7, 3.83972775000000000000e+06) (8, 1.68763825000000000000e+06) (9, 3.77362300000000000000e+06) (10, 5.91192650000000000000e+06) (11, 1.00627020000000000000e+07) (12, 1.26902280000000000000e+07) (13, 9.20771300000000000000e+06) (14, 4.38810400000000000000e+06) (15, 5.83528800000000000000e+06) (16, 1.81274487500000000000e+06) (17, 3.70099275000000000000e+06) (18, 5.70162300000000000000e+06) (19, 1.33979590000000000000e+07) (20, 1.25085800000000000000e+07) (21, 1.08093500000000000000e+07) (22, 3.39135675000000000000e+06) (23, 4.49565900000000000000e+06) (24, 2.29682375000000000000e+06) (25, 4.70631450000000000000e+06) (26, 4.86216000000000000000e+06) (27, 1.36250470000000000000e+07) (28, 1.42015570000000000000e+07) (29, 1.04323440000000000000e+07) (30, 4.15039875000000000000e+06) (31, 3.80991150000000000000e+06) (32, 1.90559650000000000000e+06) (33, 4.52374500000000000000e+06) (34, 5.01594050000000000000e+06) (35, 1.49536590000000000000e+07) (36, 1.46540790000000000000e+07) (37, 9.32188100000000000000e+06) (38, 4.11954725000000000000e+06) (39, 3.46384375000000000000e+06) (40, 1.53922725000000000000e+06) (41, 3.24583050000000000000e+06) (42, 7.47669300000000000000e+06) (43, 1.37287200000000000000e+07) (44, 1.31416410000000000000e+07) (45, 9.75992100000000000000e+06) (46, 3.49919925000000000000e+06) (47, 2.73505075000000000000e+06) (48, 7.04735120000000000000e+07) (0, 2.08480550000000000000e+06) (1, 5.28379400000000000000e+06) (2, 1.04687380000000000000e+07) (3, 1.09785820000000000000e+07) (4, 1.23949110000000000000e+07) (5, 1.03868120000000000000e+07) (6, 6.30093300000000000000e+06) (7, 4.72499950000000000000e+06) (8, 2.34877825000000000000e+06) (9, 4.83350050000000000000e+06) (10, 7.95670550000000000000e+06) (11, 1.25156730000000000000e+07) (12, 1.47253660000000000000e+07) (13, 1.11741430000000000000e+07) (14, 4.32912250000000000000e+06) (15, 7.03153850000000000000e+06) (16, 2.14705650000000000000e+06) (17, 4.03674975000000000000e+06) (18, 7.50260100000000000000e+06) (19, 1.69463140000000000000e+07) (20, 1.64155450000000000000e+07) (21, 1.19254520000000000000e+07) (22, 4.67647100000000000000e+06) (23, 5.35129200000000000000e+06) (24, 2.32178825000000000000e+06) (25, 5.33378600000000000000e+06) (26, 6.07748700000000000000e+06) (27, 1.68401060000000000000e+07) (28, 1.89659920000000000000e+07) (29, 1.15457480000000000000e+07) (30, 5.37247550000000000000e+06) (31, 4.30205750000000000000e+06) (32, 1.93840912500000000000e+06) (33, 6.08037000000000000000e+06) (34, 6.12352550000000000000e+06) (35, 1.88952040000000000000e+07) (36, 1.94079500000000000000e+07) (37, 1.04871830000000000000e+07) (38, 5.18864950000000000000e+06) (39, 4.20898800000000000000e+06) (40, 1.44502337500000000000e+06) (41, 4.60828400000000000000e+06) (42, 8.58041000000000000000e+06) (43, 1.76169040000000000000e+07) (44, 1.66646680000000000000e+07) (45, 1.19118660000000000000e+07) (46, 4.40299850000000000000e+06) (47, 3.40194950000000000000e+06) (48, 8.66215200000000000000e+07) (0, 2.27201575000000000000e+06) (1, 4.20269200000000000000e+06) (2, 8.24537950000000000000e+06) (3, 9.68731300000000000000e+06) (4, 1.14114000000000000000e+07) (5, 8.80462600000000000000e+06) (6, 5.62604550000000000000e+06) (7, 4.04192375000000000000e+06) (8, 1.70386900000000000000e+06) (9, 3.99403475000000000000e+06) (10, 6.15263450000000000000e+06) (11, 1.10445530000000000000e+07) (12, 1.40319770000000000000e+07) (13, 1.02550690000000000000e+07) (14, 4.72304950000000000000e+06) (15, 6.22587600000000000000e+06) (16, 1.81117912500000000000e+06) (17, 3.79221300000000000000e+06) (18, 5.84522200000000000000e+06) (19, 1.47823370000000000000e+07) (20, 1.39079270000000000000e+07) (21, 1.19646940000000000000e+07) (22, 3.55482925000000000000e+06) (23, 4.79592700000000000000e+06) (24, 2.19742550000000000000e+06) (25, 5.07014250000000000000e+06) (26, 4.94171400000000000000e+06) (27, 1.50594430000000000000e+07) (28, 1.54872680000000000000e+07) (29, 1.15778100000000000000e+07) (30, 4.56965200000000000000e+06) (31, 4.17615000000000000000e+06) (32, 1.87709350000000000000e+06) (33, 4.91251350000000000000e+06) (34, 5.37274650000000000000e+06) (35, 1.63619020000000000000e+07) (36, 1.62496050000000000000e+07) (37, 1.01266640000000000000e+07) (38, 4.31917400000000000000e+06) (39, 3.76002075000000000000e+06) (40, 1.53951587500000000000e+06) (41, 3.38940775000000000000e+06) (42, 7.98223000000000000000e+06) (43, 1.52029900000000000000e+07) (44, 1.45992590000000000000e+07) (45, 1.09640460000000000000e+07) (46, 3.56785050000000000000e+06) (47, 2.82022250000000000000e+06) (48, 7.74064080000000000000e+07) (0, 1.01046656250000000000e+06) (1, 2.51871575000000000000e+06) (2, 1.47090350000000000000e+06) (3, 3.24858000000000000000e+06) (4, 2.64488200000000000000e+06) (5, 8.29541562500000000000e+05) (6, 1.93168075000000000000e+06) (7, 1.04194631250000000000e+06) (8, 1.21492775000000000000e+06) (9, 2.57461350000000000000e+06) (10, 2.03472375000000000000e+06) (11, 3.49932775000000000000e+06) (12, 3.09963100000000000000e+06) (13, 2.62769525000000000000e+06) (14, 1.04684693750000000000e+06) (15, 1.50763362500000000000e+06) (16, 9.44813562500000000000e+05) (17, 1.83403450000000000000e+06) (18, 3.30040400000000000000e+06) (19, 4.16632025000000000000e+06) (20, 3.11421175000000000000e+06) (21, 2.83749375000000000000e+06) (22, 4.54660625000000000000e+05) (23, 6.42799312500000000000e+05) (24, 1.06381975000000000000e+06) (25, 2.63412025000000000000e+06) (26, 2.70026425000000000000e+06) (27, 4.34051850000000000000e+06) (28, 4.11125775000000000000e+06) (29, 1.84760437500000000000e+06) (30, 6.49244500000000000000e+05) (31, 3.50830281250000000000e+05) (32, 1.01118968750000000000e+06) (33, 2.18519725000000000000e+06) (34, 3.51209025000000000000e+06) (35, 4.67211900000000000000e+06) (36, 3.94476375000000000000e+06) (37, 1.63437537500000000000e+06) (38, 8.61726375000000000000e+05) (39, 8.01869750000000000000e+05) (40, 8.20667000000000000000e+05) (41, 1.80359937500000000000e+06) (42, 4.55325350000000000000e+06) (43, 4.31740250000000000000e+06) (44, 3.85926400000000000000e+06) (45, 7.09208500000000000000e+05) (46, 8.49093625000000000000e+05) (47, 7.12647375000000000000e+05) (48, 2.16769600000000000000e+07) (0, -2.80857200000000000000e+06) (1, -6.90637700000000000000e+06) (2, -1.13200170000000000000e+07) (3, -1.83724760000000000000e+07) (4, -1.19986360000000000000e+07) (5, -7.66941550000000000000e+06) (6, -1.45481070000000000000e+07) (7, -8.42020400000000000000e+06) (8, -4.18893350000000000000e+06) (9, -7.82504150000000000000e+06) (10, -8.58795000000000000000e+06) (11, -1.64079290000000000000e+07) (12, -1.70299900000000000000e+07) (13, -1.62898960000000000000e+07) (14, -9.92164100000000000000e+06) (15, -1.21640190000000000000e+07) (16, -3.42334400000000000000e+06) (17, -8.52249300000000000000e+06) (18, -1.11182180000000000000e+07) (19, -1.92442740000000000000e+07) (20, -1.66705460000000000000e+07) (21, -2.10880860000000000000e+07) (22, -1.09266860000000000000e+07) (23, -1.03453740000000000000e+07) (24, -3.82830225000000000000e+06) (25, -7.67888100000000000000e+06) (26, -1.10198570000000000000e+07) (27, -1.79363940000000000000e+07) (28, -2.23434960000000000000e+07) (29, -2.43696800000000000000e+07) (30, -8.74625400000000000000e+06) (31, -6.73983950000000000000e+06) (32, -3.57073175000000000000e+06) (33, -5.93950650000000000000e+06) (34, -1.09541650000000000000e+07) (35, -1.76905020000000000000e+07) (36, -2.88373640000000000000e+07) (37, -1.66953490000000000000e+07) (38, -1.14487260000000000000e+07) (39, -5.47689000000000000000e+06) (40, -1.44396800000000000000e+06) (41, -5.02879200000000000000e+06) (42, -1.28662090000000000000e+07) (43, -1.72607560000000000000e+07) (44, -2.76464820000000000000e+07) (45, -1.40063680000000000000e+07) (46, -8.03987550000000000000e+06) (47, -7.70758100000000000000e+06) (48, -1.16214968000000000000e+08) (0, 3.25308925000000000000e+06) (1, 6.04899450000000000000e+06) (2, 1.23603350000000000000e+07) (3, 1.44439870000000000000e+07) (4, 1.72846040000000000000e+07) (5, 1.29853980000000000000e+07) (6, 8.26164450000000000000e+06) (7, 6.19645600000000000000e+06) (8, 2.40925350000000000000e+06) (9, 5.70537450000000000000e+06) (10, 9.29420900000000000000e+06) (11, 1.65312140000000000000e+07) (12, 2.09138880000000000000e+07) (13, 1.48901050000000000000e+07) (14, 7.05706550000000000000e+06) (15, 9.43641800000000000000e+06) (16, 2.69377225000000000000e+06) (17, 5.40890950000000000000e+06) (18, 8.72412200000000000000e+06) (19, 2.21213600000000000000e+07) (20, 2.07310180000000000000e+07) (21, 1.75954400000000000000e+07) (22, 5.19154150000000000000e+06) (23, 7.12021750000000000000e+06) (24, 3.18977725000000000000e+06) (25, 7.23822250000000000000e+06) (26, 7.25550250000000000000e+06) (27, 2.23068100000000000000e+07) (28, 2.33096580000000000000e+07) (29, 1.71232180000000000000e+07) (30, 6.75750200000000000000e+06) (31, 6.06912700000000000000e+06) (32, 2.83543500000000000000e+06) (33, 7.15273450000000000000e+06) (34, 7.74049550000000000000e+06) (35, 2.42657920000000000000e+07) (36, 2.39958580000000000000e+07) (37, 1.52016980000000000000e+07) (38, 6.39050950000000000000e+06) (39, 5.58039450000000000000e+06) (40, 2.32464175000000000000e+06) (41, 5.15685600000000000000e+06) (42, 1.16391390000000000000e+07) (43, 2.24440580000000000000e+07) (44, 2.16487840000000000000e+07) (45, 1.61993170000000000000e+07) (46, 5.29337600000000000000e+06) (47, 4.31415350000000000000e+06) (48, 1.14712184000000000000e+08) (0, 3.31766775000000000000e+06) (1, 6.16652000000000000000e+06) (2, 1.23937060000000000000e+07) (3, 1.46160690000000000000e+07) (4, 1.74865980000000000000e+07) (5, 1.33792440000000000000e+07) (6, 8.39181700000000000000e+06) (7, 5.88659700000000000000e+06) (8, 2.55668000000000000000e+06) (9, 5.70465350000000000000e+06) (10, 9.35046100000000000000e+06) (11, 1.65113250000000000000e+07) (12, 2.14862640000000000000e+07) (13, 1.53174900000000000000e+07) (14, 6.96415750000000000000e+06) (15, 9.19627900000000000000e+06) (16, 2.68266825000000000000e+06) (17, 5.49412350000000000000e+06) (18, 8.60677600000000000000e+06) (19, 2.22036500000000000000e+07) (20, 2.12820280000000000000e+07) (21, 1.78375660000000000000e+07) (22, 5.22496600000000000000e+06) (23, 6.99545950000000000000e+06) (24, 3.27419725000000000000e+06) (25, 7.18296100000000000000e+06) (26, 7.24621900000000000000e+06) (27, 2.26532120000000000000e+07) (28, 2.36913720000000000000e+07) (29, 1.73483500000000000000e+07) (30, 6.67511150000000000000e+06) (31, 6.01239600000000000000e+06) (32, 2.68350100000000000000e+06) (33, 6.96382250000000000000e+06) (34, 7.92427400000000000000e+06) (35, 2.45179920000000000000e+07) (36, 2.48045700000000000000e+07) (37, 1.52552750000000000000e+07) (38, 6.14949200000000000000e+06) (39, 5.58524400000000000000e+06) (40, 2.05703275000000000000e+06) (41, 4.89305200000000000000e+06) (42, 1.18055010000000000000e+07) (43, 2.28906420000000000000e+07) (44, 2.21157900000000000000e+07) (45, 1.63272490000000000000e+07) (46, 5.20367250000000000000e+06) (47, 4.29131500000000000000e+06) (48, 1.15509432000000000000e+08) (0, 8.71868562500000000000e+05) (1, 2.22219050000000000000e+06) (2, 1.50568962500000000000e+06) (3, 3.26641400000000000000e+06) (4, 2.66620250000000000000e+06) (5, 7.93090562500000000000e+05) (6, 1.76626250000000000000e+06) (7, 1.16515037500000000000e+06) (8, 1.14337500000000000000e+06) (9, 2.34749525000000000000e+06) (10, 1.98908687500000000000e+06) (11, 3.63177025000000000000e+06) (12, 2.91747350000000000000e+06) (13, 2.39262700000000000000e+06) (14, 1.13150650000000000000e+06) (15, 1.61674475000000000000e+06) (16, 7.78399187500000000000e+05) (17, 1.84843037500000000000e+06) (18, 3.07216350000000000000e+06) (19, 4.13354625000000000000e+06) (20, 2.99688150000000000000e+06) (21, 2.79814825000000000000e+06) (22, 4.95277000000000000000e+05) (23, 8.63141125000000000000e+05) (24, 7.42786437500000000000e+05) (25, 2.50139150000000000000e+06) (26, 2.59987375000000000000e+06) (27, 3.96895025000000000000e+06) (28, 3.77558050000000000000e+06) (29, 2.42823475000000000000e+06) (30, 7.72815125000000000000e+05) (31, 5.00931500000000000000e+05) (32, 1.00372531250000000000e+06) (33, 2.07848062500000000000e+06) (34, 3.13372200000000000000e+06) (35, 4.22615450000000000000e+06) (36, 3.48899200000000000000e+06) (37, 2.43168000000000000000e+06) (38, 1.09361550000000000000e+06) (39, 6.67685750000000000000e+05) (40, 9.33688375000000000000e+05) (41, 1.76525662500000000000e+06) (42, 3.98405300000000000000e+06) (43, 3.80518400000000000000e+06) (44, 3.39734150000000000000e+06) (45, 1.70276700000000000000e+06) (46, 1.01735937500000000000e+06) (47, 5.26631000000000000000e+05) (48, 2.13045460000000000000e+07) (0, -1.26860450000000000000e+06) (1, -3.72494375000000000000e+06) (2, -1.77819812500000000000e+06) (3, -4.77791200000000000000e+06) (4, -3.07325475000000000000e+06) (5, -8.72055125000000000000e+05) (6, -2.75665275000000000000e+06) (7, -1.45105537500000000000e+06) (8, -1.87913775000000000000e+06) (9, -3.56841075000000000000e+06) (10, -2.65790625000000000000e+06) (11, -4.64256350000000000000e+06) (12, -3.97992675000000000000e+06) (13, -3.69610925000000000000e+06) (14, -1.61935537500000000000e+06) (15, -2.17508275000000000000e+06) (16, -1.18977625000000000000e+06) (17, -2.69297650000000000000e+06) (18, -4.46617300000000000000e+06) (19, -5.09487350000000000000e+06) (20, -4.09220075000000000000e+06) (21, -4.12799800000000000000e+06) (22, -6.34128625000000000000e+05) (23, -1.06534850000000000000e+06) (24, -1.30096650000000000000e+06) (25, -3.67646225000000000000e+06) (26, -3.79402950000000000000e+06) (27, -5.25322200000000000000e+06) (28, -5.06339600000000000000e+06) (29, -3.18119950000000000000e+06) (30, -9.24684312500000000000e+05) (31, -5.96682437500000000000e+05) (32, -1.30580950000000000000e+06) (33, -3.01083075000000000000e+06) (34, -4.97890350000000000000e+06) (35, -5.86299850000000000000e+06) (36, -4.88428100000000000000e+06) (37, -3.03801750000000000000e+06) (38, -1.38457600000000000000e+06) (39, -9.81317500000000000000e+05) (40, 