FANN_FLO_2.1
num_layers=3
learning_rate=0.700000
connection_rate=1.000000
network_type=0
learning_momentum=0.400000
training_algorithm=0
train_error_function=1
train_stop_function=0
cascade_output_change_fraction=0.010000
quickprop_decay=-0.000100
quickprop_mu=1.750000
rprop_increase_factor=1.200000
rprop_decrease_factor=0.500000
rprop_delta_min=0.000000
rprop_delta_max=50.000000
rprop_delta_zero=0.100000
cascade_output_stagnation_epochs=12
cascade_candidate_change_fraction=0.010000
cascade_candidate_stagnation_epochs=12
cascade_max_out_epochs=150
cascade_min_out_epochs=50
cascade_max_cand_epochs=150
cascade_min_cand_epochs=50
cascade_num_candidate_groups=2
bit_fail_limit=3.49999994039535522461e-01
cascade_candidate_limit=1.00000000000000000000e+03
cascade_weight_multiplier=4.00000005960464477539e-01
cascade_activation_functions_count=10
cascade_activation_functions=3 5 7 8 10 11 14 15 16 17 
cascade_activation_steepnesses_count=4
cascade_activation_steepnesses=2.50000000000000000000e-01 5.00000000000000000000e-01 7.50000000000000000000e-01 1.00000000000000000000e+00 
layer_sizes=49 97 4 
scale_included=0
neurons (num_inputs, activation_function, activation_steepness)=(0, 0, 0.00000000000000000000e+00) (0, 0, 0.00000000000000000000e+00) (0, 0, 0.00000000000000000000e+00) (0, 0, 0.00000000000000000000e+00) (0, 0, 0.00000000000000000000e+00) (0, 0, 0.00000000000000000000e+00) (0, 0, 0.00000000000000000000e+00) (0, 0, 0.00000000000000000000e+00) (0, 0, 0.00000000000000000000e+00) (0, 0, 0.00000000000000000000e+00) (0, 0, 0.00000000000000000000e+00) (0, 0, 0.00000000000000000000e+00) (0, 0, 0.00000000000000000000e+00) (0, 0, 0.00000000000000000000e+00) (0, 0, 0.00000000000000000000e+00) (0, 0, 0.00000000000000000000e+00) (0, 0, 0.00000000000000000000e+00) (0, 0, 0.00000000000000000000e+00) (0, 0, 0.00000000000000000000e+00) (0, 0, 0.00000000000000000000e+00) (0, 0, 0.00000000000000000000e+00) (0, 0, 0.00000000000000000000e+00) (0, 0, 0.00000000000000000000e+00) (0, 0, 0.00000000000000000000e+00) (0, 0, 0.00000000000000000000e+00) (0, 0, 0.00000000000000000000e+00) (0, 0, 0.00000000000000000000e+00) (0, 0, 0.00000000000000000000e+00) (0, 0, 0.00000000000000000000e+00) (0, 0, 0.00000000000000000000e+00) (0, 0, 0.00000000000000000000e+00) (0, 0, 0.00000000000000000000e+00) (0, 0, 0.00000000000000000000e+00) (0, 0, 0.00000000000000000000e+00) (0, 0, 0.00000000000000000000e+00) (0, 0, 0.00000000000000000000e+00) (0, 0, 0.00000000000000000000e+00) (0, 0, 0.00000000000000000000e+00) (0, 0, 0.00000000000000000000e+00) (0, 0, 0.00000000000000000000e+00) (0, 0, 0.00000000000000000000e+00) (0, 0, 0.00000000000000000000e+00) (0, 0, 0.00000000000000000000e+00) (0, 0, 0.00000000000000000000e+00) (0, 0, 0.00000000000000000000e+00) (0, 0, 0.00000000000000000000e+00) (0, 0, 0.00000000000000000000e+00) (0, 0, 0.00000000000000000000e+00) (0, 0, 0.00000000000000000000e+00) (49, 4, 5.00000000000000000000e-01) (49, 4, 5.00000000000000000000e-01) (49, 4, 5.00000000000000000000e-01) (49, 4, 5.00000000000000000000e-01) (49, 4, 5.00000000000000000000e-01) (49, 4, 5.00000000000000000000e-01) (49, 4, 5.00000000000000000000e-01) (49, 4, 5.00000000000000000000e-01) (49, 4, 5.00000000000000000000e-01) (49, 4, 5.00000000000000000000e-01) (49, 4, 5.00000000000000000000e-01) (49, 4, 5.00000000000000000000e-01) (49, 4, 5.00000000000000000000e-01) (49, 4, 5.00000000000000000000e-01) (49, 4, 5.00000000000000000000e-01) (49, 4, 5.00000000000000000000e-01) (49, 4, 5.00000000000000000000e-01) (49, 4, 5.00000000000000000000e-01) (49, 4, 5.00000000000000000000e-01) (49, 4, 5.00000000000000000000e-01) (49, 4, 5.00000000000000000000e-01) (49, 4, 5.00000000000000000000e-01) (49, 4, 5.00000000000000000000e-01) (49, 4, 5.00000000000000000000e-01) (49, 4, 5.00000000000000000000e-01) (49, 4, 5.00000000000000000000e-01) (49, 4, 5.00000000000000000000e-01) (49, 4, 5.00000000000000000000e-01) (49, 4, 5.00000000000000000000e-01) (49, 4, 5.00000000000000000000e-01) (49, 4, 5.00000000000000000000e-01) (49, 4, 5.00000000000000000000e-01) (49, 4, 5.00000000000000000000e-01) (49, 4, 5.00000000000000000000e-01) (49, 4, 5.00000000000000000000e-01) (49, 4, 5.00000000000000000000e-01) (49, 4, 5.00000000000000000000e-01) (49, 4, 5.00000000000000000000e-01) (49, 4, 5.00000000000000000000e-01) (49, 4, 5.00000000000000000000e-01) (49, 4, 5.00000000000000000000e-01) (49, 4, 5.00000000000000000000e-01) (49, 4, 5.00000000000000000000e-01) (49, 4, 5.00000000000000000000e-01) (49, 4, 5.00000000000000000000e-01) (49, 4, 5.00000000000000000000e-01) (49, 4, 5.00000000000000000000e-01) (49, 4, 5.00000000000000000000e-01) (49, 4, 5.00000000000000000000e-01) (49, 4, 5.00000000000000000000e-01) (49, 4, 5.00000000000000000000e-01) (49, 4, 5.00000000000000000000e-01) (49, 4, 5.00000000000000000000e-01) (49, 4, 5.00000000000000000000e-01) (49, 4, 5.00000000000000000000e-01) (49, 4, 5.00000000000000000000e-01) (49, 4, 5.00000000000000000000e-01) (49, 4, 5.00000000000000000000e-01) (49, 4, 5.00000000000000000000e-01) (49, 4, 5.00000000000000000000e-01) (49, 4, 5.00000000000000000000e-01) (49, 4, 5.00000000000000000000e-01) (49, 4, 5.00000000000000000000e-01) (49, 4, 5.00000000000000000000e-01) (49, 4, 5.00000000000000000000e-01) (49, 4, 5.00000000000000000000e-01) (49, 4, 5.00000000000000000000e-01) (49, 4, 5.00000000000000000000e-01) (49, 4, 5.00000000000000000000e-01) (49, 4, 5.00000000000000000000e-01) (49, 4, 5.00000000000000000000e-01) (49, 4, 5.00000000000000000000e-01) (49, 4, 5.00000000000000000000e-01) (49, 4, 5.00000000000000000000e-01) (49, 4, 5.00000000000000000000e-01) (49, 4, 5.00000000000000000000e-01) (49, 4, 5.00000000000000000000e-01) (49, 4, 5.00000000000000000000e-01) (49, 4, 5.00000000000000000000e-01) (49, 4, 5.00000000000000000000e-01) (49, 4, 5.00000000000000000000e-01) (49, 4, 5.00000000000000000000e-01) (49, 4, 5.00000000000000000000e-01) (49, 4, 5.00000000000000000000e-01) (49, 4, 5.00000000000000000000e-01) (49, 4, 5.00000000000000000000e-01) (49, 4, 5.00000000000000000000e-01) (49, 4, 5.00000000000000000000e-01) (49, 4, 5.00000000000000000000e-01) (49, 4, 5.00000000000000000000e-01) (49, 4, 5.00000000000000000000e-01) (49, 4, 5.00000000000000000000e-01) (49, 4, 5.00000000000000000000e-01) (49, 4, 5.00000000000000000000e-01) (49, 4, 5.00000000000000000000e-01) (49, 4, 5.00000000000000000000e-01) (0, 0, 0.00000000000000000000e+00) (97, 4, 5.00000000000000000000e-01) (97, 4, 5.00000000000000000000e-01) (97, 4, 5.00000000000000000000e-01) (0, 0, 0.00000000000000000000e+00) 
connections (connected_to_neuron, weight)=(0, 1.87942963093519210815e-02) (1, -8.03887993097305297852e-02) (2, -4.33391779661178588867e-02) (3, -1.15690059959888458252e-01) (4, -6.50545597076416015625e-01) (5, -4.20446425676345825195e-01) (6, -2.66312390565872192383e-01) (7, -1.21832385659217834473e-01) (8, 1.97341874241828918457e-01) (9, -4.03831630945205688477e-01) (10, -2.05152481794357299805e-01) (11, -4.10349547863006591797e-01) (12, -2.95466214418411254883e-01) (13, -1.21763505041599273682e-01) (14, -1.42517900094389915466e-02) (15, 1.06907680630683898926e-01) (16, -3.63315016031265258789e-01) (17, -3.42650443315505981445e-01) (18, -5.15425801277160644531e-01) (19, -3.63662779331207275391e-01) (20, -4.82267260551452636719e-01) (21, -4.30106908082962036133e-01) (22, -3.77454340457916259766e-01) (23, -6.57535135746002197266e-01) (24, -4.36907917261123657227e-01) (25, -4.19820249080657958984e-01) (26, -7.22279191017150878906e-01) (27, -6.22382700443267822266e-01) (28, -4.10643398761749267578e-01) (29, -6.25529587268829345703e-01) (30, -7.30411350727081298828e-01) (31, -4.82828646898269653320e-01) (32, -3.23606371879577636719e-01) (33, -6.79871559143066406250e-01) (34, -7.23148763179779052734e-01) (35, -1.06660103797912597656e+00) (36, -6.24085187911987304688e-01) (37, -5.09475708007812500000e-01) (38, -2.54520446062088012695e-01) (39, -1.37219369411468505859e-01) (40, -8.31420049071311950684e-02) (41, -3.42951923608779907227e-01) (42, -1.38387918472290039062e-01) (43, -1.55103683471679687500e+00) (44, -6.82595610618591308594e-01) (45, -4.37675088644027709961e-01) (46, 7.46960863471031188965e-02) (47, 2.15781316161155700684e-01) (48, -2.79304116964340209961e-01) (0, -5.87286241352558135986e-02) (1, -1.37597471475601196289e-01) (2, -2.14031767100095748901e-02) (3, -1.23256199061870574951e-01) (4, -2.69846946001052856445e-01) (5, -3.22283446788787841797e-01) (6, -1.26232713460922241211e-01) (7, 7.94028192758560180664e-02) (8, -9.53454747796058654785e-02) (9, -1.93696409463882446289e-01) (10, -1.22355066239833831787e-01) (11, -1.84279248118400573730e-01) (12, -4.36757415533065795898e-01) (13, -1.82101607322692871094e-01) (14, -7.78794363141059875488e-02) (15, 1.36787593364715576172e-01) (16, -3.40227812528610229492e-01) (17, -2.85934507846832275391e-01) (18, -9.88008379936218261719e-02) (19, -2.84205645322799682617e-01) (20, -3.08825224637985229492e-01) (21, -3.89464199542999267578e-01) (22, -1.94916084408760070801e-01) (23, -2.34283074736595153809e-01) (24, -2.85560041666030883789e-01) (25, -2.49679282307624816895e-01) (26, -4.42721039056777954102e-01) (27, -3.09684604406356811523e-01) (28, -4.54621821641921997070e-01) (29, -3.43388170003890991211e-01) (30, -2.85438358783721923828e-01) (31, -1.83456882834434509277e-01) (32, -1.83092858642339706421e-02) (33, -2.89355397224426269531e-01) (34, -4.70269620418548583984e-01) (35, -5.60498714447021484375e-01) (36, -3.00519675016403198242e-01) (37, -2.59073942899703979492e-01) (38, -1.43310576677322387695e-01) (39, -5.23182787001132965088e-02) (40, 3.97206768393516540527e-02) (41, -1.06700494885444641113e-01) (42, 1.81106571108102798462e-02) (43, -7.22055613994598388672e-01) (44, -3.65043610334396362305e-01) (45, -2.36841768026351928711e-01) (46, -9.00820791721343994141e-02) (47, -1.26693174242973327637e-01) (48, -1.20753598213195800781e+00) (0, -2.44063630700111389160e-01) (1, -1.12157061696052551270e-01) (2, 2.04951576888561248779e-02) (3, -1.64905324578285217285e-01) (4, 1.23678356409072875977e-01) (5, -9.36315394937992095947e-03) (6, -1.37260720133781433105e-01) (7, -1.22932597994804382324e-01) (8, -2.01577752828598022461e-01) (9, 3.85117270052433013916e-02) (10, 1.81273281574249267578e-01) (11, 1.82574898004531860352e-01) (12, -2.72488564252853393555e-01) (13, -3.69761049747467041016e-01) (14, -3.16102296113967895508e-01) (15, 1.42731383442878723145e-01) (16, -1.14000014960765838623e-01) (17, 2.47250884771347045898e-01) (18, 2.15244684368371963501e-02) (19, 1.04609258472919464111e-01) (20, 1.47117659449577331543e-01) (21, 1.09999850392341613770e-01) (22, 2.18063667416572570801e-01) (23, 1.33548527956008911133e-01) (24, -6.96508288383483886719e-02) (25, 4.38831932842731475830e-02) (26, 8.16109031438827514648e-03) (27, -1.43794585019350051880e-02) (28, -2.27284759283065795898e-01) (29, -3.16724032163619995117e-02) (30, 4.07521575689315795898e-02) (31, 2.26203307509422302246e-01) (32, 3.95586118102073669434e-02) (33, 1.75168767571449279785e-01) (34, 1.63373515009880065918e-01) (35, 1.17014728486537933350e-01) (36, -3.52498665452003479004e-02) (37, -1.26428052783012390137e-01) (38, 1.60779252648353576660e-01) (39, -2.45701134204864501953e-01) (40, 4.09012893214821815491e-03) (41, 6.65877163410186767578e-02) (42, -8.56953021138906478882e-03) (43, 1.60867840051651000977e-01) (44, -1.24743103981018066406e-01) (45, -2.21642360091209411621e-01) (46, -1.90343067049980163574e-01) (47, -3.99946928024291992188e-01) (48, -1.60148751735687255859e+00) (0, -1.42878204584121704102e-01) (1, -2.15194433927536010742e-01) (2, -1.10061906278133392334e-01) (3, -1.75494924187660217285e-01) (4, -3.32264572381973266602e-01) (5, -3.80572490394115447998e-02) (6, -6.61565810441970825195e-02) (7, 6.29423633217811584473e-02) (8, -1.39734566211700439453e-01) (9, -2.94835060834884643555e-01) (10, -8.04740116000175476074e-02) (11, -1.51072457432746887207e-01) (12, -3.07145982980728149414e-01) (13, -1.81334875524044036865e-02) (14, -5.85336647927761077881e-02) (15, -1.16370901465415954590e-01) (16, -2.47913226485252380371e-01) (17, -3.07991057634353637695e-01) (18, -8.64043757319450378418e-02) (19, -1.96041822433471679688e-01) (20, -1.18227545171976089478e-02) (21, -1.55720606446266174316e-01) (22, -1.58090531826019287109e-01) (23, -2.02395960688591003418e-01) (24, -2.33118027448654174805e-01) (25, -2.07118719816207885742e-01) (26, -3.01541715860366821289e-01) (27, -2.24959746003150939941e-01) (28, -1.79405421018600463867e-01) (29, -1.41369357705116271973e-01) (30, -2.89980530738830566406e-01) (31, -6.46478533744812011719e-02) (32, 8.96282345056533813477e-02) (33, -1.96812823414802551270e-01) (34, -2.23081544041633605957e-01) (35, -1.89702689647674560547e-01) (36, -2.24601089954376220703e-01) (37, -2.54572898149490356445e-01) (38, -2.93308980762958526611e-02) (39, -2.06487476825714111328e-02) (40, 3.94498445093631744385e-02) (41, -1.36714875698089599609e-01) (42, -4.34786416590213775635e-02) (43, -4.08681273460388183594e-01) (44, -2.58475959300994873047e-01) (45, -1.70428112149238586426e-01) (46, -4.42905835807323455811e-02) (47, -1.25490203499794006348e-01) (48, -1.42320573329925537109e+00) (0, -1.19001194834709167480e-01) (1, 1.51914963498711585999e-02) (2, -3.92731614410877227783e-02) (3, -2.19984292984008789062e-01) (4, -3.04795771837234497070e-01) (5, -1.53283685445785522461e-01) (6, -3.47154676914215087891e-01) (7, -2.36333310604095458984e-01) (8, 1.55712351202964782715e-01) (9, 4.29745987057685852051e-02) (10, 8.76753404736518859863e-02) (11, 1.50789925828576087952e-02) (12, -4.02835458517074584961e-01) (13, -4.34037387371063232422e-01) (14, -1.10978230834007263184e-01) (15, -3.91911476850509643555e-01) (16, 1.72934859991073608398e-01) (17, 3.88909935951232910156e-01) (18, 8.13204497098922729492e-02) (19, 5.67718856036663055420e-02) (20, -3.55951339006423950195e-01) (21, -3.57607454061508178711e-01) (22, -5.62923774123191833496e-02) (23, -3.47721278667449951172e-02) (24, 2.11832910776138305664e-01) (25, 1.17946483194828033447e-01) (26, 4.72003519535064697266e-01) (27, 3.36672395467758178711e-01) (28, 2.46392294764518737793e-01) (29, -1.62967965006828308105e-01) (30, -4.33199815452098846436e-02) (31, -2.61314451694488525391e-01) (32, -3.94161552190780639648e-01) (33, 1.37762144207954406738e-01) (34, 1.25089585781097412109e-01) (35, 4.79478210210800170898e-01) (36, -9.37120169401168823242e-02) (37, 1.88723176717758178711e-01) (38, 1.85592755675315856934e-01) (39, -3.22355836629867553711e-01) (40, -4.30412352085113525391e-01) (41, -2.18243509531021118164e-01) (42, -1.14370934665203094482e-01) (43, 3.39618206024169921875e-01) (44, 1.79826989769935607910e-01) (45, 2.70501613616943359375e-01) (46, 1.90594971179962158203e-01) (47, -1.62289500236511230469e-01) (48, -1.65086007118225097656e+00) (0, -1.44123569130897521973e-01) (1, -2.72273361682891845703e-01) (2, -3.41890722513198852539e-01) (3, -7.72254616022109985352e-02) (4, -1.01081645488739013672e+00) (5, -8.05222272872924804688e-01) (6, -7.20118582248687744141e-01) (7, 5.79414255917072296143e-02) (8, -3.22019398212432861328e-01) (9, -6.26561641693115234375e-01) (10, -3.07267218828201293945e-01) (11, 1.07120625674724578857e-01) (12, -1.50725102424621582031e+00) (13, -5.53986132144927978516e-01) (14, 4.42954719066619873047e-01) (15, 4.39479917287826538086e-01) (16, -4.67843383550643920898e-01) (17, -9.44584310054779052734e-01) (18, -2.51731455326080322266e-01) (19, -3.37549299001693725586e-02) (20, -6.65741205215454101562e-01) (21, 3.66477936506271362305e-01) (22, 1.10866320133209228516e+00) (23, 5.09979605674743652344e-01) (24, -6.53850078582763671875e-01) (25, -5.23063719272613525391e-01) (26, -7.06953346729278564453e-01) (27, -7.94750571250915527344e-01) (28, 1.29716113209724426270e-01) (29, 7.40873515605926513672e-02) (30, 7.85924196243286132812e-01) (31, 4.52764451503753662109e-01) (32, -1.72211095690727233887e-01) (33, -4.96810346841812133789e-01) (34, -2.44718283414840698242e-01) (35, 5.30811548233032226562e-01) (36, 1.87630802392959594727e-01) (37, 5.84376096725463867188e-01) (38, 1.23576915264129638672e+00) (39, -4.94060844182968139648e-01) (40, -5.83279952406883239746e-02) (41, -1.25828921794891357422e-01) (42, 5.69989621639251708984e-01) (43, -3.81612367928028106689e-02) (44, 2.05976784229278564453e-01) (45, 4.15432631969451904297e-01) (46, 3.85549485683441162109e-01) (47, -4.60642069578170776367e-01) (48, -2.06069302558898925781e+00) (0, 1.20122544467449188232e-01) (1, -6.80292174220085144043e-02) (2, 1.04222102090716362000e-02) (3, 3.72546399012207984924e-03) (4, -2.59025841951370239258e-01) (5, -1.26128643751144409180e-01) (6, -1.17531150579452514648e-01) (7, -1.18638597428798675537e-01) (8, 2.47186571359634399414e-02) (9, -9.79039892554283142090e-02) (10, -1.45869906991720199585e-02) (11, -1.04710541665554046631e-01) (12, 3.11515131033957004547e-03) (13, -4.18247990310192108154e-02) (14, 5.08316457271575927734e-02) (15, -1.62867218255996704102e-01) (16, -4.08277325332164764404e-02) (17, -2.39522084593772888184e-01) (18, -1.92894339561462402344e-01) (19, -1.59660115838050842285e-01) (20, -2.85683274269104003906e-01) (21, -1.98701068758964538574e-01) (22, -1.09239451587200164795e-01) (23, -8.13080072402954101562e-02) (24, -2.08704680204391479492e-01) (25, -1.55371934175491333008e-01) (26, -1.97767004370689392090e-01) (27, -2.23488062620162963867e-01) (28, -8.13684239983558654785e-02) (29, -1.31960302591323852539e-01) (30, -9.97018441557884216309e-02) (31, -1.15481063723564147949e-01) (32, -2.05571219325065612793e-01) (33, -2.29374349117279052734e-01) (34, -2.45492771267890930176e-01) (35, -3.49032908678054809570e-01) (36, -2.48913526535034179688e-01) (37, -6.30179643630981445312e-02) (38, -4.70186024904251098633e-02) (39, -2.56904754787683486938e-02) (40, -1.17781408131122589111e-01) (41, -1.51670098304748535156e-01) (42, -1.73085376620292663574e-01) (43, -3.80221188068389892578e-01) (44, -2.93919682502746582031e-01) (45, -2.23025888204574584961e-01) (46, -4.83718402683734893799e-02) (47, -3.50662767887115478516e-02) (48, -1.49574196338653564453e+00) (0, -2.52968426793813705444e-02) (1, -1.07452929019927978516e-01) (2, -2.17883259057998657227e-01) (3, -2.30556651949882507324e-01) (4, -5.44697880744934082031e-01) (5, -2.09897443652153015137e-01) (6, -1.60701587796211242676e-01) (7, -1.90789401531219482422e-01) (8, -7.69220758229494094849e-03) (9, -2.31180474162101745605e-01) (10, -2.52970188856124877930e-01) (11, -3.71486514806747436523e-01) (12, -2.49127477407455444336e-01) (13, -1.66026622056961059570e-01) (14, -7.50783458352088928223e-02) (15, 8.93301889300346374512e-02) (16, -1.24710425734519958496e-01) (17, -2.85091817378997802734e-01) (18, -2.51356542110443115234e-01) (19, -5.35149753093719482422e-01) (20, -5.60085237026214599609e-01) (21, -4.92298543453216552734e-01) (22, -2.65541523694992065430e-01) (23, -6.01704418659210205078e-01) (24, 6.43636584281921386719e-02) (25, -2.23908662796020507812e-01) (26, -2.62436836957931518555e-01) (27, -4.08588677644729614258e-01) (28, -4.45537358522415161133e-01) (29, -4.36612725257873535156e-01) (30, -4.63552594184875488281e-01) (31, -6.20842933654785156250e-01) (32, -3.64572554826736450195e-02) (33, -3.97364377975463867188e-01) (34, -2.81273692846298217773e-01) (35, -5.60997009277343750000e-01) (36, -6.16091132164001464844e-01) (37, -4.30082559585571289062e-01) (38, -4.86114919185638427734e-01) (39, -5.59758283197879791260e-02) (40, 4.08309251070022583008e-02) (41, -2.67129182815551757812e-01) (42, -3.69053706526756286621e-02) (43, -5.71550726890563964844e-01) (44, -5.78850924968719482422e-01) (45, -3.44764411449432373047e-01) (46, -1.47813484072685241699e-01) (47, -1.33943304419517517090e-01) (48, -1.03794622421264648438e+00) (0, -2.14312806725502014160e-01) (1, -1.73555165529251098633e-02) (2, 3.94691079854965209961e-02) (3, -1.92395687103271484375e-01) (4, 2.51831948757171630859e-01) (5, 1.29312777426093816757e-03) (6, -1.62307411432266235352e-01) (7, -1.32871150970458984375e-01) (8, -1.89050301909446716309e-01) (9, 3.71739000082015991211e-01) (10, 3.24395924806594848633e-01) (11, -1.06483977288007736206e-02) (12, -3.09561759233474731445e-01) (13, -2.62630790472030639648e-01) (14, -3.16256046295166015625e-01) (15, -3.74996691942214965820e-01) (16, 3.57440382242202758789e-01) (17, 3.25874298810958862305e-01) (18, 2.72078067064285278320e-01) (19, 2.79979974031448364258e-01) (20, 1.05733215808868408203e-01) (21, 1.64053648710250854492e-01) (22, 3.02065283060073852539e-01) (23, 4.92695510387420654297e-01) (24, 3.19843590259552001953e-01) (25, 2.86549448966979980469e-01) (26, 2.57281184196472167969e-01) (27, 8.52666869759559631348e-02) (28, -1.73782691359519958496e-01) (29, 2.22438439726829528809e-01) (30, 4.92723584175109863281e-01) (31, 6.79492831230163574219e-01) (32, -3.04455887526273727417e-02) (33, 5.80846130847930908203e-01) (34, 6.21870338916778564453e-01) (35, 2.09442108869552612305e-01) (36, 5.35041727125644683838e-02) (37, 3.24464738368988037109e-01) (38, 4.54657495021820068359e-01) (39, 7.83990994095802307129e-02) (40, -1.67543828487396240234e-01) (41, 3.25733065605163574219e-01) (42, -7.74757340550422668457e-02) (43, 5.18523514270782470703e-01) (44, 1.54016897082328796387e-01) (45, 3.86162996292114257812e-02) (46, -2.39900071173906326294e-02) (47, -3.88376563787460327148e-02) (48, -1.45077133178710937500e+00) (0, 6.08159266412258148193e-02) (1, -2.37771943211555480957e-01) (2, -2.11407795548439025879e-01) (3, -6.24689124524593353271e-02) (4, -4.84691083431243896484e-01) (5, -2.91979908943176269531e-01) (6, -6.65783882141113281250e-02) (7, -3.81203554570674896240e-02) (8, 8.18993672728538513184e-02) (9, -4.78607803583145141602e-01) (10, -3.40109705924987792969e-01) (11, -1.97505012154579162598e-01) (12, -2.94844418764114379883e-01) (13, -1.67888537049293518066e-01) (14, 7.15482011437416076660e-02) (15, -1.51348859071731567383e-01) (16, -3.60243618488311767578e-01) (17, -6.39266610145568847656e-01) (18, -2.71493494510650634766e-01) (19, -3.98071736097335815430e-01) (20, -3.03895324468612670898e-01) (21, -3.43137234449386596680e-01) (22, -2.77088940143585205078e-01) (23, -2.13624358177185058594e-01) (24, -5.59468269348144531250e-01) (25, -5.70011258125305175781e-01) (26, -5.22417604923248291016e-01) (27, -5.50295293331146240234e-01) (28, -4.31438177824020385742e-01) (29, -5.31002223491668701172e-01) (30, -2.83440738916397094727e-01) (31, -1.26704543828964233398e-01) (32, -2.92893379926681518555e-01) (33, -8.11384499073028564453e-01) (34, -6.73465251922607421875e-01) (35, -8.74508202075958251953e-01) (36, -4.17673349380493164062e-01) (37, -3.38097751140594482422e-01) (38, -1.44034281373023986816e-01) (39, -1.07432790100574493408e-01) (40, 1.35135591030120849609e-01) (41, -4.89717692136764526367e-01) (42, -1.05860926210880279541e-01) (43, -1.07830953598022460938e+00) (44, -5.34517884254455566406e-01) (45, -2.75859296321868896484e-01) (46, -7.92204737663269042969e-02) (47, 1.80557765997946262360e-03) (48, -9.49079811573028564453e-01) (0, -1.77533105015754699707e-01) (1, -1.32441923022270202637e-01) (2, -1.73392415046691894531e-01) (3, -8.99974778294563293457e-02) (4, -3.86681765317916870117e-01) (5, -1.27081841230392456055e-01) (6, 1.04157598689198493958e-02) (7, 1.70450866222381591797e-01) (8, -2.06131950020790100098e-01) (9, -2.67144590616226196289e-01) (10, 2.73500196635723114014e-02) (11, -1.52736669406294822693e-02) (12, -3.95391643047332763672e-01) (13, 3.46252396702766418457e-02) (14, 3.92893776297569274902e-02) (15, 1.58811807632446289062e-01) (16, -4.01456385850906372070e-01) (17, -2.85402238368988037109e-01) (18, 1.12544856965541839600e-02) (19, -1.54624283313751220703e-01) (20, -1.80225178599357604980e-01) (21, -1.61024227738380432129e-01) (22, -3.96849587559700012207e-02) (23, -2.12078601121902465820e-01) (24, -3.10545623302459716797e-01) (25, -9.79964137077331542969e-02) (26, -2.52040445804595947266e-01) (27, -2.73613721132278442383e-01) (28, -3.52985769510269165039e-01) (29, 4.42545935511589050293e-02) (30, -1.61304101347923278809e-02) (31, -1.60338580608367919922e-02) (32, 5.32633550465106964111e-02) (33, -8.06178078055381774902e-02) (34, -6.82414993643760681152e-02) (35, -2.01291605830192565918e-01) (36, -1.18038378655910491943e-01) (37, -1.46727468818426132202e-02) (38, 4.33142296969890594482e-02) (39, -1.87909781932830810547e-01) (40, 1.99681296944618225098e-01) (41, -5.50621189177036285400e-02) (42, 8.93415436148643493652e-02) (43, -3.45055311918258666992e-01) (44, -1.90950945019721984863e-01) (45, -1.21973559260368347168e-01) (46, -8.96667540073394775391e-02) (47, -2.90580004453659057617e-01) (48, -1.54090940952301025391e+00) (0, -2.75716751813888549805e-01) (1, -1.31783574819564819336e-01) (2, -2.53283441998064517975e-03) (3, -6.13445304334163665771e-02) (4, -1.75503734499216079712e-02) (5, -1.93881429731845855713e-02) (6, -2.58012562990188598633e-02) (7, -2.97050736844539642334e-02) (8, -4.46044981479644775391e-01) (9, -8.11739191412925720215e-02) (10, 1.88405916094779968262e-01) (11, 1.54689103364944458008e-01) (12, -3.56307387351989746094e-01) (13, -9.71044898033142089844e-02) (14, -3.61713349819183349609e-01) (15, 2.03177601099014282227e-01) (16, -1.80931091308593750000e-01) (17, 1.18885546922683715820e-01) (18, 1.34285256266593933105e-01) (19, 1.74005795270204544067e-02) (20, 1.05800382792949676514e-01) (21, 1.33452296257019042969e-01) (22, 7.49210938811302185059e-02) (23, 2.46275309473276138306e-02) (24, -1.49354487657546997070e-01) (25, 7.44438767433166503906e-02) (26, -1.09009342268109321594e-02) (27, -1.32402405142784118652e-01) (28, -2.95323282480239868164e-01) (29, 1.34366109967231750488e-01) (30, -1.43295705318450927734e-01) (31, 1.41717180609703063965e-01) (32, 1.22645132243633270264e-01) (33, 8.78107622265815734863e-02) (34, -2.07300391048192977905e-02) (35, 2.99986940808594226837e-03) (36, -1.14712238311767578125e-01) (37, -1.71760842204093933105e-01) (38, -2.41319928318262100220e-02) (39, -2.18958690762519836426e-01) (40, 1.53561472892761230469e-01) (41, 9.08056050539016723633e-02) (42, -4.93272691965103149414e-02) (43, -1.49039238691329956055e-01) (44, -1.92260876297950744629e-01) (45, -2.59693920612335205078e-01) (46, -2.97726958990097045898e-01) (47, -3.85052114725112915039e-01) (48, -1.67963635921478271484e+00) (0, 3.53721156716346740723e-02) (1, -3.83230224251747131348e-02) (2, 2.03649457544088363647e-02) (3, -1.46275311708450317383e-01) (4, -3.41426096856594085693e-02) (5, 5.02993762493133544922e-02) (6, -9.29032266139984130859e-02) (7, 3.01600899547338485718e-02) (8, -6.08260445296764373779e-02) (9, -1.63526013493537902832e-01) (10, -1.07708849012851715088e-01) (11, -1.23718537390232086182e-01) (12, -2.36121103167533874512e-01) (13, -1.67421460151672363281e-01) (14, 4.97510880231857299805e-02) (15, -2.52310127019882202148e-01) (16, -8.65725576877593994141e-02) (17, -5.50531856715679168701e-02) (18, 4.28845454007387161255e-03) (19, -1.21902137994766235352e-01) (20, -8.56728479266166687012e-02) (21, -8.96894335746765136719e-02) (22, -6.47126883268356323242e-02) (23, 2.27621570229530334473e-02) (24, -1.47655978798866271973e-01) (25, -8.66129919886589050293e-02) (26, -1.10545620322227478027e-01) (27, -9.85408499836921691895e-02) (28, -1.55918180942535400391e-01) (29, -3.23238894343376159668e-02) (30, 7.82531499862670898438e-02) (31, 1.13921359181404113770e-01) (32, -7.66525343060493469238e-02) (33, -4.35579121112823486328e-02) (34, 1.70441895723342895508e-01) (35, -1.28804922103881835938e-01) (36, -1.80667221546173095703e-01) (37, -4.07724687829613685608e-03) (38, 1.05329379439353942871e-01) (39, -1.11423179507255554199e-01) (40, 3.35902757942676544189e-02) (41, -9.81581434607505798340e-02) (42, 3.04434671998023986816e-02) (43, -1.26698732376098632812e-01) (44, -1.45643398165702819824e-01) (45, -3.56619879603385925293e-02) (46, -9.98770743608474731445e-02) (47, 1.34529657661914825439e-02) (48, -1.60300195217132568359e+00) (0, -7.98779353499412536621e-02) (1, 1.33625403046607971191e-01) (2, 7.40644454956054687500e-01) (3, 3.76329213380813598633e-01) (4, -4.33486253023147583008e-01) (5, -4.27491247653961181641e-01) (6, -3.11015069484710693359e-01) (7, -1.72982644289731979370e-02) (8, 6.99960470199584960938e-01) (9, -2.91110314428806304932e-02) (10, 2.64057237654924392700e-02) (11, 4.35570552945137023926e-02) (12, -6.60706460475921630859e-01) (13, -1.84298619627952575684e-01) (14, -1.77491798996925354004e-01) (15, 3.24259519577026367188e-01) (16, -3.26060503721237182617e-01) (17, 1.37991964817047119141e-01) (18, -3.32531958818435668945e-01) (19, -2.66782343387603759766e-01) (20, -9.59680259227752685547e-01) (21, -9.73394095897674560547e-01) (22, -6.45462095737457275391e-01) (23, -1.13838386535644531250e+00) (24, 2.94387847185134887695e-01) (25, -2.78143584728240966797e-01) (26, -5.42803227901458740234e-01) (27, -5.98632335662841796875e-01) (28, -8.88793110847473144531e-01) (29, -9.20470237731933593750e-01) (30, -1.25364041328430175781e+00) (31, -7.59508430957794189453e-01) (32, -5.42603433132171630859e-02) (33, -5.12474536895751953125e-01) (34, -9.31924402713775634766e-01) (35, -1.58906674385070800781e+00) (36, -1.20115041732788085938e+00) (37, -6.81078791618347167969e-01) (38, -3.16332310438156127930e-01) (39, 9.42693278193473815918e-02) (40, 1.15352338179945945740e-02) (41, -5.24296164512634277344e-01) (42, -7.18835532665252685547e-01) (43, -1.83509731292724609375e+00) (44, -1.08903038501739501953e+00) (45, -6.66642606258392333984e-01) (46, 2.57594734430313110352e-01) (47, 1.17040790617465972900e-01) (48, -2.38684251904487609863e-01) (0, 5.46484351158142089844e-01) (1, 6.07965290546417236328e-01) (2, 9.63181853294372558594e-01) (3, 1.21055483818054199219e+00) (4, -6.15617275238037109375e-01) (5, -3.33305239677429199219e-01) (6, -8.95144343376159667969e-01) (7, 3.17001380026340484619e-02) (8, 3.24383169412612915039e-01) (9, 7.79699444770812988281e-01) (10, 7.39219844341278076172e-01) (11, 4.51134324073791503906e-01) (12, 8.26126575469970703125e-01) (13, 4.30740535259246826172e-01) (14, -8.92591893672943115234e-01) (15, -7.72465884685516357422e-01) (16, 1.40137940645217895508e-01) (17, -1.76635086536407470703e-02) (18, 2.75021374225616455078e-01) (19, 1.09420692920684814453e+00) (20, 6.99141100049018859863e-02) (21, 8.52414727210998535156e-01) (22, 9.72365200519561767578e-01) (23, 7.00948713347315788269e-03) (24, -7.96224534511566162109e-01) (25, 2.71558836102485656738e-02) (26, -3.41773629188537597656e-01) (27, 4.91072505712509155273e-01) (28, 1.29049718379974365234e+00) (29, 3.43079984188079833984e-01) (30, 6.65714621543884277344e-01) (31, 2.75061607360839843750e-01) (32, -4.60094571113586425781e-01) (33, -5.84945440292358398438e-01) (34, -5.63065767288208007812e-01) (35, -5.06975948810577392578e-01) (36, -6.27570629119873046875e-01) (37, 4.34410393238067626953e-01) (38, 1.07352972030639648438e+00) (39, 1.76824778318405151367e-01) (40, -5.80774128437042236328e-01) (41, -2.78415028005838394165e-02) (42, -7.26198792457580566406e-01) (43, -6.28504037857055664062e-01) (44, -3.88038694858551025391e-01) (45, -3.27707052230834960938e-01) (46, 4.89510357379913330078e-01) (47, 2.98500299453735351562e-01) (48, -3.43783712387084960938e+00) (0, -8.07196423411369323730e-02) (1, -5.81659935414791107178e-02) (2, -1.56566977500915527344e-01) (3, -1.11172579228878021240e-01) (4, -5.91300368309020996094e-01) (5, -1.68397665023803710938e-01) (6, -6.78838714957237243652e-02) (7, -3.90150211751461029053e-02) (8, 7.46739506721496582031e-02) (9, -3.29536497592926025391e-01) (10, -1.74626231193542480469e-01) (11, -1.93508416414260864258e-01) (12, -4.36293095350265502930e-01) (13, -8.46701040863990783691e-02) (14, 4.91542257368564605713e-02) (15, 9.18998792767524719238e-02) (16, -3.39869737625122070312e-01) (17, -3.65224123001098632812e-01) (18, -1.98967531323432922363e-01) (19, -4.75397944450378417969e-01) (20, -4.74176228046417236328e-01) (21, -4.57688748836517333984e-01) (22, -2.79341250658035278320e-01) (23, -6.23410701751708984375e-01) (24, -1.44686296582221984863e-01) (25, -3.57834964990615844727e-01) (26, -4.63027596473693847656e-01) (27, -5.59507071971893310547e-01) (28, -5.34127354621887207031e-01) (29, -5.20150125026702880859e-01) (30, -5.58838188648223876953e-01) (31, -6.64981544017791748047e-01) (32, 1.56873911619186401367e-01) (33, -5.79205274581909179688e-01) (34, -5.47186791896820068359e-01) (35, -9.16001021862030029297e-01) (36, -6.25138819217681884766e-01) (37, -4.61532086133956909180e-01) (38, -4.29216206073760986328e-01) (39, -3.48148941993713378906e-02) (40, 1.71026691794395446777e-01) (41, -2.69314259290695190430e-01) (42, -1.66995540261268615723e-01) (43, -1.03225255012512207031e+00) (44, -6.22753322124481201172e-01) (45, -4.37717467546463012695e-01) (46, 6.14971034228801727295e-02) (47, -5.03544434905052185059e-02) (48, -6.05278551578521728516e-01) (0, 1.81715607643127441406e-01) (1, 1.14618919789791107178e-01) (2, 2.72330343723297119141e-01) (3, 1.09104271978139877319e-02) (4, 1.35624751448631286621e-01) (5, 3.27506079338490962982e-03) (6, -2.52033084630966186523e-01) (7, -1.80901005864143371582e-01) (8, 6.88515380024909973145e-02) (9, 3.88418078422546386719e-01) (10, 4.11309242248535156250e-01) (11, 5.60381375253200531006e-02) (12, -2.44395717978477478027e-01) (13, -2.35191300511360168457e-01) (14, -3.82551908493041992188e-01) (15, -4.51743006706237792969e-01) (16, 7.31889188289642333984e-01) (17, 5.24502217769622802734e-01) (18, 2.26695939898490905762e-01) (19, 1.43038436770439147949e-01) (20, -1.80738463997840881348e-01) (21, 2.21364367753267288208e-02) (22, 9.22322347760200500488e-02) (23, 7.97673404216766357422e-01) (24, 5.55136680603027343750e-01) (25, 6.11034154891967773438e-01) (26, 8.33157360553741455078e-01) (27, 2.05779403448104858398e-01) (28, 1.83902680873870849609e-01) (29, 3.79199773073196411133e-01) (30, 9.84531164169311523438e-01) (31, 8.88010740280151367188e-01) (32, -1.66846945881843566895e-01) (33, 8.77890288829803466797e-01) (34, 8.23415577411651611328e-01) (35, 3.92418742179870605469e-01) (36, 4.48540225625038146973e-03) (37, 6.16886436939239501953e-01) (38, 4.26298052072525024414e-01) (39, 2.61205554008483886719e-01) (40, -3.14651250839233398438e-01) (41, 2.02222362160682678223e-01) (42, -8.07060077786445617676e-02) (43, 1.01590919494628906250e+00) (44, 4.15372580289840698242e-01) (45, 5.37287652492523193359e-01) (46, 2.20007479190826416016e-01) (47, 1.36057585477828979492e-01) (48, -1.34937536716461181641e+00) (0, 2.15433612465858459473e-02) (1, -1.51469334959983825684e-01) (2, -1.14344991743564605713e-01) (3, 3.55788022279739379883e-01) (4, -1.09501890838146209717e-01) (5, -1.88730895519256591797e-01) (6, 1.09242545440793037415e-02) (7, -1.89570896327495574951e-02) (8, -2.76005715131759643555e-01) (9, -8.57092618942260742188e-01) (10, -5.28567552566528320312e-01) (11, -4.70881581306457519531e-01) (12, 2.32824578881263732910e-01) (13, 2.20056802034378051758e-01) (14, 4.16525989770889282227e-01) (15, 2.66465488821268081665e-02) (16, -6.79706990718841552734e-01) (17, -1.19754517078399658203e+00) (18, -5.69711983203887939453e-01) (19, -9.68202471733093261719e-01) (20, -6.73583626747131347656e-01) (21, -1.35360449552536010742e-01) (22, 1.25935561954975128174e-02) (23, 5.60456097126007080078e-01) (24, -8.49541604518890380859e-01) (25, -1.08607137203216552734e+00) (26, -9.03206706047058105469e-01) (27, -1.00566327571868896484e+00) (28, -8.64961028099060058594e-01) (29, -8.88733148574829101562e-01) (30, -4.87831756472587585449e-02) (31, -3.90656255185604095459e-02) (32, -5.46546801924705505371e-02) (33, -1.05338895320892333984e+00) (34, -8.70090961456298828125e-01) (35, -1.11056685447692871094e+00) (36, -1.03859388828277587891e+00) (37, -5.65302550792694091797e-01) (38, -8.32469940185546875000e-01) (39, -5.48992939293384552002e-02) (40, 3.56674760580062866211e-01) (41, -4.00335758924484252930e-01) (42, -2.89235800504684448242e-01) (43, -1.18103766441345214844e+00) (44, -1.04096090793609619141e+00) (45, -8.62914323806762695312e-01) (46, -3.53823214769363403320e-01) (47, -6.37760996818542480469e-01) (48, -5.37330806255340576172e-01) (0, -2.15237066149711608887e-01) (1, -7.88552388548851013184e-02) (2, 2.92305536568164825439e-02) (3, -1.30189105868339538574e-01) (4, 2.04659104347229003906e-01) (5, -3.73724382370710372925e-03) (6, -2.94015198945999145508e-01) (7, -1.89085036516189575195e-01) (8, -3.26085388660430908203e-01) (9, 3.19402128458023071289e-01) (10, 2.42492541670799255371e-01) (11, 1.74031898379325866699e-01) (12, -1.57447904348373413086e-01) (13, -4.83054012060165405273e-01) (14, -3.08210641145706176758e-01) (15, 1.67434941977262496948e-02) (16, 1.84058710932731628418e-01) (17, 3.83082687854766845703e-01) (18, -3.32414917647838592529e-02) (19, 2.23427206277847290039e-01) (20, 2.18833968043327331543e-01) (21, 2.60309189558029174805e-01) (22, 5.99565565586090087891e-01) (23, 5.05245506763458251953e-01) (24, 2.16988071799278259277e-01) (25, -1.32890164852142333984e-01) (26, 1.65740832686424255371e-01) (27, -1.01979807019233703613e-01) (28, -1.78246170282363891602e-01) (29, 9.50688421726226806641e-02) (30, 2.49650165438652038574e-01) (31, 6.13838076591491699219e-01) (32, -1.80723160505294799805e-01) (33, 2.19127371907234191895e-01) (34, 3.16941499710083007812e-01) (35, 2.94790901243686676025e-02) (36, -4.13674069568514823914e-03) (37, 8.79053585231304168701e-03) (38, 2.63389617204666137695e-01) (39, -1.18290252983570098877e-01) (40, -1.81576639413833618164e-01) (41, 2.06042304635047912598e-01) (42, -1.70980691909790039062e-01) (43, 2.36584067344665527344e-01) (44, 1.20883390307426452637e-01) (45, -1.90884128212928771973e-01) (46, -1.78670585155487060547e-01) (47, -2.45887637138366699219e-01) (48, -1.60369729995727539062e+00) (0, 6.85860812664031982422e-02) (1, -1.42103224992752075195e-01) (2, 5.13712614774703979492e-02) (3, -1.85453176498413085938e-01) (4, -2.71073430776596069336e-01) (5, -9.71671491861343383789e-02) (6, -1.27065688371658325195e-01) (7, -7.16542303562164306641e-02) (8, -1.05423830449581146240e-01) (9, -2.73919194936752319336e-01) (10, 1.71817298978567123413e-02) (11, -2.48872533440589904785e-01) (12, -3.06995481252670288086e-01) (13, -1.91075727343559265137e-01) (14, -1.46421426907181739807e-02) (15, -1.31850689649581909180e-01) (16, -1.97006016969680786133e-01) (17, -3.40354382991790771484e-01) (18, -5.12483939528465270996e-02) (19, -2.11358129978179931641e-01) (20, -1.17928601801395416260e-01) (21, -2.32142597436904907227e-01) (22, -6.92106187343597412109e-02) (23, 1.60866886377334594727e-01) (24, -1.79506868124008178711e-01) (25, -1.84018388390541076660e-01) (26, -2.73888379335403442383e-01) (27, -9.15822684764862060547e-02) (28, -3.68763536214828491211e-01) (29, -2.13486165739595890045e-03) (30, 9.22318473458290100098e-02) (31, 2.55530267953872680664e-01) (32, -3.75576540827751159668e-02) (33, -2.67613559961318969727e-01) (34, -1.27187326550483703613e-01) (35, -3.92255261540412902832e-02) (36, -1.74765348434448242188e-01) (37, 1.13816469907760620117e-01) (38, 2.76985973119735717773e-01) (39, 1.29501856863498687744e-02) (40, -5.69015406072139739990e-02) (41, 1.51961278170347213745e-02) (42, -6.86338543891906738281e-02) (43, -7.48227983713150024414e-02) (44, -1.37590691447257995605e-01) (45, 1.08310538053046911955e-04) (46, 2.50239633023738861084e-02) (47, 2.11400650441646575928e-02) (48, -1.67788195610046386719e+00) (0, 1.26705944538116455078e-01) (1, 4.46314550936222076416e-02) (2, 1.13410085439682006836e-01) (3, 1.94775402545928955078e-01) (4, -3.30258578062057495117e-01) (5, -1.31201520562171936035e-01) (6, -2.73605585098266601562e-01) (7, -1.42324879765510559082e-01) (8, 1.45451188087463378906e-01) (9, -1.04721836745738983154e-01) (10, -2.04881988465785980225e-02) (11, -2.23793432116508483887e-01) (12, 1.76744431257247924805e-01) (13, 4.19359244406223297119e-02) (14, -1.36329397559165954590e-01) (15, -1.54720157384872436523e-01) (16, -8.47904011607170104980e-02) (17, -1.89954489469528198242e-01) (18, -1.64147302508354187012e-01) (19, -6.31534978747367858887e-02) (20, -3.13515245914459228516e-01) (21, -4.61395457386970520020e-02) (22, -9.83380153775215148926e-02) (23, -1.58556014299392700195e-01) (24, 6.94865081459283828735e-03) (25, -1.86455398797988891602e-01) (26, -1.73272117972373962402e-01) (27, -2.64012277126312255859e-01) (28, -5.08692115545272827148e-02) (29, -2.08126261830329895020e-01) (30, 6.73964396119117736816e-02) (31, -1.88924759626388549805e-01) (32, -1.91273823380470275879e-01) (33, -2.62758851051330566406e-01) (34, -1.86133801937103271484e-01) (35, -4.03578758239746093750e-01) (36, -3.32385540008544921875e-01) (37, -1.50742441415786743164e-01) (38, -1.52867799624800682068e-02) (39, -1.51655972003936767578e-02) (40, -2.57110834121704101562e-01) (41, -2.25108444690704345703e-01) (42, -2.39943623542785644531e-01) (43, -4.09922003746032714844e-01) (44, -2.41794407367706298828e-01) (45, -2.18959078192710876465e-01) (46, 7.24855531007051467896e-03) (47, 1.81771531701087951660e-01) (48, -1.50370311737060546875e+00) (0, -4.77244891226291656494e-02) (1, -4.84968684613704681396e-02) (2, -6.34060204029083251953e-02) (3, -4.26169671118259429932e-02) (4, -1.03815473616123199463e-01) (5, -7.07924589514732360840e-02) (6, -1.32343485951423645020e-01) (7, -2.55221389234066009521e-02) (8, -4.66413944959640502930e-02) (9, -2.74948894977569580078e-01) (10, -1.84657871723175048828e-02) (11, -2.32034087181091308594e-01) (12, -2.13852301239967346191e-01) (13, -6.57097995281219482422e-02) (14, -8.70416164398193359375e-02) (15, -2.38239258527755737305e-01) (16, -2.69516885280609130859e-01) (17, -3.16878050565719604492e-01) (18, -5.34049086272716522217e-02) (19, -2.18093216419219970703e-01) (20, -3.01967114210128784180e-01) (21, -3.06234061717987060547e-01) (22, -1.32760927081108093262e-01) (23, 1.72476068139076232910e-01) (24, -2.89650648832321166992e-01) (25, -7.78886973857879638672e-02) (26, -1.34356260299682617188e-01) (27, -2.14712858200073242188e-01) (28, -2.26044178009033203125e-01) (29, -1.51604294776916503906e-01) (30, -1.14673674106597900391e-02) (31, 2.30676859617233276367e-01) (32, -1.97004303336143493652e-01) (33, -1.30757704377174377441e-01) (34, -3.84893789887428283691e-02) (35, -3.17973673343658447266e-01) (36, -2.77640938758850097656e-01) (37, -9.82520952820777893066e-02) (38, 5.10332323610782623291e-02) (39, -8.62828269600868225098e-02) (40, -5.01311197876930236816e-02) (41, -1.17098599672317504883e-01) (42, -7.30086416006088256836e-02) (43, -3.48007619380950927734e-01) (44, -1.25618323683738708496e-01) (45, -1.36864110827445983887e-01) (46, 9.98147949576377868652e-03) (47, -4.18198592960834503174e-02) (48, -1.56863713264465332031e+00) (0, -1.64230614900588989258e-01) (1, -8.15747678279876708984e-02) (2, -4.50197653844952583313e-03) (3, -2.19802722334861755371e-01) (4, -7.43608772754669189453e-02) (5, 8.76262485980987548828e-02) (6, -9.21721979975700378418e-02) (7, -3.34765732986852526665e-04) (8, -2.98812419176101684570e-01) (9, -8.46271514892578125000e-02) (10, -6.28163963556289672852e-02) (11, -8.52640997618436813354e-03) (12, -2.16338753700256347656e-01) (13, -1.43039569258689880371e-01) (14, -2.54727387800812721252e-03) (15, -1.21245428919792175293e-01) (16, -4.40738536417484283447e-02) (17, 1.57888028770685195923e-02) (18, 1.61067903041839599609e-01) (19, -4.76327650249004364014e-02) (20, 3.93188484013080596924e-02) (21, 1.23813487589359283447e-01) (22, 4.89397570490837097168e-02) (23, 1.13184757530689239502e-01) (24, -1.24845579266548156738e-01) (25, -1.15513196215033531189e-02) (26, -7.27490559220314025879e-02) (27, 7.47803086414933204651e-03) (28, -1.98632806539535522461e-01) (29, 1.57949283719062805176e-01) (30, 1.98312714695930480957e-01) (31, 2.96333819627761840820e-01) (32, 9.61796417832374572754e-02) (33, -4.10574376583099365234e-02) (34, 2.95034021139144897461e-01) (35, 1.60016193985939025879e-01) (36, 5.46438843011856079102e-02) (37, 1.19582854211330413818e-01) (38, 2.49790400266647338867e-01) (39, -1.07269614934921264648e-01) (40, -1.00387660786509513855e-02) (41, 1.34061366319656372070e-01) (42, 1.55710175633430480957e-01) (43, 1.85738921165466308594e-01) (44, 1.08717102557420730591e-02) (45, 4.87522482872009277344e-02) (46, -9.35700461268424987793e-02) (47, -1.36579975485801696777e-01) (48, -1.64547455310821533203e+00) (0, -4.36366610229015350342e-02) (1, -9.23526808619499206543e-02) (2, -1.20820209383964538574e-01) (3, -1.63745388388633728027e-01) (4, -1.49446427822113037109e-01) (5, -9.29047390818595886230e-02) (6, -7.12044090032577514648e-02) (7, -3.99753041565418243408e-02) (8, -4.44997437298297882080e-02) (9, -2.19105169177055358887e-01) (10, -4.92427237331867218018e-02) (11, -1.02876566350460052490e-01) (12, -2.18256741762161254883e-01) (13, -1.37043625116348266602e-01) (14, -1.26758562400937080383e-02) (15, -4.12391461431980133057e-02) (16, -2.70008236169815063477e-01) (17, -1.74057602882385253906e-01) (18, -1.46863415837287902832e-01) (19, -2.69082516431808471680e-01) (20, -2.82131016254425048828e-01) (21, -2.47651875019073486328e-01) (22, -1.39279499650001525879e-01) (23, -9.55687388777732849121e-02) (24, -2.04096794128417968750e-01) (25, -1.12410783767700195312e-01) (26, -2.37207099795341491699e-01) (27, -3.00778925418853759766e-01) (28, -2.79154658317565917969e-01) (29, -1.42090424895286560059e-01) (30, -2.29979589581489562988e-01) (31, -5.20432628691196441650e-02) (32, -6.97870030999183654785e-02) (33, -2.36123934388160705566e-01) (34, -2.39995852112770080566e-01) (35, -3.64111036062240600586e-01) (36, -3.19222122430801391602e-01) (37, -2.56907910108566284180e-01) (38, -4.07619141042232513428e-02) (39, -1.84373278170824050903e-02) (40, -1.11127411946654319763e-02) (41, -4.58512306213378906250e-02) (42, -5.73754534125328063965e-02) (43, -4.69503432512283325195e-01) (44, -3.40070515871047973633e-01) (45, -2.26197272539138793945e-01) (46, -3.41975800693035125732e-02) (47, -9.62909236550331115723e-02) (48, -1.41149687767028808594e+00) (0, 1.71985626220703125000e-02) (1, -5.22136241197586059570e-02) (2, -1.84113740921020507812e-01) (3, 2.30561681091785430908e-02) (4, -4.72934842109680175781e-01) (5, -2.54694491624832153320e-01) (6, -2.20357671380043029785e-01) (7, -1.72778770327568054199e-01) (8, 1.12036608159542083740e-01) (9, -3.99331599473953247070e-01) (10, -1.96574568748474121094e-01) (11, -3.66879671812057495117e-01) (12, -2.09649458527565002441e-01) (13, -1.09147325158119201660e-01) (14, 5.12758865952491760254e-02) (15, -8.48573297262191772461e-02) (16, -3.32693874835968017578e-01) (17, -6.18840873241424560547e-01) (18, -3.38659316301345825195e-01) (19, -4.68565553426742553711e-01) (20, -3.01518797874450683594e-01) (21, -3.90557587146759033203e-01) (22, -3.41628462076187133789e-01) (23, -3.16710442304611206055e-01) (24, -5.16721010208129882812e-01) (25, -4.97184902429580688477e-01) (26, -6.58681690692901611328e-01) (27, -5.96907973289489746094e-01) (28, -3.69261324405670166016e-01) (29, -5.41044473648071289062e-01) (30, -5.18114984035491943359e-01) (31, -3.49389821290969848633e-01) (32, -3.74823153018951416016e-01) (33, -7.32553780078887939453e-01) (34, -6.34207367897033691406e-01) (35, -9.22805666923522949219e-01) (36, -5.06110489368438720703e-01) (37, -2.83204585313796997070e-01) (38, -2.71798044443130493164e-01) (39, -7.17587023973464965820e-02) (40, 9.31643042713403701782e-03) (41, -3.81960004568099975586e-01) (42, 8.14736355096101760864e-03) (43, -1.19045925140380859375e+00) (44, -5.90008318424224853516e-01) (45, -3.95674139261245727539e-01) (46, 1.53986865188926458359e-03) (47, 8.31548031419515609741e-03) (48, -6.89865946769714355469e-01) (0, -7.73164555430412292480e-02) (1, -2.13799893856048583984e-01) (2, -1.44086673855781555176e-01) (3, -8.46976116299629211426e-02) (4, -2.91716903448104858398e-01) (5, -2.21898198127746582031e-01) (6, 2.83427350223064422607e-03) (7, 3.07987397536635398865e-03) (8, -1.32296696305274963379e-01) (9, -3.80140721797943115234e-01) (10, -7.92795121669769287109e-02) (11, -7.05376043915748596191e-02) (12, -4.30019557476043701172e-01) (13, -9.10086184740066528320e-02) (14, 1.23162418603897094727e-01) (15, 1.66659094393253326416e-02) (16, -3.44365775585174560547e-01) (17, -4.36356753110885620117e-01) (18, -1.92550495266914367676e-01) (19, -2.68632829189300537109e-01) (20, -2.59601354598999023438e-01) (21, -2.23009645938873291016e-01) (22, -7.79178887605667114258e-02) (23, -1.86562892049551010132e-02) (24, -3.02248775959014892578e-01) (25, -3.04607182741165161133e-01) (26, -2.65255004167556762695e-01) (27, -2.96266466379165649414e-01) (28, -3.82767587900161743164e-01) (29, -2.92787194252014160156e-01) (30, -1.01225093007087707520e-01) (31, 4.93510439991950988770e-02) (32, -5.97014091908931732178e-02) (33, -3.42689633369445800781e-01) (34, -3.22020858526229858398e-01) (35, -2.84608393907546997070e-01) (36, -2.25472897291183471680e-01) (37, -1.82876676321029663086e-01) (38, -4.87745404243469238281e-02) (39, -1.05564489960670471191e-01) (40, 6.75339847803115844727e-02) (41, -3.55254299938678741455e-02) (42, -8.12783986330032348633e-02) (43, -4.93109375238418579102e-01) (44, -3.50486755371093750000e-01) (45, -2.46206760406494140625e-01) (46, -4.30112481117248535156e-02) (47, 4.04240414500236511230e-02) (48, -1.44144916534423828125e+00) (0, -4.37150031328201293945e-01) (1, -5.03916680812835693359e-01) (2, -2.12289050221443176270e-01) (3, 1.48363187909126281738e-01) (4, 3.13147246837615966797e-01) (5, 4.19392921030521392822e-02) (6, 9.77216213941574096680e-02) (7, 1.59797832369804382324e-01) (8, -9.24331963062286376953e-01) (9, -3.33250373601913452148e-01) (10, 2.16558873653411865234e-01) (11, -2.23489478230476379395e-01) (12, 5.54454445838928222656e-01) (13, 6.47545278072357177734e-01) (14, -3.51543277502059936523e-01) (15, -4.26965355873107910156e-01) (16, -2.97029882669448852539e-01) (17, -1.12035468220710754395e-01) (18, 8.47864627838134765625e-01) (19, 7.38219738006591796875e-01) (20, 9.51731979846954345703e-01) (21, 1.11962330341339111328e+00) (22, 3.79840999841690063477e-01) (23, 2.60985165834426879883e-01) (24, -3.62869918346405029297e-01) (25, -4.02865633368492126465e-02) (26, 5.06559431552886962891e-01) (27, 3.57316732406616210938e-01) (28, 3.54748398065567016602e-01) (29, 8.07212412357330322266e-01) (30, 3.01367044448852539062e-01) (31, 3.00664693117141723633e-01) (32, 7.48360812664031982422e-01) (33, 5.96977412700653076172e-01) (34, 7.12350606918334960938e-01) (35, 1.30058681964874267578e+00) (36, 4.58447039127349853516e-01) (37, 4.94974404573440551758e-01) (38, -1.82864353060722351074e-01) (39, -4.05358344316482543945e-01) (40, 5.20354270935058593750e-01) (41, 5.84758102893829345703e-01) (42, 4.95273649692535400391e-01) (43, 1.03991281986236572266e+00) (44, -2.01666235923767089844e-01) (45, -4.94198739528656005859e-01) (46, -8.90822231769561767578e-01) (47, -4.51375186443328857422e-01) (48, -2.27256226539611816406e+00) (0, 2.53990851342678070068e-02) (1, -7.65155926346778869629e-02) (2, -1.50065854191780090332e-01) (3, -1.33050531148910522461e-01) (4, -1.24789632856845855713e-01) (5, -5.65354339778423309326e-02) (6, -2.89508789777755737305e-01) (7, -2.40148320794105529785e-01) (8, 1.29342645406723022461e-01) (9, 2.05447524785995483398e-02) (10, -3.49612534046173095703e-02) (11, -1.72797501087188720703e-01) (12, -1.04798972606658935547e-01) (13, -2.82017234712839126587e-02) (14, -1.23971523717045783997e-02) (15, -2.58404791355133056641e-01) (16, -5.95579929649829864502e-02) (17, -1.06318764388561248779e-01) (18, -1.02344386279582977295e-01) (19, -8.10536295175552368164e-02) (20, -3.11322927474975585938e-01) (21, -6.33251145482063293457e-02) (22, -5.61103969812393188477e-02) (23, 3.08058913797140121460e-02) (24, -3.52981239557266235352e-02) (25, -1.04122295975685119629e-01) (26, 3.95221784710884094238e-02) (27, -1.50071024894714355469e-01) (28, -1.37631028890609741211e-01) (29, -1.45329654216766357422e-01) (30, 1.02154657244682312012e-01) (31, -1.72965973615646362305e-01) (32, -1.94239616394042968750e-01) (33, -2.90984690189361572266e-01) (34, -9.42435488104820251465e-02) (35, -2.14929163455963134766e-01) (36, -3.41429710388183593750e-01) (37, -9.28078219294548034668e-02) (38, -1.49443730711936950684e-01) (39, -7.44956135749816894531e-02) (40, -1.17970027029514312744e-01) (41, -2.61458605527877807617e-01) (42, -2.38584354519844055176e-01) (43, -2.79880076646804809570e-01) (44, -1.60740464925765991211e-01) (45, -9.82237681746482849121e-02) (46, -1.08589671552181243896e-01) (47, 9.35880541801452636719e-02) (48, -1.56486070156097412109e+00) (0, -1.52557976543903350830e-02) (1, -2.17523500323295593262e-02) (2, -7.43260234594345092773e-02) (3, -1.59629017114639282227e-01) (4, -7.91023522615432739258e-02) (5, -1.44748300313949584961e-01) (6, -1.89564958214759826660e-01) (7, -1.85128405690193176270e-01) (8, 7.34627479687333106995e-03) (9, 3.86412441730499267578e-02) (10, 7.27976262569427490234e-02) (11, 2.07940600812435150146e-02) (12, -2.08683475852012634277e-01) (13, -3.78430396318435668945e-01) (14, -8.04507434368133544922e-02) (15, -4.55382615327835083008e-02) (16, 2.01266914606094360352e-01) (17, 2.11535051465034484863e-01) (18, -1.13448634743690490723e-01) (19, -4.30074110627174377441e-02) (20, -1.60041913390159606934e-01) (21, 1.47575233131647109985e-02) (22, 3.63674908876419067383e-02) (23, -5.26220910251140594482e-03) (24, 2.12301686406135559082e-01) (25, 1.09729422256350517273e-02) (26, 7.59732723236083984375e-02) (27, 7.42005300708115100861e-04) (28, -1.00621730089187622070e-01) (29, -2.07872539758682250977e-01) (30, 6.45591542124748229980e-02) (31, 7.89098963141441345215e-02) (32, -1.21400170028209686279e-01) (33, 8.46864432096481323242e-02) (34, -9.47284791618585586548e-03) (35, 5.81415519118309020996e-02) (36, -1.26147776842117309570e-01) (37, -8.00662785768508911133e-02) (38, -8.25010016560554504395e-02) (39, -1.85649588704109191895e-01) (40, -3.24196279048919677734e-01) (41, -1.15658566355705261230e-02) (42, -6.85476437211036682129e-02) (43, 7.13157057762145996094e-02) (44, 3.98305989801883697510e-02) (45, 5.72019396349787712097e-03) (46, -4.20244634151458740234e-02) (47, -8.24982002377510070801e-02) (48, -1.61568152904510498047e+00) (0, 7.29065795894712209702e-04) (1, -1.11508466303348541260e-01) (2, -1.07182584702968597412e-01) (3, -1.91682055592536926270e-01) (4, -1.26497507095336914062e-01) (5, -1.12649999558925628662e-01) (6, -2.47242838144302368164e-01) (7, -1.29975810647010803223e-01) (8, 1.78248599171638488770e-01) (9, 1.77011385560035705566e-01) (10, 9.86366868019104003906e-02) (11, -5.20949289202690124512e-02) (12, -2.50041037797927856445e-01) (13, -3.04287016391754150391e-01) (14, -8.45582187175750732422e-02) (15, -1.53445422649383544922e-01) (16, 1.48579403758049011230e-01) (17, 2.40935489535331726074e-01) (18, -5.63792586326599121094e-02) (19, -1.37400282546877861023e-02) (20, -4.53593730926513671875e-02) (21, 2.59753111749887466431e-02) (22, 9.44803133606910705566e-02) (23, 1.24803081154823303223e-01) (24, 1.52913019061088562012e-01) (25, 4.78717572987079620361e-02) (26, 2.24564060568809509277e-01) (27, 9.21463742852210998535e-02) (28, -3.47269959747791290283e-02) (29, -1.43213704228401184082e-01) (30, 2.03600436449050903320e-01) (31, 1.29874125123023986816e-01) (32, -2.05745369195938110352e-01) (33, 1.55818119645118713379e-01) (34, 1.90267235040664672852e-01) (35, 3.56922782957553863525e-02) (36, -2.76621699333190917969e-01) (37, 2.53381347283720970154e-03) (38, -1.17287598550319671631e-02) (39, -1.86724483966827392578e-01) (40, -3.08198064565658569336e-01) (41, -1.46710183471441268921e-02) (42, -2.03203737735748291016e-01) (43, 2.06810787320137023926e-01) (44, -2.60405242443084716797e-02) (45, -5.30146853998303413391e-03) (46, 4.01664562523365020752e-02) (47, -6.86148777604103088379e-02) (48, -1.59457993507385253906e+00) (0, -1.34357037022709846497e-02) (1, -1.34770333766937255859e-01) (2, -1.30393533036112785339e-02) (3, 6.73128291964530944824e-03) (4, -2.65873014926910400391e-01) (5, -1.35950013995170593262e-01) (6, -2.44660809636116027832e-01) (7, -2.06123262643814086914e-01) (8, 4.56355400383472442627e-02) (9, 1.21422752737998962402e-01) (10, -4.10183221101760864258e-02) (11, -7.34888091683387756348e-02) (12, -1.32284723222255706787e-02) (13, -1.74410820007324218750e-01) (14, -1.36030837893486022949e-01) (15, -2.21712917089462280273e-01) (16, 1.57964944839477539062e-01) (17, -3.32967936992645263672e-02) (18, -3.57367731630802154541e-02) (19, 6.90381648018956184387e-03) (20, -1.70981004834175109863e-01) (21, -8.66964831948280334473e-03) (22, -1.11856320872902870178e-02) (23, -5.90019896626472473145e-02) (24, 1.62305757403373718262e-01) (25, -1.06796599924564361572e-01) (26, -1.11940652132034301758e-01) (27, -2.42957398295402526855e-02) (28, 1.43224075436592102051e-01) (29, -8.83038416504859924316e-02) (30, 6.71722814440727233887e-02) (31, -2.00070708990097045898e-01) (32, -2.31256902217864990234e-01) (33, -2.28959750384092330933e-02) (34, -1.70828744769096374512e-01) (35, -3.03284764289855957031e-01) (36, -4.66399222612380981445e-01) (37, -7.09277018904685974121e-02) (38, 9.73416939377784729004e-02) (39, -1.11345924437046051025e-01) (40, -3.66612851619720458984e-01) (41, -2.65134364366531372070e-01) (42, -7.78067931532859802246e-02) (43, -2.28459030389785766602e-01) (44, -1.77781909704208374023e-01) (45, -1.79931178689002990723e-01) (46, -2.86141745746135711670e-02) (47, 4.74685207009315490723e-02) (48, -1.58951461315155029297e+00) (0, -5.47295482829213142395e-03) (1, 3.68808358907699584961e-02) (2, 1.52070730924606323242e-01) (3, -1.51189088821411132812e-01) (4, 1.38645917177200317383e-01) (5, -4.68641286715865135193e-03) (6, -2.91628301143646240234e-01) (7, -9.90929007530212402344e-02) (8, -1.56761378049850463867e-01) (9, 4.71402168273925781250e-01) (10, 3.52783501148223876953e-01) (11, 1.59482181072235107422e-01) (12, -3.24457764625549316406e-01) (13, -2.83169120550155639648e-01) (14, -2.52908915281295776367e-01) (15, -5.07844090461730957031e-01) (16, 6.03649914264678955078e-01) (17, 5.75467646121978759766e-01) (18, 1.25453263521194458008e-01) (19, 1.39618366956710815430e-01) (20, -1.27606153488159179688e-01) (21, 6.10862076282501220703e-02) (22, 1.42334938049316406250e-01) (23, 7.18250334262847900391e-01) (24, 4.96287316083908081055e-01) (25, 4.34386968612670898438e-01) (26, 5.22879719734191894531e-01) (27, 1.52717977762222290039e-01) (28, 5.41570112109184265137e-02) (29, 3.70712518692016601562e-01) (30, 6.00186884403228759766e-01) (31, 7.83666074275970458984e-01) (32, -1.25617682933807373047e-01) (33, 6.98436319828033447266e-01) (34, 6.81406736373901367188e-01) (35, 3.70360136032104492188e-01) (36, -6.53361082077026367188e-02) (37, 3.84648531675338745117e-01) (38, 3.88455539941787719727e-01) (39, 1.16599828004837036133e-01) (40, -2.00827986001968383789e-01) (41, 2.32624799013137817383e-01) (42, -1.12986855208873748779e-01) (43, 6.18734419345855712891e-01) (44, 2.69881933927536010742e-01) (45, 3.15306782722473144531e-01) (46, 6.01038597524166107178e-02) (47, 9.76249426603317260742e-02) (48, -1.40370428562164306641e+00) (0, -4.86120581626892089844e-03) (1, -3.19767259061336517334e-02) (2, 1.02277055382728576660e-01) (3, -1.31047368049621582031e-01) (4, -5.70878982543945312500e-01) (5, -4.43551629781723022461e-01) (6, -1.65683105587959289551e-01) (7, -2.25799512118101119995e-02) (8, 8.62074047327041625977e-02) (9, -2.60615020990371704102e-01) (10, -2.63724494725465774536e-02) (11, -1.46432578563690185547e-01) (12, -6.66078805923461914062e-01) (13, -7.47032165527343750000e-02) (14, -1.02264888584613800049e-01) (15, 3.60626988112926483154e-02) (16, -3.47737938165664672852e-01) (17, -3.60071212053298950195e-01) (18, -2.53182440996170043945e-01) (19, -4.24661338329315185547e-01) (20, -3.47859889268875122070e-01) (21, -3.75278055667877197266e-01) (22, -2.52648651599884033203e-01) (23, -4.07555192708969116211e-01) (24, -3.50354492664337158203e-01) (25, -3.74463438987731933594e-01) (26, -6.97524487972259521484e-01) (27, -4.53945696353912353516e-01) (28, -4.98389631509780883789e-01) (29, -4.35297340154647827148e-01) (30, -6.07445120811462402344e-01) (31, -5.21107800304889678955e-02) (32, -2.83229589462280273438e-01) (33, -5.98307609558105468750e-01) (34, -6.75941467285156250000e-01) (35, -6.71142220497131347656e-01) (36, -3.11562627553939819336e-01) (37, -3.76291245222091674805e-01) (38, 8.47237631678581237793e-02) (39, 1.03017859160900115967e-01) (40, 6.86379298567771911621e-02) (41, -3.06017428636550903320e-01) (42, -1.04665092658251523972e-03) (43, -1.14267587661743164062e+00) (44, -5.15366256237030029297e-01) (45, -3.85878860950469970703e-01) (46, 2.25791513919830322266e-01) (47, 9.77391451597213745117e-02) (48, -8.83230030536651611328e-01) (0, -1.10536962747573852539e-01) (1, -6.62911310791969299316e-02) (2, 5.81260472536087036133e-02) (3, -1.33686855435371398926e-01) (4, -7.30832368135452270508e-02) (5, -3.16761545836925506592e-02) (6, -1.27922594547271728516e-01) (7, -1.57381147146224975586e-02) (8, -1.15962468087673187256e-01) (9, 1.04796603322029113770e-01) (10, 1.39245137572288513184e-01) (11, 7.18612298369407653809e-02) (12, -1.23792968690395355225e-01) (13, -1.71529263257980346680e-01) (14, -1.57965764403343200684e-01) (15, -1.78494319319725036621e-01) (16, 3.96786481142044067383e-02) (17, 2.56723817437887191772e-02) (18, -1.29937604069709777832e-02) (19, -1.20244827121496200562e-02) (20, -4.73939888179302215576e-02) (21, -8.52245092391967773438e-02) (22, 2.56287753582000732422e-02) (23, 1.15760833024978637695e-01) (24, 3.42876836657524108887e-02) (25, 1.06154382228851318359e-01) (26, 1.29806071519851684570e-01) (27, 1.05753727257251739502e-02) (28, -1.08516775071620941162e-01) (29, 6.23030625283718109131e-02) (30, 1.59644708037376403809e-01) (31, 1.19177713990211486816e-01) (32, -1.36421829462051391602e-01) (33, 1.78336903452873229980e-01) (34, 2.85863876342773437500e-01) (35, 8.85320752859115600586e-02) (36, -1.37967569753527641296e-02) (37, 5.09653463959693908691e-02) (38, 5.04526905715465545654e-02) (39, -1.08529858291149139404e-01) (40, -1.46920427680015563965e-01) (41, -1.53688471764326095581e-02) (42, -1.15211687982082366943e-01) (43, 1.59359946846961975098e-01) (44, 9.95957553386688232422e-02) (45, 4.74525988101959228516e-02) (46, -3.42992246150970458984e-02) (47, -1.77369192242622375488e-01) (48, -1.59740066528320312500e+00) (0, 1.10976077616214752197e-01) (1, -4.05737757682800292969e-03) (2, 2.32094787061214447021e-02) (3, -6.54180422425270080566e-02) (4, -1.67262032628059387207e-01) (5, 4.94934506714344024658e-02) (6, -1.35577023029327392578e-01) (7, 1.61487015429884195328e-03) (8, 5.68435154855251312256e-03) (9, 3.01349367946386337280e-02) (10, -5.32369017601013183594e-02) (11, -1.81079298257827758789e-01) (12, -2.26344868540763854980e-01) (13, 2.68910527229309082031e-02) (14, -1.41440453007817268372e-02) (15, -3.45902919769287109375e-01) (16, 8.10895636677742004395e-02) (17, 3.65569372661411762238e-04) (18, 1.47676721215248107910e-01) (19, 4.82463128864765167236e-02) (20, -2.75295168161392211914e-01) (21, -7.12070986628532409668e-02) (22, -2.16256871819496154785e-01) (23, 1.94200798869132995605e-01) (24, -3.77848967909812927246e-02) (25, -3.84873221628367900848e-03) (26, 2.08614841103553771973e-02) (27, 2.03173495829105377197e-02) (28, -9.08286869525909423828e-02) (29, 6.93960562348365783691e-02) (30, 2.02816292643547058105e-01) (31, 4.06863003969192504883e-01) (32, 1.33137941360473632812e-01) (33, 1.23049713671207427979e-01) (34, 1.94636851549148559570e-01) (35, 5.93283660709857940674e-02) (36, -5.39812073111534118652e-02) (37, 9.64126437902450561523e-02) (38, 2.69320935010910034180e-01) (39, 1.79593816399574279785e-01) (40, -9.21002104878425598145e-02) (41, -2.07329597324132919312e-02) (42, -6.10825829207897186279e-02) (43, 1.93015396595001220703e-01) (44, 3.82273048162460327148e-02) (45, 3.28202731907367706299e-02) (46, -9.31540578603744506836e-02) (47, 1.55884087085723876953e-01) (48, -1.61893630027770996094e+00) (0, -6.68190643191337585449e-02) (1, -1.50871455669403076172e-01) (2, -9.93444100022315979004e-02) (3, -1.33733958005905151367e-01) (4, -1.50796044617891311646e-02) (5, 3.38195264339447021484e-02) (6, -1.23866595327854156494e-01) (7, -7.58756138384342193604e-03) (8, -3.68547946214675903320e-01) (9, -7.38020986318588256836e-02) (10, 7.61654525995254516602e-02) (11, -1.80772133171558380127e-02) (12, -2.61145621538162231445e-01) (13, -4.85462322831153869629e-02) (14, -1.69183507561683654785e-01) (15, -1.95042505860328674316e-01) (16, -2.53783203661441802979e-02) (17, 6.02439278736710548401e-04) (18, 1.96925222873687744141e-01) (19, -2.94138654135167598724e-03) (20, -1.38772474601864814758e-02) (21, 2.05878373235464096069e-02) (22, 5.65783530473709106445e-02) (23, 3.71976137161254882812e-01) (24, -3.15092504024505615234e-02) (25, 5.95883093774318695068e-02) (26, 1.46548286080360412598e-01) (27, -1.88975054770708084106e-02) (28, -1.15896746516227722168e-01) (29, 3.01613479852676391602e-01) (30, 3.28247368335723876953e-01) (31, 4.43769633769989013672e-01) (32, 1.59297719597816467285e-01) (33, 1.62377059459686279297e-01) (34, 4.75238800048828125000e-01) (35, 2.31581941246986389160e-01) (36, 7.13681876659393310547e-02) (37, 1.93466052412986755371e-01) (38, 3.70732516050338745117e-01) (39, 8.73661860823631286621e-02) (40, -2.16432027518749237061e-02) (41, 2.04594328999519348145e-01) (42, 2.29554083198308944702e-02) (43, 4.46067214012145996094e-01) (44, 1.53931260108947753906e-01) (45, 1.03820867836475372314e-01) (46, -1.41928732395172119141e-01) (47, -7.10111334919929504395e-02) (48, -1.63861691951751708984e+00) (0, 1.42069220542907714844e-01) (1, -7.67762362957000732422e-02) (2, -2.13137045502662658691e-02) (3, -6.16641379892826080322e-02) (4, -1.30145207047462463379e-01) (5, 8.74713510274887084961e-02) (6, -9.11859124898910522461e-02) (7, -9.21638831496238708496e-02) (8, -6.52399733662605285645e-02) (9, -1.71001151204109191895e-01) (10, -6.32637739181518554688e-02) (11, -2.39514470100402832031e-01) (12, -2.63858526945114135742e-01) (13, 7.95951709151268005371e-02) (14, 3.95335769280791282654e-03) (15, -3.15679103136062622070e-01) (16, 4.25258986651897430420e-02) (17, -2.83978164196014404297e-01) (18, 1.98983505368232727051e-01) (19, 6.11014962196350097656e-02) (20, -1.96475610136985778809e-01) (21, -1.96326047182083129883e-01) (22, -2.41389527916908264160e-01) (23, 2.45405361056327819824e-01) (24, -6.72676978865638375282e-05) (25, -6.00477792322635650635e-02) (26, 8.46182275563478469849e-03) (27, -2.85991653800010681152e-02) (28, -3.34384113550186157227e-01) (29, 1.77368178963661193848e-01) (30, 2.03062877058982849121e-01) (31, 5.24426221847534179688e-01) (32, 1.58062815666198730469e-01) (33, -2.69629936665296554565e-02) (34, 1.61395788192749023438e-01) (35, 1.40075773000717163086e-01) (36, -1.42067953944206237793e-01) (37, 1.29765003919601440430e-01) (38, 3.40322166681289672852e-01) (39, 1.82800665497779846191e-01) (40, 9.58649069070816040039e-03) (41, -2.64502447098493576050e-02) (42, 1.34664336219429969788e-02) (43, 1.67561069130897521973e-01) (44, -5.44934384524822235107e-02) (45, -5.48244006931781768799e-02) (46, 6.87001133337616920471e-03) (47, 2.50164657831192016602e-01) (48, -1.66800868511199951172e+00) (0, -1.39571055769920349121e-01) (1, -2.40029245615005493164e-01) (2, -3.38859111070632934570e-01) (3, -2.81534492969512939453e-01) (4, -5.20310938358306884766e-01) (5, -1.23580075800418853760e-01) (6, -1.84255555272102355957e-01) (7, 1.22909946367144584656e-03) (8, 3.33528146147727966309e-02) (9, -2.94004052877426147461e-01) (10, -4.23930734395980834961e-01) (11, -3.46325635910034179688e-01) (12, -3.17414879798889160156e-01) (13, -1.63133982568979263306e-02) (14, -4.98595796525478363037e-02) (15, 7.70307183265686035156e-02) (16, -1.80998310446739196777e-01) (17, -3.21833670139312744141e-01) (18, -2.17380732297897338867e-01) (19, -4.87941801548004150391e-01) (20, -5.20526051521301269531e-01) (21, -5.09098470211029052734e-01) (22, -4.43210899829864501953e-01) (23, -3.96875739097595214844e-01) (24, 4.18611429631710052490e-02) (25, -2.38812893629074096680e-01) (26, -2.55436152219772338867e-01) (27, -5.28926193714141845703e-01) (28, -4.57212895154953002930e-01) (29, -3.99813622236251831055e-01) (30, -3.50206851959228515625e-01) (31, -7.92544186115264892578e-01) (32, -4.47880029678344726562e-02) (33, -4.17059093713760375977e-01) (34, -3.64599049091339111328e-01) (35, -5.53982019424438476562e-01) (36, -5.53506672382354736328e-01) (37, -4.01953458786010742188e-01) (38, -5.62689661979675292969e-01) (39, -1.09894216060638427734e-01) (40, -4.25845086574554443359e-02) (41, -2.82428443431854248047e-01) (42, -1.39400020241737365723e-01) (43, -5.72589278221130371094e-01) (44, -6.79412961006164550781e-01) (45, -2.99541085958480834961e-01) (46, -2.04463750123977661133e-01) (47, -7.58221670985221862793e-02) (48, -9.49182748794555664062e-01) (0, -5.68482577800750732422e-02) (1, -3.20379674434661865234e-01) (2, -6.58864736557006835938e-01) (3, -3.22127550840377807617e-01) (4, -6.52779281139373779297e-01) (5, -1.60617813467979431152e-01) (6, -5.92410787940025329590e-02) (7, 3.54882441461086273193e-02) (8, 1.36045878753066062927e-02) (9, -4.25126016139984130859e-01) (10, -4.86057758331298828125e-01) (11, -5.83139657974243164062e-01) (12, -4.34959620237350463867e-01) (13, -2.09288597106933593750e-01) (14, -4.32179756462574005127e-02) (15, 1.97801187634468078613e-01) (16, 2.04837229102849960327e-02) (17, -1.70019939541816711426e-01) (18, -1.28103926777839660645e-01) (19, -9.09376919269561767578e-01) (20, -7.82301425933837890625e-01) (21, -6.32046699523925781250e-01) (22, -4.09947663545608520508e-01) (23, -5.32833635807037353516e-01) (24, 1.14219643175601959229e-01) (25, -1.50653168559074401855e-01) (26, 7.04840198159217834473e-02) (27, -5.50624668598175048828e-01) (28, -5.17440974712371826172e-01) (29, -6.66945993900299072266e-01) (30, -5.15406727790832519531e-01) (31, -1.04276657104492187500e+00) (32, 1.85211971402168273926e-01) (33, -4.62983936071395874023e-01) (34, -3.48262548446655273438e-01) (35, -3.87939780950546264648e-01) (36, -7.26004719734191894531e-01) (37, -5.16835987567901611328e-01) (38, -6.89769208431243896484e-01) (39, -9.40242186188697814941e-02) (40, -4.41048145294189453125e-02) (41, -1.63907706737518310547e-01) (42, -1.67840886861085891724e-02) (43, -5.92989742755889892578e-01) (44, -8.16855132579803466797e-01) (45, -2.01928183436393737793e-01) (46, -7.43451118469238281250e-02) (47, -6.47574514150619506836e-02) (48, -7.01880037784576416016e-01) (0, -1.54826208949089050293e-01) (1, -1.85827672481536865234e-01) (2, -1.01417027413845062256e-01) (3, -1.89150080084800720215e-01) (4, -3.21404546499252319336e-01) (5, -1.46795541048049926758e-01) (6, -1.72570906579494476318e-02) (7, 3.48490476608276367188e-02) (8, -1.90228447318077087402e-01) (9, -2.68016934394836425781e-01) (10, -1.85276359319686889648e-01) (11, -2.01249018311500549316e-01) (12, -1.64038196206092834473e-01) (13, -1.31608352065086364746e-01) (14, 9.68898925930261611938e-03) (15, -4.44541499018669128418e-02) (16, -2.02652141451835632324e-01) (17, -2.05923378467559814453e-01) (18, -1.90944686532020568848e-01) (19, -3.07248055934906005859e-01) (20, -2.00476780533790588379e-01) (21, -3.24810713529586791992e-01) (22, -1.72748550772666931152e-01) (23, -2.88650095462799072266e-01) (24, -2.26341262459754943848e-01) (25, -7.62949064373970031738e-02) (26, -3.36884319782257080078e-01) (27, -1.72481030225753784180e-01) (28, -2.98081010580062866211e-01) (29, -2.54982471466064453125e-01) (30, -2.39592239260673522949e-01) (31, -1.63813695311546325684e-01) (32, 1.80914569646120071411e-02) (33, -2.62913346290588378906e-01) (34, -1.90404951572418212891e-01) (35, -3.78343433141708374023e-01) (36, -2.53454238176345825195e-01) (37, -2.13315278291702270508e-01) (38, -2.51059919595718383789e-01) (39, -9.77882891893386840820e-02) (40, 1.24744065105915069580e-01) (41, -1.62172839045524597168e-01) (42, 6.43295608460903167725e-03) (43, -4.43944782018661499023e-01) (44, -3.46086591482162475586e-01) (45, -1.94578886032104492188e-01) (46, -7.76210948824882507324e-02) (47, -1.93433761596679687500e-02) (48, -1.33493053913116455078e+00) (0, -1.46970897912979125977e-01) (1, -2.00305938720703125000e-01) (2, -1.30469322204589843750e-01) (3, -1.87488302588462829590e-01) (4, -4.07271683216094970703e-01) (5, -2.93774485588073730469e-01) (6, -1.37276247143745422363e-01) (7, -5.40094524621963500977e-02) (8, 1.63335595279932022095e-02) (9, -3.60257267951965332031e-01) (10, -1.15282356739044189453e-01) (11, -1.71938270330429077148e-01) (12, -2.56566524505615234375e-01) (13, -1.41897618770599365234e-01) (14, -1.08145624399185180664e-01) (15, -4.10569831728935241699e-02) (16, -3.81127446889877319336e-01) (17, -3.19979101419448852539e-01) (18, -1.90772548317909240723e-01) (19, -2.53733962774276733398e-01) (20, -2.47461348772048950195e-01) (21, -4.09605443477630615234e-01) (22, -2.09841758012771606445e-01) (23, -2.97561079263687133789e-01) (24, -3.80156695842742919922e-01) (25, -3.72165471315383911133e-01) (26, -5.20029008388519287109e-01) (27, -3.63761454820632934570e-01) (28, -4.74789500236511230469e-01) (29, -4.23049747943878173828e-01) (30, -4.14998680353164672852e-01) (31, -3.13756376504898071289e-01) (32, -1.42372354865074157715e-01) (33, -3.59037667512893676758e-01) (34, -5.75763583183288574219e-01) (35, -6.45336091518402099609e-01) (36, -4.45075303316116333008e-01) (37, -3.06052237749099731445e-01) (38, -9.34908017516136169434e-02) (39, -5.61565384268760681152e-02) (40, 1.22671037912368774414e-01) (41, -1.93962931632995605469e-01) (42, -1.13756969571113586426e-01) (43, -8.55794131755828857422e-01) (44, -3.86759728193283081055e-01) (45, -2.92875915765762329102e-01) (46, 1.23015306890010833740e-02) (47, -6.51557818055152893066e-02) (48, -9.74817991256713867188e-01) (0, -1.16545362398028373718e-02) (1, -8.67948010563850402832e-02) (2, -3.37573513388633728027e-02) (3, -2.37596873193979263306e-02) (4, -4.37016010284423828125e-01) (5, -4.79878097772598266602e-01) (6, -2.18689665198326110840e-01) (7, -1.75793647766113281250e-01) (8, 9.30426493287086486816e-02) (9, -5.87865173816680908203e-01) (10, -8.96897986531257629395e-02) (11, -2.70839691162109375000e-01) (12, -3.72733950614929199219e-01) (13, -1.54957264661788940430e-01) (14, 2.55619492381811141968e-02) (15, -1.77128851413726806641e-01) (16, -3.80092948675155639648e-01) (17, -7.56247222423553466797e-01) (18, -2.27511852979660034180e-01) (19, -3.32483232021331787109e-01) (20, -4.14264768362045288086e-01) (21, -3.90066742897033691406e-01) (22, -3.28328877687454223633e-01) (23, -5.73448613286018371582e-02) (24, -4.98058557510375976562e-01) (25, -5.76206743717193603516e-01) (26, -6.02951049804687500000e-01) (27, -3.42230945825576782227e-01) (28, -4.13178026676177978516e-01) (29, -3.80037844181060791016e-01) (30, -2.68353968858718872070e-01) (31, 1.40234470367431640625e-01) (32, -3.07239800691604614258e-01) (33, -7.75155484676361083984e-01) (34, -6.31290853023529052734e-01) (35, -7.48998224735260009766e-01) (36, -3.97829622030258178711e-01) (37, -3.04342806339263916016e-01) (38, 9.01698097586631774902e-02) (39, -2.34713628888130187988e-02) (40, -4.33738976716995239258e-02) (41, -4.58699733018875122070e-01) (42, -1.66850149631500244141e-01) (43, -1.02668535709381103516e+00) (44, -4.52782779932022094727e-01) (45, -2.41677090525627136230e-01) (46, 1.38264417648315429688e-01) (47, 1.04361511766910552979e-01) (48, -1.02637684345245361328e+00) (0, -1.61080211400985717773e-01) (1, -3.32655251026153564453e-01) (2, -5.01625657081604003906e-01) (3, -3.66932719945907592773e-01) (4, -5.91734349727630615234e-01) (5, -9.16729643940925598145e-02) (6, -1.90225228667259216309e-01) (7, -2.96412467956542968750e-01) (8, -8.25547128915786743164e-02) (9, -3.94263237714767456055e-01) (10, -2.39786177873611450195e-01) (11, -3.06199073791503906250e-01) (12, -4.24829959869384765625e-01) (13, -3.19712072610855102539e-01) (14, -1.94783657789230346680e-01) (15, -1.34001865983009338379e-01) (16, 2.99789756536483764648e-01) (17, -1.04331836104393005371e-01) (18, -7.41292312741279602051e-02) (19, -7.77253270149230957031e-01) (20, -5.95257937908172607422e-01) (21, -4.03719097375869750977e-01) (22, -2.59186387062072753906e-01) (23, -5.33909261226654052734e-01) (24, 4.48901027441024780273e-01) (25, 1.73567906022071838379e-02) (26, 1.45460650324821472168e-01) (27, -4.80486124753952026367e-01) (28, -3.28294008970260620117e-01) (29, -4.86617356538772583008e-01) (30, -2.55097299814224243164e-01) (31, -8.32837462425231933594e-01) (32, -2.69306432455778121948e-02) (33, -3.89851219952106475830e-02) (34, 8.20587053894996643066e-02) (35, -8.65335240960121154785e-02) (36, -6.69344246387481689453e-01) (37, -4.45405483245849609375e-01) (38, -4.37249779701232910156e-01) (39, -3.57694864273071289062e-01) (40, -3.44512462615966796875e-01) (41, -2.98103600740432739258e-01) (42, 3.46414148807525634766e-02) (43, -1.58082187175750732422e-01) (44, -4.51647788286209106445e-01) (45, -5.04916496574878692627e-02) (46, -1.76247909665107727051e-01) (47, -9.40464884042739868164e-02) (48, -1.33713757991790771484e+00) (0, -6.61255121231079101562e-02) (1, -1.98515117168426513672e-01) (2, -1.69039800763130187988e-01) (3, -2.39005610346794128418e-01) (4, -7.79224410653114318848e-02) (5, -1.33259132504463195801e-01) (6, -2.18526888638734817505e-02) (7, -4.88528423011302947998e-02) (8, -1.31718561053276062012e-01) (9, 2.11847629398107528687e-02) (10, -5.44363819062709808350e-02) (11, 1.05200149118900299072e-01) (12, -2.01274573802947998047e-01) (13, -2.85413205623626708984e-01) (14, -6.16326965391635894775e-02) (15, 7.15336995199322700500e-03) (16, 5.62675222754478454590e-02) (17, 2.59760692715644836426e-02) (18, -7.62213692069053649902e-02) (19, 1.00025208666920661926e-02) (20, 7.10888532921671867371e-03) (21, -1.74378398805856704712e-02) (22, 1.91714838147163391113e-02) (23, -6.87390938401222229004e-02) (24, 2.13487893342971801758e-02) (25, -4.50880788266658782959e-02) (26, -8.04212763905525207520e-02) (27, -1.17052562534809112549e-01) (28, -2.43852064013481140137e-01) (29, -1.43016815185546875000e-01) (30, -5.97196742892265319824e-02) (31, 2.36998498439788818359e-02) (32, -1.05697661638259887695e-01) (33, 6.60179033875465393066e-02) (34, 4.61287982761859893799e-02) (35, 1.91362164914608001709e-02) (36, -9.27963778376579284668e-02) (37, -1.35935306549072265625e-01) (38, -1.30901768803596496582e-01) (39, -2.19234466552734375000e-01) (40, -7.97627940773963928223e-02) (41, -5.19263893365859985352e-02) (42, -1.48819863796234130859e-01) (43, -1.42300426959991455078e-01) (44, -1.85127660632133483887e-01) (45, -2.32218205928802490234e-02) (46, -1.62938639521598815918e-01) (47, -2.93412029743194580078e-01) (48, -1.56222581863403320312e+00) (0, 1.25302774831652641296e-02) (1, -2.05383941531181335449e-01) (2, -2.40521490573883056641e-01) (3, -2.35877737402915954590e-01) (4, -1.96307912468910217285e-01) (5, -1.50371313095092773438e-01) (6, -1.23737730085849761963e-01) (7, -1.78684949874877929688e-01) (8, 4.85111847519874572754e-02) (9, 1.41019701957702636719e-01) (10, -3.81842479109764099121e-02) (11, -9.95598267763853073120e-03) (12, -2.51937985420227050781e-01) (13, -3.01663428544998168945e-01) (14, -6.45838305354118347168e-02) (15, -3.74258846044540405273e-01) (16, 1.94697126746177673340e-01) (17, 9.36922058463096618652e-02) (18, 3.55692878365516662598e-02) (19, -4.60181161761283874512e-02) (20, -1.97253212332725524902e-01) (21, -6.57799988985061645508e-02) (22, -7.16154351830482482910e-02) (23, 5.09699024260044097900e-02) (24, 3.05516690015792846680e-01) (25, 1.30008131265640258789e-01) (26, 1.66395559906959533691e-01) (27, 9.90375578403472900391e-02) (28, 2.18720417469739913940e-02) (29, -1.84536412358283996582e-01) (30, 1.90942689776420593262e-01) (31, -2.28862632066011428833e-02) (32, -2.84890264272689819336e-01) (33, 1.84540554881095886230e-01) (34, 1.54243707656860351562e-01) (35, -2.77085974812507629395e-03) (36, -3.30209791660308837891e-01) (37, 3.33450511097908020020e-02) (38, 1.12888664007186889648e-01) (39, 3.04548675194382667542e-03) (40, -2.39080831408500671387e-01) (41, -1.75061926245689392090e-01) (42, 1.47160212509334087372e-03) (43, 2.04608619213104248047e-01) (44, 1.37280765920877456665e-03) (45, 7.81760439276695251465e-02) (46, -1.24809667468070983887e-01) (47, -1.20297029614448547363e-01) (48, -1.64839529991149902344e+00) (0, -1.15431331098079681396e-01) (1, -1.73390179872512817383e-01) (2, -5.90645708143711090088e-02) (3, -9.89737138152122497559e-02) (4, -5.24226248264312744141e-01) (5, -1.07801049947738647461e-01) (6, -1.00790388882160186768e-01) (7, 3.22699733078479766846e-02) (8, -3.23036825284361839294e-03) (9, -2.37711638212203979492e-01) (10, -1.59446522593498229980e-01) (11, -2.72891044616699218750e-01) (12, -4.87212538719177246094e-01) (13, -1.17430187761783599854e-01) (14, -1.48017108440399169922e-01) (15, 2.83743858337402343750e-01) (16, -1.40277937054634094238e-01) (17, -2.10995711386203765869e-02) (18, -2.29548916220664978027e-01) (19, -4.09194380044937133789e-01) (20, -4.58463251590728759766e-01) (21, -5.47595143318176269531e-01) (22, -3.83610635995864868164e-01) (23, -6.39813542366027832031e-01) (24, 1.53240501880645751953e-01) (25, -2.88916647434234619141e-01) (26, -1.87548279762268066406e-01) (27, -4.82366412878036499023e-01) (28, -5.95904529094696044922e-01) (29, -3.56043785810470581055e-01) (30, -6.42131567001342773438e-01) (31, -7.64939606189727783203e-01) (32, 2.57337570190429687500e-01) (33, -2.61459052562713623047e-01) (34, -2.86145448684692382812e-01) (35, -5.93598008155822753906e-01) (36, -6.93234384059906005859e-01) (37, -4.96060311794281005859e-01) (38, -4.09165441989898681641e-01) (39, -5.38441538810729980469e-03) (40, -1.67327970266342163086e-02) (41, -3.17083656787872314453e-01) (42, -3.22527766227722167969e-01) (43, -5.91758251190185546875e-01) (44, -6.86568677425384521484e-01) (45, -2.65063136816024780273e-01) (46, -9.46638658642768859863e-02) (47, -1.97097659111022949219e-01) (48, -1.11836445331573486328e+00) (0, 7.08771795034408569336e-02) (1, 1.12028804142028093338e-03) (2, -1.72089785337448120117e-02) (3, 1.75498221069574356079e-02) (4, -3.60093242488801479340e-03) (5, -3.07606365531682968140e-02) (6, -1.01301684975624084473e-01) (7, -1.28585919737815856934e-01) (8, -4.98828850686550140381e-02) (9, -1.16712629795074462891e-01) (10, -1.14502273499965667725e-01) (11, -1.91510856151580810547e-01) (12, -1.79810881614685058594e-01) (13, -7.72759467363357543945e-02) (14, 8.47625732421875000000e-03) (15, -2.85572856664657592773e-01) (16, -1.74460947513580322266e-01) (17, -1.75134941935539245605e-01) (18, -7.70376846194267272949e-02) (19, -2.43893787264823913574e-01) (20, -2.20261856913566589355e-01) (21, -2.17107653617858886719e-01) (22, -9.87327620387077331543e-02) (23, 8.63088965415954589844e-02) (24, -1.71472594141960144043e-01) (25, -1.76885634660720825195e-01) (26, -1.43576815724372863770e-01) (27, -2.75371313095092773438e-01) (28, -1.28793939948081970215e-01) (29, -2.08728983998298645020e-01) (30, 5.83562031388282775879e-02) (31, 1.05316704139113426208e-02) (32, -1.99530690908432006836e-01) (33, -2.30091586709022521973e-01) (34, -1.36214688420295715332e-01) (35, -2.52087295055389404297e-01) (36, -2.16619595885276794434e-01) (37, -2.21073580905795097351e-03) (38, -1.25305578112602233887e-01) (39, -1.28854736685752868652e-01) (40, -3.95193658769130706787e-02) (41, -8.36846008896827697754e-02) (42, -1.03063568472862243652e-01) (43, -1.61362305283546447754e-01) (44, -2.53434270620346069336e-01) (45, -5.84680624306201934814e-02) (46, -9.83426067978143692017e-03) (47, -6.52077943086624145508e-02) (48, -1.55317044258117675781e+00) (0, -1.06296241283416748047e-01) (1, -1.46832689642906188965e-01) (2, -5.52091337740421295166e-02) (3, -1.42584592103958129883e-01) (4, -3.24204683303833007812e-01) (5, -8.68532285094261169434e-02) (6, 7.86119792610406875610e-03) (7, -6.84438049793243408203e-02) (8, 1.00050633773207664490e-02) (9, -1.32082387804985046387e-01) (10, -2.14908421039581298828e-01) (11, -2.34882652759552001953e-01) (12, -2.11050882935523986816e-01) (13, -8.87377709150314331055e-02) (14, -6.12903647124767303467e-02) (15, 4.57410104572772979736e-02) (16, -8.93989503383636474609e-02) (17, -2.36685588955879211426e-01) (18, -1.82376220822334289551e-01) (19, -2.27221876382827758789e-01) (20, -2.05760866403579711914e-01) (21, -2.50926911830902099609e-01) (22, -1.64187997579574584961e-01) (23, -2.50447809696197509766e-01) (24, -4.94948253035545349121e-02) (25, -2.37666040658950805664e-01) (26, -2.63691753149032592773e-01) (27, -2.36696079373359680176e-01) (28, -3.79196375608444213867e-01) (29, -2.28794842958450317383e-01) (30, -2.85326331853866577148e-01) (31, -2.62603551149368286133e-01) (32, 7.15657174587249755859e-02) (33, -3.24441879987716674805e-01) (34, -1.93256422877311706543e-01) (35, -4.43047523498535156250e-01) (36, -2.70408630371093750000e-01) (37, -1.79958969354629516602e-01) (38, -1.97281420230865478516e-01) (39, -7.03982263803482055664e-02) (40, 3.32322232425212860107e-02) (41, -8.81175100803375244141e-02) (42, -5.78903257846832275391e-02) (43, -4.75293338298797607422e-01) (44, -3.80698680877685546875e-01) (45, -1.03041499853134155273e-01) (46, -2.18178611248731613159e-02) (47, -1.22455693781375885010e-01) (48, -1.38426172733306884766e+00) (0, -8.36488828063011169434e-02) (1, -1.25350639224052429199e-01) (2, 3.33446152508258819580e-02) (3, -7.45981857180595397949e-02) (4, -1.03782182559370994568e-02) (5, -7.28700608015060424805e-02) (6, -9.61756929755210876465e-02) (7, -5.15020117163658142090e-02) (8, -5.21979294717311859131e-02) (9, 1.25224918127059936523e-01) (10, 9.08619612455368041992e-02) (11, -1.12461231648921966553e-01) (12, -2.41361901164054870605e-01) (13, -1.85330390930175781250e-01) (14, -1.89658895134925842285e-01) (15, -3.20334941148757934570e-01) (16, 3.14108282327651977539e-01) (17, 1.83678478002548217773e-01) (18, 4.63037267327308654785e-02) (19, -1.77940074354410171509e-03) (20, -1.47655487060546875000e-01) (21, -4.20352537184953689575e-03) (22, -5.32736890017986297607e-02) (23, 3.18400233983993530273e-01) (24, 2.82528281211853027344e-01) (25, 2.61565417051315307617e-01) (26, 3.39070141315460205078e-01) (27, 1.19259588420391082764e-01) (28, -5.04052080214023590088e-02) (29, 1.61699373275041580200e-02) (30, 4.01165038347244262695e-01) (31, 4.23191249370574951172e-01) (32, -1.41012459993362426758e-01) (33, 4.10608977079391479492e-01) (34, 4.49397504329681396484e-01) (35, 2.12453156709671020508e-01) (36, -2.09712937474250793457e-01) (37, 2.07501396536827087402e-01) (38, 1.15877859294414520264e-01) (39, 1.17382034659385681152e-01) (40, -2.15448483824729919434e-01) (41, 1.29525706171989440918e-01) (42, -4.80486005544662475586e-02) (43, 3.77156913280487060547e-01) (44, 2.29559212923049926758e-01) (45, 8.29311907291412353516e-02) (46, 1.69756133109331130981e-02) (47, 1.41101861372590065002e-02) (48, -1.59788787364959716797e+00) (0, -3.51195372641086578369e-02) (1, -2.26587399840354919434e-01) (2, -4.03849005699157714844e-01) (3, -2.51544594764709472656e-01) (4, -5.13430714607238769531e-01) (5, -1.00731261074542999268e-01) (6, -7.02539011836051940918e-02) (7, -1.23248234391212463379e-01) (8, -1.54408916831016540527e-01) (9, -3.85565817356109619141e-01) (10, -2.54263579845428466797e-01) (11, -4.57680672407150268555e-01) (12, -4.93808299303054809570e-01) (13, -1.29330143332481384277e-01) (14, -1.11779496073722839355e-01) (15, 4.75472363177686929703e-04) (16, -7.21025019884109497070e-02) (17, -2.58209407329559326172e-01) (18, -2.35158115625381469727e-01) (19, -4.84388709068298339844e-01) (20, -6.94895148277282714844e-01) (21, -4.94530916213989257812e-01) (22, -4.36567455530166625977e-01) (23, -6.04527711868286132812e-01) (24, 1.19197390973567962646e-01) (25, -1.81286871433258056641e-01) (26, -2.57165461778640747070e-01) (27, -3.97359251976013183594e-01) (28, -4.59309041500091552734e-01) (29, -3.97837847471237182617e-01) (30, -4.92675513029098510742e-01) (31, -9.17316734790802001953e-01) (32, -1.70192942023277282715e-02) (33, -2.53658652305603027344e-01) (34, -1.63831129670143127441e-01) (35, -3.96133303642272949219e-01) (36, -7.46681511402130126953e-01) (37, -3.67944717407226562500e-01) (38, -5.25759100914001464844e-01) (39, -2.13871762156486511230e-01) (40, -4.18018102645874023438e-02) (41, -2.91783094406127929688e-01) (42, -9.56992581486701965332e-02) (43, -3.51239264011383056641e-01) (44, -7.62082159519195556641e-01) (45, -2.54579603672027587891e-01) (46, -1.89140215516090393066e-02) (47, -9.82101485133171081543e-02) (48, -1.05732071399688720703e+00) (0, -1.48555040359497070312e-01) (1, -1.20949432253837585449e-01) (2, -7.86958485841751098633e-02) (3, -1.52547061443328857422e-01) (4, -8.18119570612907409668e-02) (5, 6.36436641216278076172e-02) (6, -3.10427919030189514160e-02) (7, -7.54672214388847351074e-02) (8, -2.15478792786598205566e-01) (9, -3.00047770142555236816e-02) (10, -4.83662560582160949707e-02) (11, -8.70523676276206970215e-02) (12, -1.17097437381744384766e-01) (13, -1.03281453251838684082e-01) (14, -1.87694460153579711914e-01) (15, -1.15694124251604080200e-02) (16, -1.50393620133399963379e-01) (17, -1.36802047491073608398e-01) (18, 1.80152848362922668457e-01) (19, 7.26587995886802673340e-02) (20, 9.49603095650672912598e-02) (21, 5.99997602403163909912e-02) (22, -1.26219363883137702942e-02) (23, -2.79600243084132671356e-03) (24, -1.51697903871536254883e-01) (25, -8.21307227015495300293e-02) (26, -4.33581396937370300293e-02) (27, -1.90302245318889617920e-02) (28, -2.35190287232398986816e-01) (29, 1.00612305104732513428e-01) (30, 1.09481252729892730713e-01) (31, 1.55333667993545532227e-01) (32, 1.55991703271865844727e-01) (33, 1.74350142478942871094e-02) (34, 8.38794857263565063477e-02) (35, 8.94296988844871520996e-02) (36, 7.96803459525108337402e-02) (37, -4.11011427640914916992e-02) (38, 8.40253531932830810547e-02) (39, -1.40844225883483886719e-01) (40, 9.21739339828491210938e-02) (41, 1.29037648439407348633e-01) (42, 1.36807978153228759766e-01) (43, 1.13013580441474914551e-01) (44, -5.56900724768638610840e-02) (45, -1.32149413228034973145e-01) (46, -1.51486814022064208984e-01) (47, -2.56984978914260864258e-01) (48, -1.66499996185302734375e+00) (0, -1.61057844758033752441e-01) (1, -5.30053861439228057861e-02) (2, -2.20647901296615600586e-02) (3, -2.15691179037094116211e-01) (4, -1.50803029537200927734e-01) (5, -9.29384902119636535645e-02) (6, -7.98228681087493896484e-02) (7, -6.94687571376562118530e-03) (8, -2.12538957595825195312e-01) (9, -1.64247706532478332520e-01) (10, 1.47857340052723884583e-02) (11, 3.63299883902072906494e-02) (12, -1.68615445494651794434e-01) (13, -2.05757141113281250000e-01) (14, -4.68912646174430847168e-02) (15, -6.83981180191040039062e-02) (16, -1.09924256801605224609e-01) (17, -9.82434675097465515137e-02) (18, -1.12263180315494537354e-01) (19, -8.26481282711029052734e-02) (20, -6.24245107173919677734e-02) (21, -1.24173551797866821289e-01) (22, -8.76919254660606384277e-02) (23, -1.31766110658645629883e-01) (24, -1.22839055955410003662e-01) (25, 5.93743026256561279297e-02) (26, 7.70974392071366310120e-03) (27, -1.19817517697811126709e-01) (28, -2.76104003190994262695e-01) (29, -9.65409353375434875488e-02) (30, -3.87946330010890960693e-02) (31, 3.38651947677135467529e-02) (32, 1.32586583495140075684e-01) (33, 2.05517821013927459717e-02) (34, -8.95960554480552673340e-02) (35, -1.34218230843544006348e-01) (36, -1.01472340524196624756e-01) (37, -8.98242518305778503418e-02) (38, 1.89466401934623718262e-02) (39, -2.29876071214675903320e-01) (40, 3.24676074087619781494e-02) (41, -2.64541106298565864563e-03) (42, 5.55135533213615417480e-02) (43, -1.25693231821060180664e-01) (44, -1.55859068036079406738e-01) (45, -5.45591302216053009033e-02) (46, -1.48693695664405822754e-01) (47, -1.06231123208999633789e-01) (48, -1.54873323440551757812e+00) (0, 1.11181186512112617493e-02) (1, -1.09957657754421234131e-01) (2, -2.10488528013229370117e-01) (3, -2.59440153837203979492e-01) (4, -2.42571249604225158691e-01) (5, -6.67733177542686462402e-02) (6, -1.69832751154899597168e-01) (7, -1.35110393166542053223e-01) (8, 4.64174151420593261719e-02) (9, -1.52238875627517700195e-01) (10, -9.64310914278030395508e-02) (11, -1.28062725067138671875e-01) (12, -2.44719237089157104492e-01) (13, -1.00849993526935577393e-01) (14, -8.94985627382993698120e-03) (15, -4.45753894746303558350e-03) (16, 7.44970329105854034424e-03) (17, -5.16825094819068908691e-02) (18, -1.68566361069679260254e-01) (19, -3.05629372596740722656e-01) (20, -3.07434886693954467773e-01) (21, -2.54053503274917602539e-01) (22, -1.29965960979461669922e-01) (23, -1.59283161163330078125e-01) (24, -2.60803848505020141602e-02) (25, -2.28718504309654235840e-01) (26, -8.12895596027374267578e-02) (27, -2.79852092266082763672e-01) (28, -1.71618133783340454102e-01) (29, -2.91097849607467651367e-01) (30, -2.36108154058456420898e-01) (31, -4.19612497091293334961e-01) (32, -3.25125418603420257568e-02) (33, -2.23788276314735412598e-01) (34, -2.13553145527839660645e-01) (35, -2.60803490877151489258e-01) (36, -3.93371939659118652344e-01) (37, -1.72928184270858764648e-01) (38, -1.87221020460128784180e-01) (39, -7.79223516583442687988e-02) (40, -2.10855916142463684082e-01) (41, -1.36970743536949157715e-01) (42, -1.35824471712112426758e-01) (43, -3.41225236654281616211e-01) (44, -2.98231542110443115234e-01) (45, -1.83239698410034179688e-01) (46, -3.43744158744812011719e-02) (47, -1.42577201128005981445e-01) (48, -1.38035631179809570312e+00) (0, -1.92394420504570007324e-01) (1, -1.50302663445472717285e-01) (2, -9.68710482120513916016e-02) (3, -8.36466699838638305664e-02) (4, -1.32123589515686035156e-01) (5, -1.72730371356010437012e-01) (6, -1.67936593294143676758e-01) (7, -1.60067267715930938721e-02) (8, -1.12771630287170410156e-01) (9, -1.39898449182510375977e-01) (10, 4.51527088880538940430e-02) (11, 6.01205453276634216309e-02) (12, -3.70809018611907958984e-01) (13, -2.77509897947311401367e-01) (14, -1.25349000096321105957e-01) (15, 2.45333328843116760254e-01) (16, -1.90868079662322998047e-01) (17, -9.16724056005477905273e-02) (18, -1.41385510563850402832e-01) (19, -7.61489123106002807617e-02) (20, -2.45255172252655029297e-01) (21, -1.29582852125167846680e-01) (22, 1.45392548292875289917e-02) (23, -1.66698649525642395020e-01) (24, -1.39651179313659667969e-01) (25, -1.19540646672248840332e-01) (26, -2.43108585476875305176e-01) (27, -2.67025023698806762695e-01) (28, -4.12695258855819702148e-01) (29, -1.80306389927864074707e-01) (30, -3.32555890083312988281e-01) (31, -1.78518936038017272949e-01) (32, 1.77912250161170959473e-01) (33, -8.81461650133132934570e-02) (34, -2.00535863637924194336e-01) (35, -2.17853918671607971191e-01) (36, -1.57901972532272338867e-01) (37, -2.26257279515266418457e-01) (38, -1.84031855314970016479e-02) (39, -1.34504780173301696777e-01) (40, 1.52964025735855102539e-01) (41, 3.64812230691313743591e-03) (42, -2.91167087852954864502e-02) (43, -4.64315474033355712891e-01) (44, -3.19933325052261352539e-01) (45, -2.56866455078125000000e-01) (46, -2.18734189867973327637e-01) (47, -3.31887036561965942383e-01) (48, -1.47419428825378417969e+00) (0, -1.46730273962020874023e-01) (1, -7.33974501490592956543e-02) (2, -2.29106858372688293457e-01) (3, -1.24213658273220062256e-01) (4, -2.12854206562042236328e-01) (5, -1.40913948416709899902e-01) (6, -2.00093969702720642090e-01) (7, -2.14220583438873291016e-01) (8, -1.74315385520458221436e-02) (9, -1.58515140414237976074e-01) (10, -1.82186365127563476562e-01) (11, -2.15747490525245666504e-01) (12, -2.68865674734115600586e-01) (13, -1.82028591632843017578e-01) (14, -6.92971646785736083984e-02) (15, -9.59751009941101074219e-02) (16, -2.58075930178165435791e-02) (17, -5.20772598683834075928e-02) (18, -2.06402778625488281250e-01) (19, -2.43842199444770812988e-01) (20, -3.55711668729782104492e-01) (21, -1.78070887923240661621e-01) (22, -9.55239534378051757812e-02) (23, -1.54241606593132019043e-01) (24, 1.02780304849147796631e-01) (25, -4.75518479943275451660e-02) (26, -2.83162090927362442017e-02) (27, -1.81367263197898864746e-01) (28, -2.16000989079475402832e-01) (29, -2.58578002452850341797e-01) (30, -8.55477079749107360840e-02) (31, -2.38356873393058776855e-01) (32, -6.87634572386741638184e-02) (33, -1.08697086572647094727e-01) (34, -2.13059540838003158569e-02) (35, -2.27941736578941345215e-01) (36, -3.24895113706588745117e-01) (37, -3.27706843614578247070e-01) (38, -3.05603742599487304688e-01) (39, -2.14586019515991210938e-01) (40, -1.24853789806365966797e-01) (41, -1.38200566172599792480e-01) (42, -6.39325231313705444336e-02) (43, -1.10215581953525543213e-01) (44, -3.29602777957916259766e-01) (45, -1.39398992061614990234e-01) (46, -2.26388573646545410156e-01) (47, -1.37829139828681945801e-01) (48, -1.46377134323120117188e+00) (0, -1.53020456433296203613e-01) (1, -1.66129186749458312988e-01) (2, -1.75977498292922973633e-01) (3, -2.10106551647186279297e-01) (4, -2.20413476228713989258e-01) (5, -2.05985724925994873047e-01) (6, -6.18694499135017395020e-02) (7, 1.69678300619125366211e-01) (8, -1.87863543629646301270e-01) (9, -2.25457713007926940918e-01) (10, -1.11306816339492797852e-01) (11, -8.72738212347030639648e-02) (12, -4.95213687419891357422e-01) (13, -6.19719438254833221436e-02) (14, -3.17505374550819396973e-02) (15, 3.97362485527992248535e-02) (16, -3.52180868387222290039e-01) (17, -2.49944910407066345215e-01) (18, -6.19810894131660461426e-02) (19, -2.05151349306106567383e-01) (20, -8.39027985930442810059e-02) (21, 8.59588012099266052246e-02) (22, 6.57931789755821228027e-02) (23, 6.26611988991498947144e-03) (24, -3.43161016702651977539e-01) (25, -7.10206106305122375488e-02) (26, -1.98503792285919189453e-01) (27, -2.36032113432884216309e-01) (28, -1.44660264253616333008e-01) (29, 1.67044878005981445312e-01) (30, -1.27659052610397338867e-01) (31, -3.51406708359718322754e-02) (32, 3.60499061644077301025e-02) (33, -1.30125552415847778320e-01) (34, -1.12271964550018310547e-01) (35, -1.73587337136268615723e-01) (36, 2.40070335566997528076e-02) (37, 1.10873626545071601868e-03) (38, 1.35599479079246520996e-01) (39, -2.60221540927886962891e-01) (40, 1.83342531323432922363e-01) (41, 1.02304898202419281006e-01) (42, 1.55343517661094665527e-01) (43, -3.11545193195343017578e-01) (44, -5.40648885071277618408e-02) (45, -1.79759293794631958008e-01) (46, -1.23004443943500518799e-01) (47, -3.97312432527542114258e-01) (48, -1.60501110553741455078e+00) (0, 6.91230222582817077637e-03) (1, -3.73857378959655761719e-01) (2, -3.74083280563354492188e-01) (3, -3.33579719066619873047e-01) (4, -5.58217287063598632812e-01) (5, -1.61178052425384521484e-01) (6, -3.00803631544113159180e-01) (7, -4.90021079778671264648e-01) (8, 2.05430448055267333984e-01) (9, -1.66800007224082946777e-01) (10, 6.38272166252136230469e-02) (11, -1.68890673667192459106e-02) (12, -3.93780648708343505859e-01) (13, -3.08546662330627441406e-01) (14, -3.17405074834823608398e-01) (15, -4.01531219482421875000e-01) (16, 4.44115728139877319336e-01) (17, -2.63633608818054199219e-01) (18, -1.61733135581016540527e-01) (19, -3.70762974023818969727e-01) (20, -2.92428463697433471680e-01) (21, 7.91873037815093994141e-03) (22, 1.20552785694599151611e-01) (23, -4.86327767372131347656e-01) (24, 5.94871878623962402344e-01) (25, 1.39392107725143432617e-01) (26, -1.70843000523746013641e-03) (27, -3.70724886655807495117e-01) (28, -1.61967277526855468750e-01) (29, -4.59407866001129150391e-01) (30, -1.01958982646465301514e-01) (31, -2.77959167957305908203e-01) (32, -4.33141469955444335938e-01) (33, 2.55269765853881835938e-01) (34, -8.46321880817413330078e-03) (35, -2.18962624669075012207e-01) (36, -6.70315563678741455078e-01) (37, -2.04691767692565917969e-01) (38, -4.01536464691162109375e-01) (39, -3.01189333200454711914e-01) (40, -4.98884201049804687500e-01) (41, -1.22437953948974609375e-01) (42, 